{
  "modelName": "3_gesture_right_hand_model",
  "modelType": "neural_network",
  "poseType": "hands",
  "gestureNames": [
    "right hand open",
    "right hand close",
    "right hand staythere"
  ],
  "labelEncoder": {
    "right hand open": 0,
    "right hand close": 1,
    "right hand staythere": 2
  },
  "labelDecoder": {
    "0": "right hand open",
    "1": "right hand close",
    "2": "right hand staythere"
  },
  "accuracy": 0.9942973256111145,
  "trainingTime": "43.49",
  "numFeatures": 88,
  "numClasses": 3,
  "sampleCounts": {
    "right hand open": 635,
    "right hand close": 598,
    "right hand staythere": 551
  },
  "totalSamples": 2455,
  "timestamp": "2026-01-28T06:33:26.524Z",
  "architecture": {
    "layers": [
      128,
      64
    ],
    "dropout": [
      0.3,
      0.2
    ]
  },
  "config": {
    "epochs": 30,
    "learningRate": 0.001,
    "batchSize": 24,
    "validationSplit": 0.2
  },
  "weights": [
    {
      "name": "dense_Dense1",
      "weights": [
        {
          "shape": [
            88,
            128
          ],
          "data": [
            -0.28936681151390076,
            -0.020756836980581284,
            0.24385057389736176,
            -0.03575555607676506,
            -0.07743137329816818,
            -0.1532382369041443,
            -0.1816975474357605,
            0.14087991416454315,
            0.03279580548405647,
            -0.029488030821084976,
            0.17914076149463654,
            0.0736820176243782,
            0.15061047673225403,
            0.0026185133028775454,
            0.13387131690979004,
            -0.13129080832004547,
            0.043489113450050354,
            -0.10994428396224976,
            -0.022060085088014603,
            -0.09289847314357758,
            -0.1709425449371338,
            0.28917741775512695,
            -0.03975261002779007,
            0.18858399987220764,
            0.03296780213713646,
            0.1348387449979782,
            0.038194186985492706,
            0.1962958425283432,
            -0.059386130422353745,
            0.12427084147930145,
            -0.12107732146978378,
            0.063327856361866,
            0.09935221821069717,
            -0.12669043242931366,
            -0.005690332967787981,
            -0.006248476915061474,
            -0.1346210092306137,
            0.18054518103599548,
            -0.08580274879932404,
            0.006496150977909565,
            -0.010495913214981556,
            0.1729133576154709,
            -0.21111275255680084,
            -0.02362622693181038,
            0.2365904152393341,
            -0.04694562777876854,
            -0.09564080089330673,
            0.2096181958913803,
            -0.12662817537784576,
            -0.09922446310520172,
            -0.09688486158847809,
            -0.028088679537177086,
            0.04878704994916916,
            0.1063995361328125,
            0.1206052228808403,
            0.2619323432445526,
            -0.03894290328025818,
            0.11407658457756042,
            -0.1586364358663559,
            -0.10032384842634201,
            -0.17432807385921478,
            -0.13529887795448303,
            0.12378859519958496,
            -0.039901893585920334,
            -0.04331175982952118,
            -0.10488968342542648,
            -0.01168481819331646,
            0.022228142246603966,
            0.0020689743105322123,
            -0.00662068510428071,
            0.12828019261360168,
            0.028067350387573242,
            -0.254381000995636,
            -0.11844654381275177,
            -0.03743886202573776,
            0.024959910660982132,
            0.00326409749686718,
            0.2403644621372223,
            0.06555350124835968,
            -0.1594199240207672,
            0.12892349064350128,
            -0.03561185672879219,
            -0.19638217985630035,
            0.09880290925502777,
            0.10423467308282852,
            -0.0311762522906065,
            0.1090506985783577,
            -0.12478403002023697,
            0.23710688948631287,
            0.1361180543899536,
            -0.09466694295406342,
            0.25041401386260986,
            0.15508383512496948,
            -0.060949958860874176,
            0.1241234540939331,
            -0.13785935938358307,
            0.16132579743862152,
            0.039969224482774734,
            0.045112818479537964,
            -0.024676382541656494,
            -0.11151484400033951,
            0.10795250535011292,
            -0.18288521468639374,
            0.20391404628753662,
            0.08305252343416214,
            0.15079866349697113,
            -0.007743733003735542,
            -0.0068885562941432,
            -0.2604871094226837,
            0.00377271743491292,
            -0.01411078404635191,
            0.2295352667570114,
            -0.096584752202034,
            0.24294759333133698,
            0.04197724163532257,
            0.013687178492546082,
            -0.08136236667633057,
            -0.29460999369621277,
            -0.08497946709394455,
            0.02475573867559433,
            -0.14264406263828278,
            -0.10320468246936798,
            -0.20666882395744324,
            -0.04585130885243416,
            0.008544067852199078,
            0.06570761650800705,
            -0.12622541189193726,
            0.1708526313304901,
            0.12172459065914154,
            -0.14794938266277313,
            -0.01864708587527275,
            0.14116278290748596,
            -0.12917841970920563,
            0.1348661184310913,
            -0.1610582172870636,
            -0.13499897718429565,
            0.06082068011164665,
            0.11551377177238464,
            0.01271757297217846,
            0.14578096568584442,
            -0.288894385099411,
            -0.07234641164541245,
            0.13492216169834137,
            -0.07252784818410873,
            0.21231354773044586,
            -0.13552917540073395,
            -0.10790428519248962,
            0.14468559622764587,
            -0.21736085414886475,
            0.039875324815511703,
            -0.21142882108688354,
            0.02606058306992054,
            -0.033499717712402344,
            0.035326920449733734,
            0.29426467418670654,
            0.18527649343013763,
            -0.00826235581189394,
            -0.0014014290645718575,
            -0.07073183357715607,
            -0.13832926750183105,
            -0.19533397257328033,
            0.13121531903743744,
            0.10932067036628723,
            0.0030889001209288836,
            -0.09237813949584961,
            -0.16213375329971313,
            -0.034630030393600464,
            0.000674333656206727,
            -0.09594763070344925,
            -0.06966626644134521,
            -0.019613254815340042,
            0.13943322002887726,
            0.043066833168268204,
            -0.06853484362363815,
            -0.06352697312831879,
            -0.23147839307785034,
            0.020340850576758385,
            0.07959266006946564,
            0.09244641661643982,
            -0.013598453253507614,
            0.024657772853970528,
            0.0673791915178299,
            0.013152090832591057,
            0.2786481976509094,
            0.021851805970072746,
            -0.24121391773223877,
            -0.22403647005558014,
            -0.01013418659567833,
            0.06823252141475677,
            0.011770127341151237,
            0.07838388532400131,
            -0.05597037076950073,
            -0.2454843521118164,
            0.28971928358078003,
            -0.15793786942958832,
            -0.17395535111427307,
            0.04111917316913605,
            -0.025511998683214188,
            0.05122474208474159,
            0.04167994484305382,
            -0.01435156725347042,
            -0.08997286856174469,
            0.07952958345413208,
            -0.004644483793526888,
            -0.08851761370897293,
            0.09056667983531952,
            -0.04448001831769943,
            -0.15533043444156647,
            -0.05346659570932388,
            -0.03395354002714157,
            -0.06535951793193817,
            0.09287512302398682,
            0.18490707874298096,
            0.04465753957629204,
            0.07550443708896637,
            0.17294882237911224,
            -0.03650183230638504,
            -0.04766923561692238,
            0.222101628780365,
            -0.026073558256030083,
            -0.022876417264342308,
            -0.048578694462776184,
            -0.08184245973825455,
            -0.05880434066057205,
            -0.08386128395795822,
            0.21344074606895447,
            -0.12115292996168137,
            -0.19774895906448364,
            0.021461736410856247,
            0.03718283772468567,
            -0.05523226782679558,
            -0.16298998892307281,
            -0.10446304827928543,
            0.20319214463233948,
            -0.23170702159404755,
            -0.0009864924941211939,
            -0.09903145581483841,
            0.14443998038768768,
            0.1967281699180603,
            0.09133147448301315,
            0.18292155861854553,
            0.03315277770161629,
            -0.13622507452964783,
            -0.08544588088989258,
            -0.2091464400291443,
            0.19609709084033966,
            0.19647939503192902,
            0.28555333614349365,
            -0.19948111474514008,
            -0.004714550916105509,
            0.174043670296669,
            0.12565986812114716,
            -0.22898101806640625,
            -0.008784320205450058,
            -0.17479202151298523,
            -0.002505833050236106,
            0.12184509634971619,
            0.09905979037284851,
            -0.09415463358163834,
            -0.01830172725021839,
            0.05461617559194565,
            -0.16311639547348022,
            -0.05764554440975189,
            0.2522873282432556,
            -0.009981300681829453,
            0.03331473842263222,
            -0.23469826579093933,
            -0.1263684183359146,
            0.038126472383737564,
            -0.004694617353379726,
            0.0010418546153232455,
            -0.024264400824904442,
            -0.20955348014831543,
            -0.14236579835414886,
            0.13281597197055817,
            0.04857688024640083,
            -0.008809260092675686,
            0.09541594237089157,
            0.10112494975328445,
            0.19267427921295166,
            -0.16192087531089783,
            -0.05496437847614288,
            0.05504099652171135,
            0.015596175566315651,
            0.04466989263892174,
            -0.151397243142128,
            0.1856723576784134,
            -0.14324890077114105,
            -0.06295128911733627,
            -0.02195092663168907,
            0.10004306584596634,
            -0.24575616419315338,
            -0.2049674689769745,
            -0.1474609375,
            -0.015169287100434303,
            -0.050627559423446655,
            0.043959759175777435,
            0.030447589233517647,
            -0.033449653536081314,
            0.08808693289756775,
            -0.1860758513212204,
            -0.1739061176776886,
            -0.04873280227184296,
            0.26694178581237793,
            -0.025995682924985886,
            0.15167000889778137,
            0.01279369369149208,
            0.0961163192987442,
            -0.2576221525669098,
            0.08026067167520523,
            0.10629698634147644,
            0.17411954700946808,
            -0.02939371019601822,
            0.11598126590251923,
            0.16020500659942627,
            0.2618374526500702,
            -0.05512412264943123,
            -0.0909002348780632,
            0.01979210041463375,
            0.10323110222816467,
            0.04425906762480736,
            -0.21194763481616974,
            -0.013803927227854729,
            0.09886585921049118,
            -0.24399392306804657,
            -0.10290354490280151,
            0.056547898799180984,
            0.035858701914548874,
            -0.1764811873435974,
            0.12117912620306015,
            -0.011491171084344387,
            0.11273225396871567,
            0.038762349635362625,
            -0.07880768924951553,
            0.022401707246899605,
            0.04621652141213417,
            0.05675221234560013,
            0.08086606115102768,
            -0.07314098626375198,
            -0.05268557369709015,
            0.1502755880355835,
            -0.246196448802948,
            0.11654030531644821,
            -0.15374180674552917,
            0.014477822929620743,
            0.015769224613904953,
            -0.09182438999414444,
            0.1524551957845688,
            -0.022692661732435226,
            0.1349407285451889,
            0.11842992156744003,
            0.07061472535133362,
            0.2723783850669861,
            0.08546475321054459,
            0.03252217546105385,
            -0.14508549869060516,
            -0.016648830845952034,
            -0.017433881759643555,
            0.17634402215480804,
            -0.036636870354413986,
            0.05223189294338226,
            -0.0031936520244926214,
            0.05954199656844139,
            0.08579447865486145,
            -0.1882351189851761,
            0.16672877967357635,
            0.23131780326366425,
            0.04784661531448364,
            -0.010336732491850853,
            0.24286922812461853,
            0.019645683467388153,
            0.1218990683555603,
            0.2276395857334137,
            -0.05673816055059433,
            -0.012697563506662846,
            0.16308893263339996,
            -0.25421443581581116,
            -0.07714924961328506,
            -0.012041439302265644,
            0.10550642013549805,
            -0.19089725613594055,
            -0.03466593846678734,
            -0.00012374574725981802,
            0.10894715040922165,
            -0.2272087037563324,
            0.19995251297950745,
            0.02279844880104065,
            -0.01439161878079176,
            -0.0537111833691597,
            -0.10724443197250366,
            0.08262649178504944,
            -0.16998974978923798,
            0.10730041563510895,
            -0.19729894399642944,
            0.08999433368444443,
            -0.22367136180400848,
            -0.008038192987442017,
            0.06296882033348083,
            0.013747052289545536,
            -0.03822547569870949,
            0.2910037338733673,
            0.20619699358940125,
            0.15883931517601013,
            0.10059843212366104,
            -0.14384236931800842,
            0.041990965604782104,
            0.10941175371408463,
            0.16407226026058197,
            0.17647026479244232,
            -0.1674051582813263,
            0.16933663189411163,
            -0.04701745882630348,
            -0.1990317404270172,
            0.020029034465551376,
            0.058924149721860886,
            -0.3122253715991974,
            -0.14271746575832367,
            0.05490625649690628,
            0.20244263112545013,
            0.2977089285850525,
            -0.08109565824270248,
            -0.0970037654042244,
            0.2353610247373581,
            -0.07036830484867096,
            -0.10487551987171173,
            0.03596768528223038,
            0.1502760350704193,
            0.07761291414499283,
            0.31642946600914,
            0.4293752610683441,
            0.2850396931171417,
            0.040673743933439255,
            0.07933516055345535,
            -0.02272900752723217,
            -0.11595174670219421,
            -0.02262275293469429,
            0.07001399248838425,
            0.034922122955322266,
            -0.17649663984775543,
            0.05261412262916565,
            0.09485077857971191,
            0.13270945847034454,
            -0.04689258337020874,
            0.11685483157634735,
            0.0322703942656517,
            0.22754018008708954,
            0.17589743435382843,
            0.13810797035694122,
            -0.09235642105340958,
            -0.033917386084795,
            -0.05514935404062271,
            -0.06139892339706421,
            0.007712616119533777,
            -0.06631240993738174,
            0.05077431723475456,
            -0.027419429272413254,
            0.213303342461586,
            -0.16487640142440796,
            -0.1520855873823166,
            0.011498899199068546,
            -0.2724899649620056,
            0.12985317409038544,
            0.24646073579788208,
            0.2792985439300537,
            0.14169663190841675,
            0.011328761465847492,
            0.07416272908449173,
            -0.02264556661248207,
            0.10278736054897308,
            0.04400760680437088,
            0.11196884512901306,
            -0.13074587285518646,
            -0.04154408350586891,
            -0.010634850710630417,
            -0.10616172850131989,
            0.19664257764816284,
            0.08774763345718384,
            0.011380855925381184,
            -0.03877949342131615,
            0.2563408613204956,
            0.2614634037017822,
            0.04241478815674782,
            0.03230074793100357,
            -0.020373284816741943,
            -0.07455039024353027,
            -0.183390274643898,
            0.1460990458726883,
            -0.29448431730270386,
            -0.17721855640411377,
            0.03919891268014908,
            0.03509765863418579,
            0.007220788858830929,
            -0.12714074552059174,
            0.14355166256427765,
            -0.011135284788906574,
            -0.06561725586652756,
            0.07541313767433167,
            -0.004679195582866669,
            0.21979238092899323,
            0.053309936076402664,
            0.1408940702676773,
            -0.19290691614151,
            0.3313170075416565,
            0.12061336636543274,
            0.10544463992118835,
            0.14634765684604645,
            -0.1179666593670845,
            0.07256586104631424,
            0.003157698316499591,
            -0.0732637345790863,
            0.0993424728512764,
            -0.11504486203193665,
            -0.21377691626548767,
            0.027227552607655525,
            -0.03321301192045212,
            0.0850076675415039,
            0.038034044206142426,
            -0.09494414180517197,
            -0.18704965710639954,
            -0.08081229031085968,
            -0.11901518702507019,
            -0.026468032971024513,
            -0.11330224573612213,
            0.030556725338101387,
            0.20539264380931854,
            -0.2267446368932724,
            -0.15036416053771973,
            -0.16046348214149475,
            -0.2844149172306061,
            -0.04002544656395912,
            -0.13354499638080597,
            -0.05600736290216446,
            -0.03407341241836548,
            -0.12195182591676712,
            0.00027064731693826616,
            0.1986413151025772,
            -0.15564130246639252,
            0.05454163998365402,
            0.18876422941684723,
            -0.09023301303386688,
            -0.04206950590014458,
            -0.12642346322536469,
            -0.11543259024620056,
            0.18777579069137573,
            0.16697238385677338,
            0.011784087866544724,
            -0.14185504615306854,
            0.10089690238237381,
            0.2131987363100052,
            0.019645921885967255,
            -0.03964700549840927,
            -0.028809301555156708,
            -0.030678827315568924,
            -0.034799229353666306,
            0.105376698076725,
            0.21238940954208374,
            0.2097102254629135,
            -0.12227937579154968,
            -0.24223023653030396,
            -0.3239964544773102,
            0.2821609377861023,
            -0.09758550673723221,
            0.23193883895874023,
            -0.05995209887623787,
            0.14473256468772888,
            0.2330116480588913,
            -0.19471785426139832,
            -0.16488540172576904,
            0.05895645171403885,
            -0.12701989710330963,
            -0.22331354022026062,
            -0.00806504674255848,
            -0.12432295829057693,
            -0.0216746274381876,
            0.017863314598798752,
            -0.17314603924751282,
            -0.095203697681427,
            0.0966140627861023,
            -0.017291273921728134,
            -0.06472501903772354,
            0.023845728486776352,
            -0.45567190647125244,
            0.03501264378428459,
            0.007601658347994089,
            0.02468397282063961,
            -0.013169661164283752,
            -0.01814359240233898,
            -0.05863744020462036,
            -0.08375830948352814,
            -0.042625542730093,
            0.023695725947618484,
            -0.011248854920268059,
            -0.08389028906822205,
            -0.04464014992117882,
            -0.32013610005378723,
            -0.08358082920312881,
            0.11255667358636856,
            0.11417185515165329,
            -0.01429582480341196,
            -0.00047476161853410304,
            -0.006446546409279108,
            0.0725870132446289,
            -0.2276027649641037,
            -0.00175521953497082,
            -0.07984049618244171,
            0.18798643350601196,
            0.20929762721061707,
            0.13181473314762115,
            -0.3174011707305908,
            -0.03414351865649223,
            0.04007779434323311,
            -0.03791426122188568,
            0.15484897792339325,
            -0.24256999790668488,
            -0.0935208797454834,
            0.1688133031129837,
            0.08422382175922394,
            0.054115962237119675,
            -0.07220295071601868,
            -0.12909363210201263,
            -0.07439058274030685,
            0.2694648504257202,
            -0.13997897505760193,
            -0.12903910875320435,
            0.04672708362340927,
            0.013996846973896027,
            0.2386172115802765,
            -0.013540257699787617,
            -0.08990149199962616,
            0.22417856752872467,
            -0.03630447015166283,
            0.40808579325675964,
            -0.27071285247802734,
            -0.2200251817703247,
            -0.1736658215522766,
            0.04178790748119354,
            -0.13568174839019775,
            0.11136125028133392,
            -0.1615438610315323,
            -0.08804941922426224,
            -0.11826623231172562,
            -0.133126363158226,
            0.116721011698246,
            -0.007879029959440231,
            0.1759231686592102,
            -0.05394959822297096,
            0.002507922239601612,
            0.030210107564926147,
            0.12070176005363464,
            -0.16834871470928192,
            -0.16922463476657867,
            0.16207826137542725,
            0.01217324286699295,
            0.02664857544004917,
            -0.12005891650915146,
            0.057045646011829376,
            -0.06054368242621422,
            0.11875184625387192,
            -0.147466242313385,
            -0.08451022207736969,
            0.005591165274381638,
            0.07181490957736969,
            -0.010963530279695988,
            -0.02152683027088642,
            -0.10690130293369293,
            0.05560736358165741,
            0.1478598564863205,
            0.0008500971016474068,
            0.18318860232830048,
            0.2213810682296753,
            -0.1144423633813858,
            -0.3738066852092743,
            0.032459236681461334,
            -0.05689746141433716,
            0.15341301262378693,
            0.2640717029571533,
            0.18327465653419495,
            -0.16897018253803253,
            0.1495722532272339,
            0.056624047458171844,
            -0.07863810658454895,
            -0.09419023990631104,
            -0.1776905208826065,
            -0.14031639695167542,
            -0.08576793968677521,
            0.15891632437705994,
            0.07273712754249573,
            -0.24509330093860626,
            -0.006920171901583672,
            0.12653379142284393,
            0.02519162930548191,
            -0.010386847890913486,
            0.15046118199825287,
            -0.23503154516220093,
            -0.13893748819828033,
            0.2605249285697937,
            -0.20331574976444244,
            -0.0025239516980946064,
            -0.26625874638557434,
            0.2101570963859558,
            -0.09438185393810272,
            -0.21495547890663147,
            -0.26086992025375366,
            0.019518790766596794,
            -0.08301122486591339,
            -0.08577672392129898,
            0.15989556908607483,
            -0.08344224840402603,
            -0.10017281770706177,
            -0.3375338912010193,
            0.09618082642555237,
            0.0724099650979042,
            -0.07385467737913132,
            0.26245129108428955,
            -0.06819857656955719,
            0.18556839227676392,
            0.09754116833209991,
            0.3504946529865265,
            -0.030201906338334084,
            0.014515317045152187,
            -0.14469072222709656,
            0.3239721655845642,
            -0.08436360210180283,
            0.1076793372631073,
            0.1050579845905304,
            0.09016338735818863,
            -0.0129700331017375,
            -0.24873581528663635,
            -0.18713371455669403,
            -0.13712692260742188,
            0.01725045032799244,
            -0.31744956970214844,
            0.10092991590499878,
            -0.08876828849315643,
            -0.030269483104348183,
            0.12267165631055832,
            -0.14345863461494446,
            0.09731520712375641,
            -0.15478076040744781,
            -0.07597560435533524,
            0.03535645455121994,
            0.019312910735607147,
            -0.1435086876153946,
            -0.27764081954956055,
            -0.0531972236931324,
            -0.17052291333675385,
            -0.21341276168823242,
            -0.1257660686969757,
            -0.10680375248193741,
            -0.23158247768878937,
            -0.07482493668794632,
            0.04234202206134796,
            -0.3381759822368622,
            -0.10873910039663315,
            -0.18992680311203003,
            -0.24283038079738617,
            0.058423567563295364,
            -0.06123267859220505,
            0.06100604310631752,
            -0.20337185263633728,
            -0.18056121468544006,
            -0.00820886716246605,
            -0.27374738454818726,
            -0.25331035256385803,
            0.20670464634895325,
            -0.10872280597686768,
            0.15353108942508698,
            0.10284987837076187,
            0.05210869014263153,
            0.299373060464859,
            0.37945955991744995,
            0.1526842713356018,
            0.08235777169466019,
            0.0243110042065382,
            -0.08823005110025406,
            -0.06684128195047379,
            -0.10315908491611481,
            -0.014068540185689926,
            -0.09450387209653854,
            -0.08938081562519073,
            0.016036057844758034,
            0.048677340149879456,
            -0.11486418545246124,
            0.29207444190979004,
            -0.062364302575588226,
            -0.06813053786754608,
            0.11050201952457428,
            -0.23690812289714813,
            -0.027900034561753273,
            -0.14442306756973267,
            -0.13881677389144897,
            -0.22525499761104584,
            0.12756873667240143,
            -0.0004624846624210477,
            0.07792311906814575,
            0.0010246383026242256,
            0.19017548859119415,
            -0.19328007102012634,
            0.045760005712509155,
            0.22412577271461487,
            -0.08624280244112015,
            -0.3234735131263733,
            0.25132930278778076,
            -0.26939326524734497,
            -0.17317232489585876,
            0.026199430227279663,
            0.1570470780134201,
            -0.384079247713089,
            0.1068771705031395,
            0.0633823499083519,
            0.3382056653499603,
            -0.05287419259548187,
            0.28613024950027466,
            0.05128965899348259,
            0.26246288418769836,
            -0.12462399899959564,
            -0.0001854320871643722,
            0.09972651302814484,
            -0.06365672498941422,
            0.15426912903785706,
            0.28845158219337463,
            0.03555317968130112,
            -0.042635057121515274,
            -0.10555827617645264,
            0.07858148962259293,
            0.23166613280773163,
            0.15202590823173523,
            -0.1073455736041069,
            -0.05914601311087608,
            0.01370177511125803,
            -0.029135961085557938,
            -0.029507458209991455,
            -0.14563874900341034,
            0.002887364011257887,
            0.009134070947766304,
            0.09752650558948517,
            -0.25575241446495056,
            0.12701725959777832,
            -0.27999722957611084,
            0.28754889965057373,
            0.17256462574005127,
            -0.23931194841861725,
            -0.2575238347053528,
            0.004751325584948063,
            0.1647888571023941,
            0.1730581372976303,
            0.234126478433609,
            0.08802524209022522,
            0.06216007098555565,
            -0.0754174292087555,
            0.050141289830207825,
            -0.23742225766181946,
            0.17786841094493866,
            -0.15903183817863464,
            0.06829545646905899,
            0.03129468858242035,
            -0.13321362435817719,
            -0.19339647889137268,
            0.07946951687335968,
            0.10926258563995361,
            -0.02622695080935955,
            0.12577734887599945,
            -0.14424559473991394,
            0.16738197207450867,
            -0.07658731937408447,
            -0.09182391315698624,
            0.13733744621276855,
            -0.22520829737186432,
            0.022587936371564865,
            -0.004333398304879665,
            0.2655136287212372,
            0.16477397084236145,
            0.11132534593343735,
            -0.14846587181091309,
            0.10221144556999207,
            0.15198928117752075,
            -0.05879645422101021,
            -0.02606283128261566,
            -0.05144514888525009,
            -0.0919174775481224,
            0.005310389678925276,
            -0.058004334568977356,
            0.16698777675628662,
            -0.1003108024597168,
            0.24854068458080292,
            0.058279506862163544,
            0.17093877494335175,
            -0.0388096421957016,
            -0.12142572551965714,
            0.04289758577942848,
            0.13052378594875336,
            -0.2537562847137451,
            -0.05197666957974434,
            0.17960140109062195,
            -0.2503337562084198,
            0.18534140288829803,
            -0.032425954937934875,
            0.11700672656297684,
            0.13597528636455536,
            0.11822371929883957,
            -0.01698201894760132,
            0.1620747148990631,
            -0.2528669238090515,
            0.25229641795158386,
            0.21132536232471466,
            -0.11476761847734451,
            0.047087039798498154,
            -0.06251098215579987,
            -0.18873795866966248,
            -0.03677964583039284,
            -0.22083739936351776,
            -0.14279599487781525,
            -0.10624004155397415,
            0.026728404685854912,
            0.11789248138666153,
            0.029135117307305336,
            0.05843963101506233,
            0.016690896824002266,
            0.18963485956192017,
            0.21953043341636658,
            0.20533397793769836,
            -0.00996451172977686,
            0.014966640621423721,
            0.027316665276885033,
            0.04733928292989731,
            -0.30081039667129517,
            0.03310243785381317,
            -0.06942404061555862,
            0.3291621506214142,
            0.0231050793081522,
            -0.1529572308063507,
            0.004947658162564039,
            0.04276334494352341,
            0.04248489439487457,
            -0.05674224719405174,
            0.030879948288202286,
            0.24560661613941193,
            0.028050655499100685,
            0.1002238318324089,
            0.2545672357082367,
            -0.20404930412769318,
            -0.2329339236021042,
            -0.06681787967681885,
            -0.18192532658576965,
            0.029791828244924545,
            -0.21691039204597473,
            0.2779972553253174,
            -0.06316860765218735,
            0.11858067661523819,
            -0.06478160619735718,
            -0.024751359596848488,
            -0.19720086455345154,
            -0.05079876258969307,
            -0.37447038292884827,
            0.06654031574726105,
            -0.05475841835141182,
            0.1878250539302826,
            -0.21796533465385437,
            -0.06861470639705658,
            -0.07532163709402084,
            0.17903465032577515,
            -0.029060576111078262,
            -0.25702232122421265,
            0.0008337528561241925,
            0.30150356888771057,
            -0.1164056584239006,
            -0.07938382029533386,
            0.1717054694890976,
            -0.0800117626786232,
            0.33550235629081726,
            0.13223886489868164,
            0.0608551912009716,
            0.03219300135970116,
            0.014858544804155827,
            -0.025452617555856705,
            0.03479978069663048,
            -0.13104009628295898,
            -0.029736390337347984,
            -0.11289987713098526,
            -0.28761911392211914,
            -0.17645882070064545,
            0.1318313032388687,
            0.04730411618947983,
            -0.08447935432195663,
            0.05864639952778816,
            0.20280812680721283,
            -0.29001715779304504,
            -0.26573851704597473,
            -0.09016583859920502,
            -0.16155695915222168,
            -0.1741321086883545,
            -0.05364857614040375,
            0.2204122692346573,
            -0.11704593151807785,
            -0.3139169216156006,
            0.11074262857437134,
            0.12662826478481293,
            -0.01063158642500639,
            -0.09696738421916962,
            0.06850484013557434,
            -0.13242453336715698,
            -0.03686794266104698,
            0.1953791230916977,
            -0.05566791817545891,
            0.11633529514074326,
            0.2752314507961273,
            -0.16455192863941193,
            0.17560741305351257,
            0.28852400183677673,
            -0.29143354296684265,
            -0.09629922360181808,
            0.039044637233018875,
            0.12696847319602966,
            -0.17159710824489594,
            -0.1578483283519745,
            0.1961250603199005,
            -0.13943052291870117,
            -0.14187240600585938,
            -0.15100659430027008,
            0.2679505944252014,
            0.08177898824214935,
            0.33944082260131836,
            0.20371940732002258,
            -0.3123098611831665,
            -0.05816541239619255,
            -0.1936107873916626,
            0.2605357766151428,
            -0.3062705397605896,
            0.12143449485301971,
            -0.06442645192146301,
            0.192889004945755,
            -0.1756352037191391,
            0.2058810442686081,
            -0.22150267660617828,
            0.05443917214870453,
            0.24580971896648407,
            -0.2585482895374298,
            0.21076959371566772,
            -0.23195935785770416,
            -0.20216456055641174,
            0.21986190974712372,
            -0.2609269618988037,
            0.3528258800506592,
            -0.13262417912483215,
            0.04724914953112602,
            0.045966144651174545,
            0.09616967290639877,
            -0.11301928013563156,
            -0.1888158768415451,
            0.03406486660242081,
            -0.19135333597660065,
            0.03189535811543465,
            -0.09691296517848969,
            0.10783374309539795,
            0.04112210124731064,
            -0.1725117415189743,
            0.09633062034845352,
            0.1765630543231964,
            0.08746479451656342,
            -0.20257093012332916,
            -0.04181838408112526,
            -0.029033472761511803,
            0.21965976059436798,
            0.12926198542118073,
            -0.002868544077500701,
            -0.17974480986595154,
            0.10194004327058792,
            -0.0385114923119545,
            0.3181801438331604,
            0.3576953709125519,
            0.2889661192893982,
            -0.16598446667194366,
            -0.09387537837028503,
            -0.15207050740718842,
            0.204715296626091,
            -0.22283180058002472,
            -0.02995169907808304,
            -0.08698885887861252,
            0.24209746718406677,
            0.26540279388427734,
            0.17951510846614838,
            -0.07171714305877686,
            -0.08785112202167511,
            0.0466223806142807,
            -0.06914007663726807,
            0.01917264424264431,
            -0.2093142718076706,
            -0.2519594430923462,
            0.21495437622070312,
            0.055450450628995895,
            0.03428791090846062,
            0.19049127399921417,
            -0.04093948379158974,
            -0.04878778010606766,
            0.2202564924955368,
            -0.10727010667324066,
            0.05590151622891426,
            -0.03820870816707611,
            0.17446166276931763,
            0.008138698525726795,
            0.009762938134372234,
            -0.026317009702324867,
            -0.011988645419478416,
            0.15328757464885712,
            0.11777389049530029,
            0.12231539189815521,
            0.08525179326534271,
            -0.0969749391078949,
            -0.0161831583827734,
            -0.14473913609981537,
            0.13884329795837402,
            0.011082720942795277,
            0.11251872032880783,
            -0.12402085214853287,
            0.18775220215320587,
            -0.10021820664405823,
            0.15418928861618042,
            -0.03588692098855972,
            0.21280132234096527,
            -0.06279223412275314,
            -0.09387568384408951,
            0.23157189786434174,
            0.02406366914510727,
            -0.1817149817943573,
            -0.01834224909543991,
            -0.12236711382865906,
            0.17856121063232422,
            0.028180483728647232,
            0.029765957966446877,
            0.19821499288082123,
            -0.024489182978868484,
            0.0033812029287219048,
            -0.07487691938877106,
            -0.1419704705476761,
            -0.17327459156513214,
            0.08971172571182251,
            -0.06998275220394135,
            0.04781718552112579,
            -0.2339968979358673,
            -0.01656312867999077,
            0.15425845980644226,
            -0.09886308759450912,
            0.27388158440589905,
            -0.25868144631385803,
            -0.1510828584432602,
            -0.031891245394945145,
            -0.1435788869857788,
            0.17753323912620544,
            -0.027739208191633224,
            -0.1429029256105423,
            -0.08069181442260742,
            -0.06309844553470612,
            0.24780263006687164,
            0.052165545523166656,
            -0.18666313588619232,
            -0.06780114769935608,
            -0.15914472937583923,
            0.05411659926176071,
            0.04347290098667145,
            0.2143222689628601,
            -0.3240187168121338,
            0.08203154057264328,
            -0.06127573922276497,
            -0.004194615408778191,
            -0.1239822655916214,
            0.2747754156589508,
            -0.007722771260887384,
            -0.10446576774120331,
            0.14020700752735138,
            -0.004566472489386797,
            -0.17575274407863617,
            0.050382278859615326,
            -0.15397858619689941,
            0.010389560833573341,
            0.052377849817276,
            -0.025153430178761482,
            0.10367734730243683,
            -0.0223019290715456,
            -0.044578917324543,
            0.002020317828282714,
            -0.16121944785118103,
            0.22574251890182495,
            -0.11160358041524887,
            -0.26740649342536926,
            -0.002690494991838932,
            0.05017990618944168,
            0.2294710874557495,
            -0.06294785439968109,
            0.03876408189535141,
            0.10430506616830826,
            -0.28379061818122864,
            -0.04378923773765564,
            0.08265296369791031,
            0.1184985339641571,
            0.1309821456670761,
            -0.10581859946250916,
            -0.07279738783836365,
            0.003417745465412736,
            0.0008985677268356085,
            0.020293714478611946,
            0.16705791652202606,
            0.01813643053174019,
            -0.1612217277288437,
            -0.035260338336229324,
            0.018234966322779655,
            -0.0497511625289917,
            -0.16815875470638275,
            -0.09238559752702713,
            0.1517120599746704,
            -0.16298994421958923,
            -0.10129857063293457,
            -0.09489545971155167,
            0.1535557359457016,
            0.0002366843691561371,
            -0.20461782813072205,
            -0.12005220353603363,
            0.035696253180503845,
            -0.05566183105111122,
            -0.09095003455877304,
            -0.1230432540178299,
            -0.15239772200584412,
            -0.032461147755384445,
            0.10533399879932404,
            0.13682976365089417,
            0.19333690404891968,
            -0.19923824071884155,
            -0.07112155854701996,
            -0.17735573649406433,
            -0.09869273006916046,
            0.0978231355547905,
            0.047604937106370926,
            0.38038673996925354,
            0.04540734738111496,
            0.25203821063041687,
            -0.0756523460149765,
            -0.08740581572055817,
            -0.17614568769931793,
            0.19771455228328705,
            -0.07054375112056732,
            0.056470837444067,
            0.013192472979426384,
            0.11686760187149048,
            -0.2940388321876526,
            -0.06556978076696396,
            0.12179578840732574,
            0.010976611636579037,
            0.031191587448120117,
            0.1992378979921341,
            -0.11106817424297333,
            0.11408225446939468,
            0.023047205060720444,
            0.018956942483782768,
            -0.2755622863769531,
            -0.037650857120752335,
            0.1961548924446106,
            0.0900236964225769,
            -0.07565145939588547,
            -0.053862009197473526,
            -0.2382875233888626,
            -0.00030916876858100295,
            -0.011382077820599079,
            0.16774587333202362,
            -0.1587376594543457,
            -0.19920045137405396,
            -0.013277685269713402,
            0.19865967333316803,
            -0.253222793340683,
            0.1399347335100174,
            -0.12124910205602646,
            -0.034572333097457886,
            -0.11384576559066772,
            -0.022224722430109978,
            0.04974151775240898,
            0.13638935983181,
            -0.07134334743022919,
            0.0017072223126888275,
            0.15726140141487122,
            -0.041962139308452606,
            0.07251467555761337,
            0.13544821739196777,
            0.07406631112098694,
            0.16882379353046417,
            -0.11294805258512497,
            -0.1477549970149994,
            0.13609178364276886,
            -0.29981979727745056,
            -0.22933733463287354,
            0.09767777472734451,
            0.05029232054948807,
            -0.055124931037425995,
            -0.0672556608915329,
            0.20129869878292084,
            -0.08169937878847122,
            -0.24880613386631012,
            -0.02304265834391117,
            0.13125808537006378,
            0.1430615484714508,
            -0.0045416997745633125,
            0.2841476798057556,
            0.200222909450531,
            -0.007188816554844379,
            -0.14543364942073822,
            0.09011854231357574,
            0.04633107781410217,
            -0.07339686155319214,
            0.17714370787143707,
            0.05099854618310928,
            -0.009620807133615017,
            0.18487471342086792,
            0.08439228683710098,
            -0.06904551386833191,
            0.19766579568386078,
            -0.1176280528306961,
            0.015862613916397095,
            -0.4019812047481537,
            -0.05247695744037628,
            0.03622779995203018,
            -0.12487462162971497,
            -0.32954534888267517,
            0.1803932934999466,
            0.03680775687098503,
            -0.042313676327466965,
            -0.11871214956045151,
            0.05356274172663689,
            0.2645050287246704,
            -0.1164398118853569,
            -0.2829987406730652,
            0.11477343738079071,
            -0.2211376428604126,
            -0.14758481085300446,
            0.09852439910173416,
            0.2304641306400299,
            -0.0823809877038002,
            -0.0783257856965065,
            0.14071600139141083,
            -0.08660484105348587,
            0.10847772657871246,
            -0.2941577732563019,
            0.09316535294055939,
            0.1195683404803276,
            -0.18538515269756317,
            -0.06697068363428116,
            -0.058507174253463745,
            -0.19484005868434906,
            0.09023819118738174,
            -0.038622014224529266,
            0.26918771862983704,
            0.07629063725471497,
            0.10383682698011398,
            -0.33494386076927185,
            0.1555805653333664,
            0.12120939791202545,
            0.03132467716932297,
            -0.002780809998512268,
            0.3545686900615692,
            -0.05371641740202904,
            -0.1500524878501892,
            -0.17462220788002014,
            0.19690436124801636,
            0.17893603444099426,
            -0.15241649746894836,
            0.24096962809562683,
            -0.07014033198356628,
            0.12087492644786835,
            0.1711670160293579,
            -0.0889006182551384,
            -0.21699656546115875,
            -0.08182543516159058,
            -0.04694509133696556,
            0.0006689613801427186,
            0.05629614368081093,
            -0.2567311227321625,
            -0.17694541811943054,
            -0.012279795482754707,
            0.05384286865592003,
            0.13466838002204895,
            0.05370528995990753,
            0.008595936931669712,
            0.04163559153676033,
            0.1633702665567398,
            -0.032520994544029236,
            -0.09344781935214996,
            -0.09742827713489532,
            0.14039774239063263,
            0.1246878132224083,
            -0.01357903704047203,
            0.10354507714509964,
            -0.15797017514705658,
            0.13097833096981049,
            0.08242905884981155,
            -0.20206357538700104,
            0.2234640121459961,
            -0.057987868785858154,
            -0.09944872558116913,
            -0.11430299282073975,
            0.21723392605781555,
            -0.1753099411725998,
            0.04711756855249405,
            -0.014417054131627083,
            0.1789964884519577,
            -0.02933867834508419,
            0.07305586338043213,
            0.21309976279735565,
            0.09967935085296631,
            -0.044345155358314514,
            -0.07930666208267212,
            -0.04127086326479912,
            -0.27180758118629456,
            0.02777888998389244,
            -0.2377292811870575,
            0.11618728935718536,
            -0.07255814969539642,
            -0.07326877862215042,
            -0.17452798783779144,
            0.3625090420246124,
            0.06231679767370224,
            -0.07644114643335342,
            -0.1638326644897461,
            -0.034274857491254807,
            0.08774406462907791,
            -0.04731428623199463,
            0.08073512464761734,
            -0.08041393011808395,
            -0.14978766441345215,
            -0.0748213529586792,
            -0.09064063429832458,
            0.11655125766992569,
            0.16930091381072998,
            0.11256766319274902,
            0.013029910624027252,
            -0.005005961284041405,
            0.07248134166002274,
            -0.0051438757218420506,
            0.11064773052930832,
            0.2271868735551834,
            -0.05285157635807991,
            0.17093126475811005,
            0.03923818841576576,
            0.014673947356641293,
            -0.22856669127941132,
            -0.12145940959453583,
            -0.17393074929714203,
            0.18974417448043823,
            0.038397353142499924,
            -0.1408218890428543,
            0.022824842482805252,
            0.10802407562732697,
            0.13813377916812897,
            0.1605304479598999,
            0.1686866134405136,
            -0.050070036202669144,
            0.20293426513671875,
            0.22317785024642944,
            0.08410041779279709,
            0.11759021133184433,
            -0.32828304171562195,
            -0.04172157123684883,
            -0.23641785979270935,
            0.08933486044406891,
            0.049177173525094986,
            -0.20224212110042572,
            -0.12438701838254929,
            0.06231268495321274,
            0.07382839173078537,
            0.07408057898283005,
            -0.16868145763874054,
            0.13902200758457184,
            -0.27418312430381775,
            0.14755934476852417,
            -0.11487431824207306,
            -0.06404487043619156,
            -0.14933717250823975,
            -0.12099463492631912,
            0.08990973979234695,
            0.3236485719680786,
            0.13261665403842926,
            -0.1332215517759323,
            -0.14957161247730255,
            0.08397132158279419,
            0.09906663000583649,
            -0.23482197523117065,
            0.027351131662726402,
            0.14099088311195374,
            -0.19326908886432648,
            -0.043140310794115067,
            0.05347300320863724,
            -0.030524494126439095,
            0.16216599941253662,
            0.23111994564533234,
            0.05546099320054054,
            -0.14194262027740479,
            -0.2699771821498871,
            0.0952872708439827,
            -0.15065711736679077,
            0.06003370136022568,
            -0.04982004314661026,
            -0.08586939424276352,
            -0.2500918209552765,
            -0.22545132040977478,
            0.05570526048541069,
            0.005051716230809689,
            0.21077212691307068,
            -0.15213268995285034,
            0.18564985692501068,
            0.1463041603565216,
            0.17388737201690674,
            0.05232991650700569,
            0.08436545729637146,
            0.0003130933328066021,
            0.0532677061855793,
            -0.14031217992305756,
            0.05863460898399353,
            -0.057133909314870834,
            -0.17237724363803864,
            -0.18872474133968353,
            -0.22980394959449768,
            -0.06002499908208847,
            -0.020494338124990463,
            -0.2253488004207611,
            0.09439430385828018,
            0.0708426907658577,
            0.15336920320987701,
            -0.2056446075439453,
            0.14320462942123413,
            0.07262452691793442,
            0.12880723178386688,
            0.011944484896957874,
            -0.07929235696792603,
            0.01876177079975605,
            -0.1174677312374115,
            -0.09847310930490494,
            0.0442347452044487,
            -0.001581772230565548,
            -0.07431025058031082,
            -0.009883305989205837,
            -0.01234698947519064,
            0.08963044732809067,
            -0.11978479474782944,
            -0.21917478740215302,
            -0.0724499523639679,
            -0.21537533402442932,
            -0.13658809661865234,
            0.17132268846035004,
            -0.0474979504942894,
            -0.18581163883209229,
            0.13490593433380127,
            -0.15003424882888794,
            0.02729847840964794,
            0.038205381482839584,
            0.14885194599628448,
            0.1248835027217865,
            -0.14961877465248108,
            -0.09244830161333084,
            -0.07155471295118332,
            -0.036031145602464676,
            -0.015381110832095146,
            -0.12964721024036407,
            0.07997357100248337,
            0.03353109210729599,
            -0.15112288296222687,
            -0.08515956252813339,
            0.021913060918450356,
            0.030064163729548454,
            -0.022255023941397667,
            -0.03898303583264351,
            0.006383446976542473,
            -0.07702784985303879,
            -0.1124596893787384,
            0.13404957950115204,
            0.041845373809337616,
            0.14227451384067535,
            -0.2659357786178589,
            0.2757665812969208,
            -0.26547202467918396,
            -0.1969548910856247,
            -0.024065138772130013,
            0.1967753916978836,
            0.07879208773374557,
            0.22163768112659454,
            0.03498995676636696,
            -0.0837496668100357,
            0.11457128077745438,
            0.33286795020103455,
            -0.3563196361064911,
            -0.1356968879699707,
            -0.1553075760602951,
            -0.07480388879776001,
            0.09884849935770035,
            -0.19748850166797638,
            -0.11430267244577408,
            0.04099589213728905,
            0.18430188298225403,
            0.019186032935976982,
            -0.08380968123674393,
            0.0811096653342247,
            -0.250418096780777,
            0.17509406805038452,
            -0.030570387840270996,
            -0.21509703993797302,
            0.14478835463523865,
            0.05908311530947685,
            0.13818232715129852,
            -0.10610377788543701,
            -0.053932204842567444,
            0.1904270499944687,
            0.12342424690723419,
            -0.027533797547221184,
            0.016773216426372528,
            0.034768737852573395,
            0.11719030141830444,
            0.0767383798956871,
            0.17670373618602753,
            -0.0649469792842865,
            0.041488468647003174,
            0.03623565658926964,
            0.27590855956077576,
            0.14782920479774475,
            -0.14141182601451874,
            -0.078985296189785,
            -0.2582574188709259,
            -0.013136405497789383,
            0.015641670674085617,
            0.1533774435520172,
            -0.1694483906030655,
            -0.03597361966967583,
            0.014557648450136185,
            0.036596182733774185,
            -0.1621292233467102,
            -0.01884925737977028,
            0.17872151732444763,
            0.11804450303316116,
            0.1487181931734085,
            -0.030776791274547577,
            -0.2111961543560028,
            -0.19456708431243896,
            0.02218243107199669,
            0.06634809076786041,
            0.23115678131580353,
            -0.27666962146759033,
            -0.26085397601127625,
            -0.07001486420631409,
            -0.11952817440032959,
            -0.23554126918315887,
            0.07914363592863083,
            0.13661490380764008,
            0.08961133658885956,
            0.030110739171504974,
            0.18738293647766113,
            -0.07483147084712982,
            0.2237420231103897,
            -0.1510915458202362,
            -0.04638698697090149,
            -0.2801028788089752,
            -0.09596816450357437,
            -0.2557298243045807,
            -0.08336147665977478,
            -0.15315258502960205,
            -0.1930629312992096,
            -0.14737403392791748,
            0.16520272195339203,
            -0.23719657957553864,
            0.17554081976413727,
            0.16653361916542053,
            0.03198947757482529,
            0.27812159061431885,
            -0.1364668309688568,
            0.08984718471765518,
            -0.4267343580722809,
            0.22358839213848114,
            -0.2843676805496216,
            -0.03859628736972809,
            0.13021333515644073,
            -0.17061200737953186,
            0.3142317235469818,
            0.2567139267921448,
            0.1296980381011963,
            -0.3012075424194336,
            -0.19949962198734283,
            0.13734585046768188,
            0.038074031472206116,
            0.07502412796020508,
            -0.1145441085100174,
            0.06049976125359535,
            -0.18585896492004395,
            0.07031047344207764,
            0.08888261020183563,
            0.06670573353767395,
            0.020548086613416672,
            -0.008278196677565575,
            0.014054414816200733,
            -0.15877167880535126,
            -0.23342646658420563,
            0.19267994165420532,
            -0.07918162643909454,
            -0.40257030725479126,
            0.14184263348579407,
            0.37943318486213684,
            0.19447843730449677,
            -0.26007333397865295,
            -0.05731046199798584,
            -0.13075312972068787,
            -0.3548023998737335,
            -0.28017619252204895,
            0.030272865667939186,
            0.2375219166278839,
            -0.012552667409181595,
            -0.2635095417499542,
            -0.1730126589536667,
            0.0012035665567964315,
            -0.32755208015441895,
            -0.03353787586092949,
            0.06973659992218018,
            0.25126588344573975,
            -0.11390971392393112,
            0.14168426394462585,
            0.0823785588145256,
            0.27212804555892944,
            -0.23255065083503723,
            0.14973217248916626,
            0.0934843197464943,
            -0.0694797933101654,
            -0.40976980328559875,
            -0.1693519800901413,
            0.4640336036682129,
            0.10698797553777695,
            0.039945997297763824,
            -0.18360163271427155,
            0.03827899694442749,
            -0.19391970336437225,
            0.11324111372232437,
            0.27003487944602966,
            -0.2978489398956299,
            -0.1293349415063858,
            -0.32431891560554504,
            0.266731858253479,
            -0.102085642516613,
            0.28992289304733276,
            0.15228578448295593,
            0.09251011908054352,
            -0.23106713593006134,
            0.06680481135845184,
            -0.27842363715171814,
            -0.05810318887233734,
            -0.10754501074552536,
            -0.19942937791347504,
            0.15548136830329895,
            0.10926686972379684,
            0.104662224650383,
            -0.0066856625489890575,
            0.10221876204013824,
            -0.09426646679639816,
            -0.001323892269283533,
            0.08302580565214157,
            -0.12911173701286316,
            -0.1813710778951645,
            0.04632481932640076,
            0.24268630146980286,
            -0.30191490054130554,
            -0.05068252235651016,
            -0.14921042323112488,
            0.16132071614265442,
            -0.02199002169072628,
            -0.11131849884986877,
            -0.06161819398403168,
            -0.18291650712490082,
            -0.048928387463092804,
            -0.1627090722322464,
            -0.11542800068855286,
            0.07764380425214767,
            -0.13777151703834534,
            0.12150772660970688,
            0.11928564310073853,
            0.19536815583705902,
            -0.03237095847725868,
            -0.008657559752464294,
            0.2711974084377289,
            -0.02109389565885067,
            -0.16519926488399506,
            0.1679537296295166,
            -0.07679316401481628,
            0.08081793785095215,
            0.06643521040678024,
            -0.14098888635635376,
            -0.23133783042430878,
            0.24360358715057373,
            -0.05051839351654053,
            -0.0774904415011406,
            0.06447625160217285,
            0.3335994780063629,
            0.1342283934354782,
            0.2668270766735077,
            -0.45351460576057434,
            -0.14898884296417236,
            -0.17094190418720245,
            0.07592198997735977,
            -0.08573243767023087,
            0.2642523944377899,
            -0.19418559968471527,
            0.09198496490716934,
            -0.02436133474111557,
            -0.04585506394505501,
            0.20668131113052368,
            0.23481883108615875,
            0.060811370611190796,
            0.057608917355537415,
            0.11535521596670151,
            0.3079388439655304,
            -0.06795329600572586,
            0.19610562920570374,
            0.05589094012975693,
            0.12150242924690247,
            -0.011635483242571354,
            0.13175725936889648,
            0.27167022228240967,
            -0.11742034554481506,
            0.006806946359574795,
            0.009011602029204369,
            0.23164190351963043,
            0.05994705483317375,
            0.041495926678180695,
            0.04756902903318405,
            -0.07415924221277237,
            0.1463361531496048,
            -0.247535839676857,
            0.1703660786151886,
            -0.06726208329200745,
            0.3822409510612488,
            0.059020109474658966,
            -0.1136416643857956,
            -0.02884187363088131,
            -0.025272812694311142,
            0.051264211535453796,
            -0.07752282172441483,
            -0.15216092765331268,
            -0.08929546922445297,
            0.004637807607650757,
            0.18687841296195984,
            0.1719914972782135,
            -0.17064917087554932,
            -0.05657099932432175,
            0.18389450013637543,
            -0.08850990980863571,
            0.2420825958251953,
            -0.06796678900718689,
            -0.29539042711257935,
            -0.010810638777911663,
            0.08305691927671432,
            -0.1696060448884964,
            0.04204641655087471,
            0.10131249576807022,
            -0.07666215300559998,
            0.2377561777830124,
            0.0017983473371714354,
            0.025624623522162437,
            0.032604265958070755,
            0.1298704892396927,
            0.04159199446439743,
            0.21575181186199188,
            -0.14260749518871307,
            -0.13431717455387115,
            -0.20638450980186462,
            -0.27393242716789246,
            0.12456253916025162,
            -0.021959124132990837,
            -0.013222480192780495,
            0.1137705147266388,
            -0.07652470469474792,
            0.00027855290682055056,
            -0.006229980383068323,
            0.0076021975837647915,
            0.12507283687591553,
            -0.066994309425354,
            0.25010430812835693,
            -0.006604277063161135,
            0.0010632171761244535,
            -0.3869136869907379,
            0.02616192027926445,
            0.1288979947566986,
            0.07011044770479202,
            -0.19188284873962402,
            0.11497459560632706,
            -0.017370685935020447,
            -0.03157813474535942,
            -0.09756805747747421,
            0.1442236751317978,
            0.04708004370331764,
            0.027923667803406715,
            -0.03980569168925285,
            -0.15966832637786865,
            0.03738974779844284,
            -0.24459849298000336,
            0.05192641541361809,
            0.13410831987857819,
            -0.09503693133592606,
            0.0719141811132431,
            0.08883273601531982,
            0.013755450025200844,
            0.010770904831588268,
            -0.10086101293563843,
            0.07017762959003448,
            -0.23857620358467102,
            -0.12814846634864807,
            0.05456167832016945,
            0.014133407734334469,
            0.04671422764658928,
            0.23571167886257172,
            -0.14446468651294708,
            -0.156550794839859,
            0.3005877137184143,
            0.07307561486959457,
            0.06398375332355499,
            0.12010139226913452,
            0.23385368287563324,
            -0.12496792525053024,
            -0.10641403496265411,
            0.10108786076307297,
            0.3540611267089844,
            -0.04166973754763603,
            0.19048883020877838,
            0.1471463143825531,
            -0.09311123192310333,
            0.31941577792167664,
            -0.022805774584412575,
            0.3780263364315033,
            0.23709288239479065,
            0.2322436422109604,
            0.2044522762298584,
            -0.04406260326504707,
            0.0068873087875545025,
            0.26987940073013306,
            -0.08588573336601257,
            -0.1574246734380722,
            0.38031288981437683,
            0.4029417037963867,
            0.14594115316867828,
            -0.10351960361003876,
            0.0012142016785219312,
            -0.16672903299331665,
            -0.1994628757238388,
            -0.09624218195676804,
            0.09649818390607834,
            -0.16295701265335083,
            -0.029984591528773308,
            0.07475520670413971,
            0.011227737180888653,
            0.03024718537926674,
            -0.02793353796005249,
            0.19404593110084534,
            -0.026899956166744232,
            -0.14964067935943604,
            0.22316549718379974,
            -0.030463876202702522,
            -0.10167547315359116,
            -0.12349964678287506,
            0.2187783271074295,
            0.04663964733481407,
            0.1027599424123764,
            0.2854035198688507,
            -0.11822423338890076,
            -0.038458555936813354,
            -0.1985018253326416,
            0.09052781015634537,
            0.34269973635673523,
            0.11129831522703171,
            0.12214409559965134,
            0.052453868091106415,
            0.061662767082452774,
            -0.0910477414727211,
            -0.23996029794216156,
            0.059623196721076965,
            -0.10191928595304489,
            0.15526922047138214,
            0.3051094114780426,
            0.3156840205192566,
            0.023128345608711243,
            -0.19025401771068573,
            0.20661582052707672,
            -0.22431834042072296,
            0.030764522030949593,
            -0.4752499759197235,
            -0.14331477880477905,
            0.3011707663536072,
            0.38515475392341614,
            0.050557736307382584,
            0.11721935123205185,
            0.07212621718645096,
            -0.011814411729574203,
            0.09906113892793655,
            -0.1829805076122284,
            0.2000945657491684,
            -0.2740439772605896,
            0.1458837240934372,
            0.2966969311237335,
            -0.19518853724002838,
            -0.3582385182380676,
            0.013870405033230782,
            -0.11945796757936478,
            0.28933584690093994,
            0.16446952521800995,
            0.08873170614242554,
            0.09903304278850555,
            0.023277683183550835,
            -0.2788861095905304,
            -0.3335040211677551,
            -0.010395036078989506,
            0.037048060446977615,
            -0.09291287511587143,
            0.22609972953796387,
            0.08086606860160828,
            -0.03429822623729706,
            0.45882415771484375,
            0.3963738679885864,
            0.03760823979973793,
            0.04021631181240082,
            -0.0983700156211853,
            0.2636132836341858,
            -0.07947797328233719,
            0.012007960118353367,
            0.32910045981407166,
            0.017200138419866562,
            0.12264832854270935,
            0.17678581178188324,
            0.13699357211589813,
            -0.08284337818622589,
            0.2667466700077057,
            -0.02791467308998108,
            -0.04642653092741966,
            0.057775892317295074,
            -0.06086750328540802,
            0.05931148678064346,
            -0.054255902767181396,
            -0.08649968355894089,
            0.07725224643945694,
            0.2444223165512085,
            0.2616286873817444,
            0.24945974349975586,
            0.2570129930973053,
            -0.254866361618042,
            0.2326916754245758,
            0.03823725879192352,
            0.0049672806635499,
            -0.13265839219093323,
            0.00034845646587200463,
            -0.10296864807605743,
            -0.006117252167314291,
            0.04719141870737076,
            -0.3748091161251068,
            0.2596823573112488,
            -0.03453269973397255,
            0.22714237868785858,
            -0.12268557399511337,
            0.05252154916524887,
            -0.20472481846809387,
            -0.10334283113479614,
            -0.11141781508922577,
            -0.09719721972942352,
            -0.061458732932806015,
            0.12865246832370758,
            -0.052176766097545624,
            0.004786103498190641,
            0.05383545532822609,
            0.1864805519580841,
            -0.12862078845500946,
            0.1656961739063263,
            0.19118638336658478,
            -0.05967186391353607,
            0.0915546640753746,
            0.22507472336292267,
            0.010880589485168457,
            -0.1295650601387024,
            -0.09638407826423645,
            -0.1453547477722168,
            0.10456640273332596,
            0.0829281359910965,
            0.019144391641020775,
            0.1462697684764862,
            -0.10784740746021271,
            -0.10070329904556274,
            -0.036447182297706604,
            0.25830328464508057,
            0.26429450511932373,
            -0.17574815452098846,
            -0.20543181896209717,
            0.11854282021522522,
            -0.05252643674612045,
            0.030303364619612694,
            -0.036135315895080566,
            0.15253916382789612,
            0.040972016751766205,
            -0.01427061203867197,
            -0.11388810724020004,
            0.0953313410282135,
            -0.2867611050605774,
            -0.1901911348104477,
            -0.2012586146593094,
            -0.20477047562599182,
            -0.08180775493383408,
            0.19467930495738983,
            -0.16245196759700775,
            -0.13464897871017456,
            0.001324322773143649,
            -0.015305852517485619,
            0.21968504786491394,
            -0.03647654131054878,
            -0.14205992221832275,
            -0.11372946202754974,
            0.0532277449965477,
            -0.048192065209150314,
            0.08305154740810394,
            0.1534842699766159,
            0.14922884106636047,
            -0.27436956763267517,
            -0.012936790473759174,
            -0.19795739650726318,
            0.10770627856254578,
            0.1238614022731781,
            0.12501703202724457,
            0.14022915065288544,
            -0.17231464385986328,
            0.014829661697149277,
            -0.07219836115837097,
            0.248159259557724,
            0.15097688138484955,
            0.04169623181223869,
            -0.0760718360543251,
            -0.0400775745511055,
            -0.1114843562245369,
            -0.13048377633094788,
            -0.12147459387779236,
            0.05795648321509361,
            -0.15485963225364685,
            -0.059728868305683136,
            0.09975235909223557,
            0.1564897894859314,
            0.016522424295544624,
            -0.00760763231664896,
            -0.14301088452339172,
            0.04857168719172478,
            -0.002718876115977764,
            -0.07916141301393509,
            -0.07935850322246552,
            0.020989401265978813,
            0.23296646773815155,
            -0.16697973012924194,
            0.03973640874028206,
            0.21492592990398407,
            -0.14088016748428345,
            0.058409951627254486,
            0.061220232397317886,
            -0.17432951927185059,
            -0.10900697857141495,
            0.025239035487174988,
            0.07365476340055466,
            -0.0765717625617981,
            0.07058539986610413,
            0.11473127454519272,
            0.36386969685554504,
            0.044732242822647095,
            0.05472460761666298,
            0.3641587495803833,
            0.09147238731384277,
            -0.009570077992975712,
            0.05428116023540497,
            -0.005116749554872513,
            0.0665723979473114,
            -0.19271540641784668,
            0.17831332981586456,
            0.007815789431333542,
            -0.03499346226453781,
            -0.17887084186077118,
            0.11923342943191528,
            -0.199849471449852,
            0.15374773740768433,
            -0.01790052093565464,
            0.13804754614830017,
            -0.008111908100545406,
            0.0018164291977882385,
            -0.11843196302652359,
            0.20602142810821533,
            0.09751487523317337,
            0.1911199390888214,
            -0.05937313660979271,
            0.29884642362594604,
            -0.02176234871149063,
            -0.09077737480401993,
            -0.049177128821611404,
            -0.19821582734584808,
            0.015011143870651722,
            0.07065156102180481,
            0.4158917963504791,
            -0.009373719803988934,
            -0.2794191539287567,
            -0.19398346543312073,
            -0.08925864100456238,
            -0.04500843584537506,
            -0.058348339051008224,
            -0.12201865762472153,
            0.15551704168319702,
            -0.15163011848926544,
            0.278704434633255,
            0.13780945539474487,
            -0.2920505702495575,
            0.11657799780368805,
            0.09043923765420914,
            0.08759856224060059,
            -0.16402851045131683,
            0.057946737855672836,
            -0.17320165038108826,
            -0.08558941632509232,
            -0.09992339462041855,
            0.3517661392688751,
            -0.060831066220998764,
            -0.03708615526556969,
            -0.12948592007160187,
            0.025750068947672844,
            -0.15526005625724792,
            0.012958008795976639,
            -0.050471432507038116,
            0.21275697648525238,
            -0.15030033886432648,
            0.26956188678741455,
            0.1354566067457199,
            0.21081586182117462,
            0.06201666593551636,
            -0.11630422621965408,
            -0.10455877333879471,
            0.17718109488487244,
            -0.01638372428715229,
            -0.154007226228714,
            -0.027664531022310257,
            0.15302614867687225,
            0.24173051118850708,
            0.14454729855060577,
            0.17179597914218903,
            -0.14108407497406006,
            -0.15362365543842316,
            -0.1333550214767456,
            -0.08950968086719513,
            -0.07602016627788544,
            -0.12258559465408325,
            -0.11655499786138535,
            -0.12934698164463043,
            0.12933126091957092,
            0.19271567463874817,
            -0.023801468312740326,
            -0.040269576013088226,
            0.17958702147006989,
            -0.04451565444469452,
            0.0016429421957582235,
            0.06275880336761475,
            0.20463897287845612,
            0.04115529730916023,
            -0.20609501004219055,
            0.23375287652015686,
            0.2345842868089676,
            0.27891507744789124,
            0.14045575261116028,
            0.06795551627874374,
            0.10408864915370941,
            -0.027850665152072906,
            -0.10397794097661972,
            -0.13069851696491241,
            0.1932300329208374,
            0.1367623209953308,
            -0.16228611767292023,
            0.29292112588882446,
            0.07536140084266663,
            0.11349006742238998,
            -0.13522881269454956,
            0.14258190989494324,
            -0.003500714199617505,
            0.4142502248287201,
            0.07806025445461273,
            -0.054860323667526245,
            -0.25256332755088806,
            0.02873045578598976,
            0.11340316385030746,
            -0.0005980541463941336,
            0.10001826286315918,
            -0.16265073418617249,
            0.24659045040607452,
            0.10098692029714584,
            0.15925613045692444,
            -0.12389125674962997,
            -0.2309078723192215,
            0.03850699961185455,
            0.016791660338640213,
            -0.0015757721848785877,
            -0.20687632262706757,
            0.1783294826745987,
            -0.1445259004831314,
            0.16791298985481262,
            0.07862341403961182,
            -0.035347435623407364,
            0.03533144295215607,
            -0.23060555756092072,
            -0.1803356558084488,
            0.015055532567203045,
            0.042041245847940445,
            -0.06176732853055,
            0.2884325683116913,
            -0.2586561441421509,
            0.005167145747691393,
            0.0862710252404213,
            -0.06915107369422913,
            0.16209861636161804,
            0.07219764590263367,
            -0.03136380389332771,
            0.04490458965301514,
            -0.1361076682806015,
            -0.05073213949799538,
            0.1326480656862259,
            0.04426655173301697,
            0.09693150967359543,
            -0.0469750240445137,
            0.08057158440351486,
            0.3614462912082672,
            -0.02737249806523323,
            0.054140735417604446,
            -0.10638131201267242,
            -0.1763346791267395,
            -0.20943307876586914,
            -0.16426633298397064,
            0.14904481172561646,
            -0.24173377454280853,
            0.21722587943077087,
            -0.12555916607379913,
            -0.15475016832351685,
            0.17268973588943481,
            0.09968608617782593,
            0.07519771158695221,
            -0.02160242386162281,
            -0.026254575699567795,
            -0.12652146816253662,
            0.027524737641215324,
            -0.09162386506795883,
            -0.07873766869306564,
            -0.07438520342111588,
            0.21324774622917175,
            -0.016507165506482124,
            0.037254318594932556,
            -0.17950597405433655,
            -0.20299683511257172,
            -0.17767482995986938,
            -0.1617734134197235,
            0.04376450553536415,
            0.2704028785228729,
            0.12090447545051575,
            0.004044162109494209,
            0.12587273120880127,
            0.06437457352876663,
            -0.13141918182373047,
            0.14255496859550476,
            0.40723916888237,
            0.04115360975265503,
            0.26674389839172363,
            0.2814881205558777,
            -0.16837377846240997,
            -0.2021409273147583,
            -0.009879087097942829,
            -0.054995063692331314,
            -0.11265066266059875,
            0.11175665259361267,
            -0.1794707179069519,
            -0.11626964807510376,
            -0.04592268913984299,
            0.012999196536839008,
            -0.11051376909017563,
            0.10959947854280472,
            0.08642275631427765,
            0.1951722800731659,
            -0.16029830276966095,
            -0.0790286511182785,
            -0.03750293701887131,
            -0.028232090175151825,
            -0.10285860300064087,
            0.07647999376058578,
            -0.08028960973024368,
            -0.045297298580408096,
            -0.05252161622047424,
            0.11302459239959717,
            0.22318226099014282,
            0.33884409070014954,
            0.10276398807764053,
            0.2782745957374573,
            -0.1407674103975296,
            -0.00823654979467392,
            0.020758338272571564,
            -0.2050400674343109,
            -0.11561691015958786,
            0.16296333074569702,
            -0.02219863422214985,
            -0.1571146547794342,
            0.08290065079927444,
            0.12924055755138397,
            -0.18620793521404266,
            -0.10201434791088104,
            0.03275780379772186,
            0.015365781262516975,
            0.38950052857398987,
            -0.031714219599962234,
            -0.22420845925807953,
            -0.06697630882263184,
            -0.18081367015838623,
            0.010007789358496666,
            0.21429888904094696,
            0.12739910185337067,
            0.20306463539600372,
            0.008918189443647861,
            0.23431755602359772,
            -0.027735061943531036,
            0.1820138692855835,
            0.12917804718017578,
            0.08833712339401245,
            0.26055967807769775,
            -0.24360539019107819,
            -0.048792291432619095,
            -0.03884441405534744,
            0.20760419964790344,
            0.1698368638753891,
            -0.07597459107637405,
            -0.065037302672863,
            0.15380322933197021,
            0.13343322277069092,
            0.07095655798912048,
            0.188124880194664,
            -0.2105816900730133,
            -0.07508974522352219,
            0.004316647537052631,
            0.0029293829575181007,
            0.05002874881029129,
            0.012384950183331966,
            -0.16663621366024017,
            0.19886992871761322,
            0.10046257078647614,
            0.13325536251068115,
            -0.24926699697971344,
            0.28541097044944763,
            -0.0012872320367023349,
            -0.042878568172454834,
            -0.04240246117115021,
            0.25340530276298523,
            -0.050399355590343475,
            0.12523363530635834,
            -0.11450114101171494,
            -0.28010764718055725,
            -0.1448063999414444,
            -0.08833887428045273,
            0.15941952168941498,
            0.27773088216781616,
            -0.28111904859542847,
            -0.04095568507909775,
            0.09901469945907593,
            0.08662969619035721,
            0.06570840626955032,
            -0.09849967807531357,
            0.13147921860218048,
            -0.07512635737657547,
            0.21104945242404938,
            -0.19428308308124542,
            0.25958335399627686,
            0.2156357616186142,
            -0.29566988348960876,
            -0.01620475947856903,
            0.08421678841114044,
            -0.19294609129428864,
            -0.09346361458301544,
            -0.08370364457368851,
            0.07619716227054596,
            -0.259804904460907,
            -0.14628320932388306,
            0.24655179679393768,
            0.22311608493328094,
            0.04860401153564453,
            -0.1268204003572464,
            0.02666732482612133,
            -0.039739351719617844,
            0.10683970153331757,
            -0.0025992137379944324,
            -0.057631783187389374,
            0.03595471754670143,
            -0.2701050937175751,
            0.14045459032058716,
            0.001088674645870924,
            0.17012615501880646,
            -0.06120723858475685,
            0.1110769510269165,
            0.007025961298495531,
            0.028435759246349335,
            -0.11364232003688812,
            -0.05376319959759712,
            -0.10026834160089493,
            0.006398414261639118,
            -0.018315952271223068,
            0.08101984113454819,
            0.10088999569416046,
            -0.18341438472270966,
            -0.14711962640285492,
            0.2663615643978119,
            0.09580086171627045,
            0.028019649907946587,
            -0.15905852615833282,
            0.2924391031265259,
            0.11808935552835464,
            0.14508266746997833,
            0.27674219012260437,
            -0.09325577318668365,
            0.148361474275589,
            -0.16030991077423096,
            0.149727463722229,
            -0.0405641570687294,
            -0.06711474806070328,
            -0.032477617263793945,
            0.004231651313602924,
            -0.1777142733335495,
            -0.17341972887516022,
            0.1444094479084015,
            -0.13526535034179688,
            -0.018508529290556908,
            0.04341810569167137,
            0.2222677320241928,
            0.07766418904066086,
            -0.2242613434791565,
            -0.2294110506772995,
            0.02077343873679638,
            0.14516445994377136,
            0.15053077042102814,
            -0.2357037216424942,
            -0.21978579461574554,
            -0.0885343924164772,
            -0.14981326460838318,
            -0.004269043914973736,
            0.04079444706439972,
            -0.02162477932870388,
            -0.01825232431292534,
            0.0012266659177839756,
            -0.04169093072414398,
            -0.3109230399131775,
            0.2814578711986542,
            0.11823931336402893,
            -0.046143677085638046,
            0.17194864153862,
            -0.08025487512350082,
            -0.17073102295398712,
            0.07183831930160522,
            0.018798908218741417,
            0.2589814066886902,
            -0.019027218222618103,
            0.2139379233121872,
            0.26080647110939026,
            0.1642727553844452,
            0.1855051964521408,
            -0.007199679501354694,
            0.20838119089603424,
            0.08873438835144043,
            0.02741752192378044,
            -0.11129775643348694,
            -0.03941737487912178,
            -0.1775752305984497,
            -0.01497684232890606,
            0.07015347480773926,
            -0.2222118377685547,
            0.2070303112268448,
            -0.16713137924671173,
            0.15729142725467682,
            -0.15675263106822968,
            0.06858721375465393,
            0.01663648895919323,
            -0.10947355628013611,
            0.11303647607564926,
            0.014974274672567844,
            0.1598576456308365,
            -0.02301098220050335,
            0.43257543444633484,
            -0.1891203224658966,
            0.06421865522861481,
            0.08289217203855515,
            0.04769767075777054,
            0.11740273982286453,
            0.05463717505335808,
            -0.0048185838386416435,
            0.10083974152803421,
            0.08400974422693253,
            0.0876976028084755,
            -0.3956190049648285,
            -0.0018636091845110059,
            0.29800790548324585,
            0.15058015286922455,
            0.007296955678611994,
            0.02515116147696972,
            0.010036810301244259,
            -0.3262881934642792,
            -0.04026741534471512,
            0.2629537880420685,
            -0.01219978742301464,
            -0.04192740470170975,
            -0.02216595970094204,
            0.08004239201545715,
            0.030949724838137627,
            0.02229761891067028,
            0.07268797606229782,
            0.11064410209655762,
            0.2690582871437073,
            0.07907827198505402,
            0.4622650444507599,
            0.14476287364959717,
            0.3577307462692261,
            0.10347731411457062,
            -0.1439189910888672,
            -0.057049207389354706,
            0.3717890977859497,
            -0.2677077054977417,
            -0.07609038800001144,
            0.00005461501132231206,
            0.08968441188335419,
            0.04786122590303421,
            0.16753652691841125,
            0.004377240315079689,
            0.006633211392909288,
            -0.1614753007888794,
            -0.02749614045023918,
            -0.06498703360557556,
            -0.20272789895534515,
            -0.24107135832309723,
            -0.07114458084106445,
            0.09331473708152771,
            0.1554299294948578,
            -0.19419778883457184,
            0.06834455579519272,
            -0.002943479223176837,
            0.13186025619506836,
            -0.19404393434524536,
            -0.19920486211776733,
            0.0003679463407024741,
            0.31999361515045166,
            0.014083139598369598,
            0.0860014259815216,
            0.28732502460479736,
            0.07258615642786026,
            0.29910749197006226,
            0.06390461325645447,
            0.2549038529396057,
            0.08798816800117493,
            -0.219941183924675,
            0.050322454422712326,
            0.23781821131706238,
            0.16004738211631775,
            0.04583317041397095,
            -0.02979392558336258,
            -0.12382682412862778,
            0.07681751251220703,
            -0.25656938552856445,
            0.18132220208644867,
            0.02057492733001709,
            0.16312171518802643,
            0.1893862932920456,
            0.06061786413192749,
            -0.04986913502216339,
            -0.15898959338665009,
            -0.1057361289858818,
            -0.2713606357574463,
            0.07472695410251617,
            -0.07857292890548706,
            -0.031654730439186096,
            -0.049118924885988235,
            -0.11055999994277954,
            -0.06828778237104416,
            0.18654486536979675,
            0.10012557357549667,
            -0.13596464693546295,
            -0.18357646465301514,
            -0.030685584992170334,
            0.00490628881379962,
            0.11789292097091675,
            -0.24787183105945587,
            0.34738725423812866,
            0.25432929396629333,
            0.02508731000125408,
            -0.11429463326931,
            0.0884542465209961,
            -0.14719544351100922,
            -0.04121673107147217,
            -0.015485906973481178,
            0.12217376381158829,
            -0.03550627455115318,
            -0.2102421075105667,
            -0.19036409258842468,
            0.08089356124401093,
            -0.15828663110733032,
            0.12094157189130783,
            0.22323018312454224,
            0.152854785323143,
            -0.024111084640026093,
            0.029565012082457542,
            0.22117894887924194,
            0.05562115088105202,
            0.029582401737570763,
            -0.20552171766757965,
            0.10292398184537888,
            -0.07678692787885666,
            0.2900311052799225,
            -0.08487147837877274,
            0.29269200563430786,
            -0.08317120373249054,
            0.008507058024406433,
            0.26370441913604736,
            -0.06445060670375824,
            -0.03242713212966919,
            0.19214582443237305,
            0.09885041415691376,
            -0.038323238492012024,
            0.12417978048324585,
            -0.07913228124380112,
            0.015246790833771229,
            0.045212894678115845,
            0.07299492508172989,
            -0.0391928069293499,
            -0.022058062255382538,
            0.054195988923311234,
            0.0363524928689003,
            0.2704179883003235,
            -0.061548251658678055,
            0.10880809277296066,
            -0.0064847879111766815,
            -0.11681204289197922,
            -0.23732617497444153,
            -0.06677275151014328,
            -0.14515049755573273,
            -0.0830191969871521,
            0.02420465648174286,
            0.1818339228630066,
            0.08500896394252777,
            0.1254289448261261,
            -0.005065613891929388,
            -0.021975822746753693,
            -0.047178491950035095,
            0.19532635807991028,
            0.02327853813767433,
            0.010114927776157856,
            -0.15754422545433044,
            0.14856848120689392,
            0.11460580676794052,
            0.17447315156459808,
            -0.16355706751346588,
            0.04119604080915451,
            -0.2052728831768036,
            -0.10994239896535873,
            -0.07919687777757645,
            -0.0903250053524971,
            0.22696752846240997,
            0.10447385162115097,
            -0.007514345459640026,
            0.07342942804098129,
            -0.21037296950817108,
            -0.0442829504609108,
            0.04856954514980316,
            -0.18775105476379395,
            -0.17546182870864868,
            -0.020739035680890083,
            0.15459191799163818,
            0.10066796839237213,
            0.06080997735261917,
            0.12907759845256805,
            -0.04476265236735344,
            -0.2640754282474518,
            0.03385128825902939,
            0.19271644949913025,
            0.13100364804267883,
            0.2118644267320633,
            0.07727488875389099,
            -0.17142456769943237,
            -0.24481302499771118,
            -0.05787299945950508,
            0.09455608576536179,
            -0.14300568401813507,
            -0.012544939294457436,
            -0.10007424652576447,
            0.011632475070655346,
            0.35057857632637024,
            0.05862736701965332,
            -0.11043417453765869,
            0.05625507980585098,
            -0.026564162224531174,
            0.2802792191505432,
            0.05857028439640999,
            0.04760259389877319,
            0.08560952544212341,
            -0.02025107480585575,
            -0.1638961285352707,
            -0.28658634424209595,
            -0.1400449126958847,
            0.2527233958244324,
            0.07107964158058167,
            -0.2689271867275238,
            -0.14539819955825806,
            0.04735330119729042,
            0.10753463953733444,
            -0.21003536880016327,
            -0.14663852751255035,
            0.06704842299222946,
            0.1085217073559761,
            0.1938529759645462,
            -0.11511164903640747,
            0.05214677378535271,
            0.16061276197433472,
            0.09252554178237915,
            0.013279207982122898,
            0.08745315670967102,
            -0.04360424354672432,
            -0.09611494839191437,
            0.10142211616039276,
            0.24625448882579803,
            0.24541637301445007,
            0.1880621314048767,
            0.1945391744375229,
            -0.179224893450737,
            0.00130893022287637,
            0.1827671080827713,
            0.1460046023130417,
            -0.038050517439842224,
            0.2810642421245575,
            0.02292652428150177,
            -0.025835812091827393,
            -0.040274638682603836,
            -0.26433494687080383,
            0.07795223593711853,
            0.21810650825500488,
            0.010060183703899384,
            0.1943160444498062,
            0.21117691695690155,
            -0.09465403109788895,
            -0.07890727370977402,
            -0.09620293229818344,
            -0.19074073433876038,
            0.1518227756023407,
            0.14392496645450592,
            0.23820309340953827,
            -0.17840921878814697,
            0.31719866394996643,
            0.12092575430870056,
            0.23414483666419983,
            0.16835243999958038,
            0.007423919625580311,
            -0.1650894731283188,
            -0.13001209497451782,
            0.01681990921497345,
            -0.003024409292265773,
            0.09634748846292496,
            0.1998044103384018,
            -0.03805618733167648,
            0.18312570452690125,
            0.05689292401075363,
            0.03719215840101242,
            0.04351739585399628,
            0.01838846318423748,
            -0.004978849086910486,
            0.02374413050711155,
            0.02615198865532875,
            -0.08894671499729156,
            -0.21760787069797516,
            -0.050932709127664566,
            -0.04375189170241356,
            0.12430613487958908,
            0.06758584827184677,
            -0.10376674681901932,
            0.13461308181285858,
            -0.066034235060215,
            0.09279627352952957,
            0.18136391043663025,
            0.28312012553215027,
            0.10531957447528839,
            -0.08841662108898163,
            -0.28973621129989624,
            0.18428368866443634,
            0.1416524052619934,
            0.003793775336816907,
            0.028173506259918213,
            0.10324040055274963,
            0.046482451260089874,
            -0.05835757777094841,
            -0.06762794405221939,
            0.1964297741651535,
            -0.2511201500892639,
            -0.07405132055282593,
            -0.16117744147777557,
            0.11424563825130463,
            0.03023926168680191,
            -0.04257526621222496,
            0.18210364878177643,
            -0.19943736493587494,
            -0.2180987149477005,
            0.08880314975976944,
            0.03079422004520893,
            -0.08137380331754684,
            0.3250558376312256,
            0.09236609190702438,
            -0.2565704882144928,
            0.09863144904375076,
            -0.06411096453666687,
            0.1673867255449295,
            0.0524737685918808,
            -0.17824172973632812,
            -0.08519934117794037,
            0.11167252063751221,
            -0.055965349078178406,
            0.14713940024375916,
            0.019573640078306198,
            0.03202797472476959,
            0.10851415246725082,
            -0.15364795923233032,
            -0.1519557386636734,
            0.13857446610927582,
            -0.040791649371385574,
            0.012017928063869476,
            -0.07369480282068253,
            -0.1038833037018776,
            0.1426631212234497,
            0.17630399763584137,
            -0.018651599064469337,
            0.08072210848331451,
            -0.2549176514148712,
            -0.18874917924404144,
            -0.005931882653385401,
            -0.17642152309417725,
            -0.0319133922457695,
            -0.15619206428527832,
            0.29632407426834106,
            -0.1331474930047989,
            0.0008543009753338993,
            0.01890764757990837,
            0.17526254057884216,
            0.10002191364765167,
            -0.12069724500179291,
            0.034131985157728195,
            0.1669904589653015,
            -0.05985036864876747,
            0.17875783145427704,
            -0.14738412201404572,
            0.08855468034744263,
            -0.17667560279369354,
            -0.2584538459777832,
            -0.16500772535800934,
            -0.0034939826000481844,
            -0.2292718142271042,
            -0.10604296624660492,
            -0.40662452578544617,
            0.011734883300960064,
            0.14680983126163483,
            -0.01836043782532215,
            -0.2619155943393707,
            0.22701096534729004,
            0.005064181983470917,
            0.16059793531894684,
            -0.19876287877559662,
            -0.17862530052661896,
