{
  "modelName": "left_hand_4_gesture_model",
  "modelType": "neural_network",
  "poseType": "hands",
  "gestureNames": [
    "left hand open",
    "left hand grab",
    "left hand zoom in",
    "left hand zoom out"
  ],
  "labelEncoder": {
    "left hand open": 0,
    "left hand grab": 1,
    "left hand zoom in": 2,
    "left hand zoom out": 3
  },
  "labelDecoder": {
    "0": "left hand open",
    "1": "left hand grab",
    "2": "left hand zoom in",
    "3": "left hand zoom out"
  },
  "accuracy": 0.9977127313613892,
  "trainingTime": "41.87",
  "numFeatures": 88,
  "numClasses": 4,
  "sampleCounts": {
    "left hand open": 548,
    "left hand grab": 588,
    "left hand zoom in": 518,
    "left hand zoom out": 532
  },
  "totalSamples": 2186,
  "timestamp": "2026-01-28T06:23:31.956Z",
  "architecture": {
    "layers": [
      128,
      64
    ],
    "dropout": [
      0.3,
      0.2
    ]
  },
  "config": {
    "epochs": 30,
    "learningRate": 0.001,
    "batchSize": 24,
    "validationSplit": 0.2
  },
  "weights": [
    {
      "name": "dense_Dense1",
      "weights": [
        {
          "shape": [
            88,
            128
          ],
          "data": [
            0.06278061866760254,
            -0.15048104524612427,
            0.15826921164989471,
            0.12741459906101227,
            0.22005270421504974,
            -0.020257437601685524,
            -0.029645249247550964,
            -0.009440121240913868,
            -0.16283845901489258,
            0.017468217760324478,
            0.046762119978666306,
            0.023178063333034515,
            -0.12278595566749573,
            -0.02232043631374836,
            -0.2893061339855194,
            0.10756061226129532,
            0.30136844515800476,
            -0.09506605565547943,
            -0.08584437519311905,
            -0.028831567615270615,
            -0.11670716106891632,
            -0.030200686305761337,
            0.0895610824227333,
            -0.03819829970598221,
            -0.0981258749961853,
            0.21333453059196472,
            -0.04656514897942543,
            0.2886372208595276,
            -0.12985672056674957,
            -0.19604460895061493,
            -0.05599446967244148,
            0.2564699053764343,
            -0.04600568115711212,
            0.039046626538038254,
            -0.009576722979545593,
            0.18133240938186646,
            -0.09265007078647614,
            -0.0016996465856209397,
            -0.06859598308801651,
            -0.14889517426490784,
            0.15846624970436096,
            0.03459128737449646,
            -0.053810399025678635,
            -0.02900146320462227,
            0.06616277247667313,
            0.04327363520860672,
            0.08995989710092545,
            -0.03769611939787865,
            0.11421911418437958,
            0.14853252470493317,
            -0.0007259250269271433,
            0.17197631299495697,
            -0.16999223828315735,
            0.043787334114313126,
            -0.06286036968231201,
            -0.10592347383499146,
            -0.026831811293959618,
            -0.02084423042833805,
            -0.0780399739742279,
            -0.09932740777730942,
            0.19741162657737732,
            -0.00023188957129605114,
            -0.12164527177810669,
            0.12334193289279938,
            0.2388380616903305,
            -0.18275392055511475,
            -0.039003632962703705,
            -0.22077254951000214,
            0.14429031312465668,
            0.03677254915237427,
            -0.09814786911010742,
            -0.19048695266246796,
            -0.16640304028987885,
            -0.06863230466842651,
            0.06911628693342209,
            -0.08857420086860657,
            0.25607115030288696,
            0.1704750806093216,
            -0.1705101877450943,
            -0.05599695444107056,
            0.03970935195684433,
            -0.09883112460374832,
            -0.08094272762537003,
            0.16348840296268463,
            -0.08491645753383636,
            0.13590799272060394,
            -0.08881492167711258,
            -0.08238877356052399,
            0.07999385893344879,
            -0.03067975491285324,
            0.16113325953483582,
            0.06641265749931335,
            -0.029631586745381355,
            -0.15777842700481415,
            0.011203707195818424,
            -0.15672357380390167,
            0.20547805726528168,
            -0.20299050211906433,
            -0.08728363364934921,
            0.29535436630249023,
            0.12774892151355743,
            -0.16938938200473785,
            0.10199952870607376,
            -0.14392490684986115,
            -0.11033958196640015,
            0.09158862382173538,
            -0.2626885771751404,
            -0.2120055854320526,
            -0.11792783439159393,
            0.042370423674583435,
            0.09145525097846985,
            0.13283558189868927,
            -0.13203386962413788,
            0.1268569529056549,
            0.07159662246704102,
            -0.055457279086112976,
            -0.11404205858707428,
            -0.24837461113929749,
            0.09482227265834808,
            -0.08971382677555084,
            -0.18520420789718628,
            0.21209090948104858,
            -0.008945774286985397,
            0.021019399166107178,
            -0.17519302666187286,
            -0.20857645571231842,
            0.10126714408397675,
            -0.10205104202032089,
            0.03090953826904297,
            -0.04147496819496155,
            -0.1734766662120819,
            -0.1328074336051941,
            -0.13010667264461517,
            0.11259779334068298,
            0.06483428180217743,
            0.03466039523482323,
            0.11444823443889618,
            0.09116251021623611,
            -0.009293406270444393,
            -0.17386333644390106,
            -0.052282463759183884,
            0.011015801690518856,
            -0.0676526203751564,
            -0.2260146290063858,
            0.058772820979356766,
            -0.2581087052822113,
            0.07128575444221497,
            0.005159460473805666,
            -0.26413512229919434,
            -0.1515776365995407,
            -0.0696755200624466,
            0.0965174213051796,
            0.007610122207552195,
            0.11418300867080688,
            0.02939765900373459,
            -0.10414131730794907,
            0.11269780993461609,
            0.0708499625325203,
            -0.11928077042102814,
            -0.061483271420001984,
            -0.17505192756652832,
            0.028835376724600792,
            0.22426550090312958,
            0.07516906410455704,
            0.05474462732672691,
            0.0024841721169650555,
            0.18406493961811066,
            -0.03791475668549538,
            -0.20969456434249878,
            -0.1946902722120285,
            0.1575876623392105,
            0.04884713888168335,
            -0.020523082464933395,
            0.08471348881721497,
            -0.23164357244968414,
            -0.15729880332946777,
            0.07783492654561996,
            0.06495579332113266,
            0.06830459088087082,
            -0.20125772058963776,
            -0.06330028921365738,
            0.07382877171039581,
            -0.0566914863884449,
            0.29027554392814636,
            0.0017032837495207787,
            -0.01346062682569027,
            0.0426679290831089,
            -0.05199645459651947,
            -0.047854043543338776,
            -0.25421372056007385,
            -0.16796889901161194,
            0.21023496985435486,
            0.0037229962181299925,
            0.06412986665964127,
            0.14599661529064178,
            0.10494200140237808,
            0.1490485668182373,
            0.05146423727273941,
            -0.20087580382823944,
            -0.16271080076694489,
            -0.026329930871725082,
            0.15817369520664215,
            0.07524790614843369,
            0.1799926608800888,
            0.2071337103843689,
            -0.044800806790590286,
            0.07436591386795044,
            0.25020837783813477,
            0.20694123208522797,
            0.03434103727340698,
            -0.16521503031253815,
            -0.06321405619382858,
            -0.04202914983034134,
            -0.13435126841068268,
            0.27959519624710083,
            0.1638498157262802,
            -0.15278440713882446,
            0.16222965717315674,
            -0.01025361381471157,
            0.009966038167476654,
            -0.12663617730140686,
            -0.03558707982301712,
            0.12075677514076233,
            -0.1893613338470459,
            -0.023140082135796547,
            0.05303540080785751,
            0.05790051817893982,
            -0.05168963968753815,
            -0.10835692286491394,
            0.04138782247900963,
            -0.16400876641273499,
            0.10308127850294113,
            0.11270708590745926,
            -0.07631020247936249,
            -0.05206521600484848,
            -0.037536073476076126,
            0.004814844112843275,
            0.08689945191144943,
            0.07182323187589645,
            -0.07387834787368774,
            0.03577058017253876,
            0.25059086084365845,
            -0.040024057030677795,
            -0.08024998754262924,
            -0.07073438912630081,
            0.2137925773859024,
            -0.07505147159099579,
            -0.0780649483203888,
            0.025323448702692986,
            -0.02631852589547634,
            -0.004245993681252003,
            -0.2846699357032776,
            -0.16140873730182648,
            0.16164834797382355,
            -0.02997814305126667,
            0.030052751302719116,
            -0.298701673746109,
            -0.06804254651069641,
            -0.21746638417243958,
            0.16933801770210266,
            0.15654851496219635,
            -0.06358561664819717,
            -0.03375428542494774,
            0.13971945643424988,
            0.10873547941446304,
            -0.173076331615448,
            -0.03593433275818825,
            0.25150206685066223,
            -0.2905956506729126,
            -0.058620840311050415,
            -0.16461049020290375,
            0.12185487151145935,
            0.07636544108390808,
            0.00405867537483573,
            -0.017039047554135323,
            0.03398466855287552,
            -0.04570280387997627,
            -0.07360589504241943,
            0.10125869512557983,
            -0.21148034930229187,
            0.11689477413892746,
            0.11735036224126816,
            0.1593507081270218,
            -0.03174223750829697,
            0.014855808578431606,
            -0.05160591006278992,
            -0.01808231882750988,
            -0.04322383925318718,
            -0.035474054515361786,
            0.02271316573023796,
            -0.029805582016706467,
            0.14252237975597382,
            -0.19863703846931458,
            0.0843517929315567,
            -0.1698395013809204,
            0.08089538663625717,
            0.20404161512851715,
            0.18870307505130768,
            -0.21657685935497284,
            -0.08834947645664215,
            -0.19459080696105957,
            0.031217563897371292,
            0.19343073666095734,
            0.005939844064414501,
            -0.19910794496536255,
            -0.008051350712776184,
            0.08367417007684708,
            0.182846337556839,
            0.20748543739318848,
            0.09898267686367035,
            -0.1767503023147583,
            -0.15851463377475739,
            -0.01998310349881649,
            0.015931110829114914,
            0.057844873517751694,
            0.1701430380344391,
            -0.2241808921098709,
            0.04259393364191055,
            0.05438613146543503,
            -0.14188089966773987,
            -0.020794695243239403,
            -0.19085891544818878,
            0.013510546647012234,
            -0.053495779633522034,
            -0.2521075904369354,
            -0.021327568218111992,
            -0.11977466940879822,
            -0.05275915935635567,
            0.04587095230817795,
            0.24219107627868652,
            0.1467021405696869,
            0.1854386329650879,
            0.17752207815647125,
            0.06547246128320694,
            -0.11696232110261917,
            -0.06217813119292259,
            -0.05210346356034279,
            0.11902034282684326,
            -0.02604348585009575,
            -0.08702448755502701,
            -0.00018107157666236162,
            -0.10643783956766129,
            -0.08753345161676407,
            0.1294260174036026,
            -0.16392984986305237,
            0.014239175245165825,
            -0.23662662506103516,
            -0.2377353459596634,
            -0.17275287210941315,
            0.05127588286995888,
            -0.16633301973342896,
            -0.03216279298067093,
            -0.07919510453939438,
            0.0003668336139526218,
            0.11213603615760803,
            0.11338913440704346,
            -0.103224977850914,
            0.02803368680179119,
            -0.047691017389297485,
            0.048718828707933426,
            -0.14731654524803162,
            0.04471983388066292,
            -0.1498102843761444,
            0.0963500514626503,
            -0.09599389880895615,
            0.05948447436094284,
            0.07567992806434631,
            -0.09702420979738235,
            -0.13553133606910706,
            0.24069570004940033,
            -0.22565825283527374,
            0.25200822949409485,
            -0.1253187656402588,
            -0.039090633392333984,
            0.17553097009658813,
            -0.004994687158614397,
            -0.020908383652567863,
            0.09063601493835449,
            -0.07672377675771713,
            -0.2791407108306885,
            0.08591378480195999,
            0.004908109549432993,
            -0.02451593428850174,
            -0.024481674656271935,
            0.24858425557613373,
            -0.3012409508228302,
            0.09328138083219528,
            -0.05712009593844414,
            -0.22385409474372864,
            0.115990050137043,
            0.23518489301204681,
            -0.06400429457426071,
            0.21083927154541016,
            -0.0277592483907938,
            -0.0899038165807724,
            -0.26443859934806824,
            0.2723241150379181,
            0.07883540540933609,
            0.04190364480018616,
            -0.10335211455821991,
            -0.04776861146092415,
            -0.07478413730859756,
            0.02649047039449215,
            0.015091590583324432,
            0.26588886976242065,
            0.2961658537387848,
            -0.23662631213665009,
            -0.06107480451464653,
            0.1042792871594429,
            0.03532056137919426,
            -0.17081846296787262,
            0.08968409150838852,
            -0.08470649272203445,
            -0.08353203535079956,
            0.1721258908510208,
            0.03474919870495796,
            -0.06119381636381149,
            0.10305733978748322,
            -0.050373103469610214,
            0.10132326185703278,
            0.042475394904613495,
            0.2658007740974426,
            -0.12420367449522018,
            0.09793136268854141,
            0.18318228423595428,
            0.014984063804149628,
            -0.150889590382576,
            0.22325138747692108,
            0.27074307203292847,
            -0.24762341380119324,
            -0.06973501294851303,
            0.0018500115256756544,
            0.08168165385723114,
            -0.09705555438995361,
            0.020311173051595688,
            -0.0813465341925621,
            0.007606368511915207,
            -0.057086143642663956,
            0.2346796989440918,
            -0.24133405089378357,
            0.15859928727149963,
            -0.22417539358139038,
            -0.1658792942762375,
            -0.1981675773859024,
            -0.02356596477329731,
            0.0779617577791214,
            -0.24035295844078064,
            -0.31554415822029114,
            0.09023596346378326,
            0.10131558030843735,
            0.15590929985046387,
            -0.0219026580452919,
            0.0855284184217453,
            0.22896982729434967,
            0.023346347734332085,
            0.08883100003004074,
            -0.10530734062194824,
            -0.26210251450538635,
            0.021897392347455025,
            -0.15738742053508759,
            -0.26450464129447937,
            -0.07960175722837448,
            0.07384448498487473,
            -0.044292647391557693,
            -0.04507312923669815,
            -0.2710361182689667,
            0.13926436007022858,
            0.17043159902095795,
            0.23120613396167755,
            -0.17799587547779083,
            0.022592656314373016,
            0.27642256021499634,
            0.26561471819877625,
            0.09128139168024063,
            -0.15965574979782104,
            -0.23146018385887146,
            -0.16753293573856354,
            -0.1440824717283249,
            -0.0001641912094783038,
            -0.12899616360664368,
            -0.020137883722782135,
            0.02539459802210331,
            -0.04800432175397873,
            0.11455121636390686,
            -0.011667018756270409,
            -0.19749699532985687,
            -0.1239079162478447,
            0.15597163140773773,
            0.16253824532032013,
            -0.09339112788438797,
            0.2959257662296295,
            0.03720657527446747,
            -0.029832011088728905,
            -0.0882202535867691,
            0.09894160181283951,
            -0.08387137949466705,
            -0.12221388518810272,
            0.06182648614048958,
            0.06683139503002167,
            -0.16404125094413757,
            0.11086864024400711,
            0.27022993564605713,
            0.14842554926872253,
            -0.05413982272148132,
            -0.2963249385356903,
            0.05654164031147957,
            0.20818638801574707,
            0.1191238984465599,
            -0.08904343098402023,
            -0.03691349923610687,
            -0.06278657913208008,
            -0.07245075702667236,
            -0.055787913501262665,
            -0.26129403710365295,
            -0.13258400559425354,
            0.10044918954372406,
            -0.17108319699764252,
            -0.006004891823977232,
            -0.13333921134471893,
            -0.2422473132610321,
            -0.10422906279563904,
            0.2374711036682129,
            -0.04065205529332161,
            0.2814602255821228,
            -0.0750054195523262,
            0.06893008947372437,
            -0.3151256740093231,
            -0.11333553493022919,
            0.14664879441261292,
            -0.15387262403964996,
            -0.15327683091163635,
            -0.06910023093223572,
            0.21084044873714447,
            0.10342497378587723,
            -0.15303465723991394,
            -0.0806298553943634,
            -0.047709304839372635,
            -0.1760013997554779,
            -0.0824771448969841,
            -0.2591226398944855,
            0.12790150940418243,
            -0.15692277252674103,
            0.2110949456691742,
            -0.07365398854017258,
            0.00345306983217597,
            0.13035564124584198,
            0.09706446528434753,
            0.24151745438575745,
            -0.13504867255687714,
            -0.05097125098109245,
            0.19045090675354004,
            -0.07243756949901581,
            0.13406142592430115,
            -0.06551092118024826,
            -0.3298044502735138,
            -0.10267094522714615,
            -0.13861362636089325,
            0.04092162847518921,
            0.05960451066493988,
            -0.2428494095802307,
            0.015427342616021633,
            -0.22238312661647797,
            0.03348277136683464,
            0.06786105036735535,
            0.14817441999912262,
            0.10291995853185654,
            -0.2503800094127655,
            0.11326489597558975,
            -0.24489080905914307,
            -0.0025482128839939833,
            0.07075536996126175,
            0.24860510230064392,
            -0.008762895129621029,
            0.07352522760629654,
            0.05597775802016258,
            -0.18589535355567932,
            -0.08041617274284363,
            0.35667499899864197,
            0.11792609095573425,
            -0.012569312006235123,
            -0.20280705392360687,
            -0.06836822628974915,
            0.20510810613632202,
            -0.05051004886627197,
            0.1064821109175682,
            0.039945654571056366,
            0.13013064861297607,
            0.26287025213241577,
            -0.07266707718372345,
            -0.22643671929836273,
            0.15010997653007507,
            0.06670576333999634,
            0.20590201020240784,
            0.10895588248968124,
            0.04739033430814743,
            -0.21540965139865875,
            -0.15742111206054688,
            -0.15155087411403656,
            -0.077389657497406,
            -0.16063062846660614,
            0.14407022297382355,
            -0.11238805949687958,
            0.01435707975178957,
            0.09632449597120285,
            0.02912246063351631,
            -0.30193760991096497,
            0.08934005349874496,
            0.09159540385007858,
            0.00597158819437027,
            -0.015636039897799492,
            0.06923268735408783,
            0.003468428272753954,
            0.2388838678598404,
            0.11581246554851532,
            -0.17236708104610443,
            -0.18969273567199707,
            0.05196775496006012,
            0.09773512929677963,
            0.021652614697813988,
            0.06251636147499084,
            -0.20103584229946136,
            0.05534647777676582,
            0.15441827476024628,
            0.15790867805480957,
            -0.04502781853079796,
            0.05534595623612404,
            0.079213447868824,
            0.12050703912973404,
            -0.03330342844128609,
            0.2170143574476242,
            -0.301403671503067,
            -0.11795621365308762,
            -0.13992461562156677,
            0.27646198868751526,
            -0.11143891513347626,
            -0.10239937901496887,
            -0.03184371441602707,
            0.15050649642944336,
            0.11652834713459015,
            -0.12294105440378189,
            -0.28031787276268005,
            -0.1339910477399826,
            0.045843396335840225,
            0.06070701405405998,
            -0.1459788680076599,
            -0.05274252966046333,
            0.22743448615074158,
            -0.24613024294376373,
            -0.09686881303787231,
            0.003109987359493971,
            0.10195310413837433,
            0.11843820661306381,
            -0.08290710300207138,
            0.17169971764087677,
            -0.15490302443504333,
            0.034755147993564606,
            -0.06391136348247528,
            -0.1001245528459549,
            0.1443023830652237,
            0.04424585402011871,
            -0.068852998316288,
            -0.012718377634882927,
            0.06305375695228577,
            -0.15066328644752502,
            -0.2768537104129791,
            -0.1927056610584259,
            0.009564060717821121,
            0.07471321523189545,
            0.09394840151071548,
            -0.05775003507733345,
            -0.07639315724372864,
            -0.156083345413208,
            0.14501917362213135,
            0.27902674674987793,
            0.15776757895946503,
            0.07687739282846451,
            -0.24503818154335022,
            -0.10305169969797134,
            -0.0757901519536972,
            0.08724197000265121,
            0.1549377292394638,
            0.09021952748298645,
            0.1061396449804306,
            0.05818578600883484,
            -0.06633581966161728,
            0.0008790308493189514,
            0.05167652666568756,
            0.011535048484802246,
            -0.005809795577079058,
            0.07448290288448334,
            0.23047089576721191,
            0.0784994438290596,
            0.09442321211099625,
            -0.16904990375041962,
            0.044268544763326645,
            0.33303311467170715,
            -0.13568827509880066,
            -0.013565314933657646,
            0.04558594897389412,
            -0.11009828746318817,
            -0.20945966243743896,
            0.015709785744547844,
            -0.012895685620605946,
            -0.29220354557037354,
            -0.11624699085950851,
            0.07325046509504318,
            -0.03206651285290718,
            0.019842881709337234,
            0.07501867413520813,
            -0.15703615546226501,
            0.0724162682890892,
            -0.16601184010505676,
            0.022344134747982025,
            0.14581744372844696,
            0.19195324182510376,
            0.40003684163093567,
            0.07069121301174164,
            0.17319993674755096,
            -0.27254971861839294,
            -0.020706163719296455,
            0.19161087274551392,
            -0.12230251729488373,
            0.016098860651254654,
            -0.1233888566493988,
            -0.25144973397254944,
            0.08499366044998169,
            0.009044219739735126,
            -0.2247045785188675,
            0.15661463141441345,
            -0.03166109323501587,
            -0.07863122224807739,
            0.05508960410952568,
            0.24916362762451172,
            -0.03489921614527702,
            0.24665667116641998,
            0.4151081442832947,
            0.0010284315794706345,
            0.19709272682666779,
            0.06404491513967514,
            0.0029997872188687325,
            -0.01273496076464653,
            -0.049130506813526154,
            0.0034182295203208923,
            -0.3004377484321594,
            0.04451245069503784,
            -0.2115951031446457,
            -0.24245911836624146,
            0.07185200601816177,
            0.16414108872413635,
            -0.16202035546302795,
            0.12759046256542206,
            -0.18887563049793243,
            -0.10879912972450256,
            -0.21862968802452087,
            -0.23467738926410675,
            0.16114848852157593,
            0.03857608884572983,
            0.034442540258169174,
            0.05481157824397087,
            0.1206500306725502,
            -0.09329727292060852,
            0.06929871439933777,
            0.2379407286643982,
            0.04464353248476982,
            -0.018512258306145668,
            -0.005995773244649172,
            0.27235060930252075,
            0.07748257368803024,
            -0.15963499248027802,
            -0.15019774436950684,
            -0.08800043910741806,
            0.011495179496705532,
            0.0007171179167926311,
            -0.09886624664068222,
            0.026083068922162056,
            -0.25341129302978516,
            0.06356203556060791,
            0.11921992152929306,
            -0.0388643741607666,
            0.13304278254508972,
            -0.11986634880304337,
            0.1056516021490097,
            0.17854338884353638,
            0.009170912206172943,
            -0.1112518161535263,
            -0.006363081745803356,
            0.05540316551923752,
            -0.05356515571475029,
            0.09584012627601624,
            -0.024709753692150116,
            -0.19861309230327606,
            0.09643485397100449,
            -0.17137686908245087,
            0.12066766619682312,
            0.15268036723136902,
            -0.2763056457042694,
            0.1491994559764862,
            -0.11905239522457123,
            0.23107075691223145,
            -0.029877619817852974,
            -0.09017038345336914,
            -0.030444471165537834,
            -0.22812210023403168,
            -0.12692725658416748,
            0.21731308102607727,
            -0.016266649588942528,
            -0.1433195024728775,
            0.12517082691192627,
            -0.18783028423786163,
            0.06433361768722534,
            -0.22600722312927246,
            0.08318249881267548,
            -0.24509622156620026,
            0.1931946873664856,
            -0.24178153276443481,
            -0.06276951730251312,
            -0.06316450983285904,
            0.11154616624116898,
            0.13918821513652802,
            -0.15244044363498688,
            -0.11315953731536865,
            0.23608557879924774,
            -0.07275909930467606,
            -0.10356930643320084,
            0.04957713186740875,
            -0.06394818425178528,
            0.1735973060131073,
            -0.029118282720446587,
            -0.002033783122897148,
            -0.1566503494977951,
            -0.11493638157844543,
            -0.10324254631996155,
            -0.022339019924402237,
            -0.16852858662605286,
            -0.02235770970582962,
            0.041204072535037994,
            0.1142943799495697,
            0.2983081638813019,
            0.12185388803482056,
            0.006571243982762098,
            0.17089509963989258,
            -0.1692623645067215,
            -0.11025623977184296,
            -0.048312392085790634,
            0.1450156569480896,
            0.2854050397872925,
            -0.044452548027038574,
            -0.04881223291158676,
            -0.020213767886161804,
            0.16237075626850128,
            0.13387241959571838,
            0.051772430539131165,
            -0.024799784645438194,
            0.04015342891216278,
            0.0790710300207138,
            0.12571313977241516,
            -0.06072518602013588,
            -0.05759841203689575,
            0.03858691453933716,
            0.23997464776039124,
            0.1403176188468933,
            -0.15043507516384125,
            -0.2972235679626465,
            0.0012441187864169478,
            0.07644650340080261,
            0.12209378927946091,
            0.09138339012861252,
            0.19153006374835968,
            0.05445972457528114,
            -0.024525105953216553,
            -0.2564871609210968,
            0.12270256876945496,
            -0.10463976114988327,
            0.05823192372918129,
            0.2975724935531616,
            0.018535569310188293,
            0.06964264065027237,
            0.1845773607492447,
            -0.020708730444312096,
            0.03667386248707771,
            -0.13687974214553833,
            0.0515783466398716,
            -0.03147956356406212,
            -0.19066335260868073,
            0.026258934289216995,
            0.16306549310684204,
            0.07082400470972061,
            0.19088034331798553,
            0.2148948609828949,
            -0.02196391485631466,
            -0.24635258316993713,
            -0.20300798118114471,
            -0.1081109344959259,
            -0.19101811945438385,
            -0.23058469593524933,
            0.035250864923000336,
            -0.24675270915031433,
            -0.12672609090805054,
            -0.2939623296260834,
            0.09844684600830078,
            0.04665111005306244,
            0.05542083829641342,
            0.0652751475572586,
            -0.00466900272294879,
            -0.2929162383079529,
            0.13447964191436768,
            -0.10930057615041733,
            -0.04513101279735565,
            -0.14422643184661865,
            -0.11897097527980804,
            -0.12174241989850998,
            -0.1242799386382103,
            0.021875599399209023,
            0.19148239493370056,
            -0.18702171742916107,
            0.19792284071445465,
            0.1841985285282135,
            0.1488090604543686,
            -0.36424511671066284,
            0.1409863829612732,
            0.00017280194151680917,
            -0.16697871685028076,
            -0.0026696238201111555,
            -0.11254571378231049,
            0.07289581000804901,
            -0.014804340898990631,
            0.1624961495399475,
            0.16185422241687775,
            0.04352031275629997,
            0.09285993874073029,
            0.06575237214565277,
            -0.042119480669498444,
            -0.13925254344940186,
            -0.11391956359148026,
            -0.14746642112731934,
            0.059015415608882904,
            -0.037929534912109375,
            -0.19294311106204987,
            -0.3447502553462982,
            -0.2643396258354187,
            0.11510980874300003,
            0.0738188624382019,
            0.05320551246404648,
            0.22478404641151428,
            0.11783859878778458,
            -0.03806482255458832,
            0.029214981943368912,
            0.24734047055244446,
            0.04751363396644592,
            0.1986331194639206,
            -0.16429896652698517,
            0.01461313758045435,
            -0.18731562793254852,
            -0.20796872675418854,
            0.21296672523021698,
            0.07932576537132263,
            -0.10711105912923813,
            0.07168258726596832,
            -0.1871117651462555,
            0.010679461061954498,
            -0.23305600881576538,
            0.0784335657954216,
            -0.014410415664315224,
            0.05821382254362106,
            0.23906908929347992,
            0.2162436842918396,
            0.05539808049798012,
            0.11933615803718567,
            -0.08984233438968658,
            -0.007014140486717224,
            0.2258688062429428,
            0.09688272327184677,
            -0.2196030467748642,
            0.21353577077388763,
            0.03138189762830734,
            -0.06590788066387177,
            0.15354785323143005,
            0.1987457126379013,
            0.1076388731598854,
            0.21542306244373322,
            -0.16632094979286194,
            -0.2569865882396698,
            -0.1015215739607811,
            0.03444330021739006,
            0.11037062853574753,
            0.20472411811351776,
            0.3036881387233734,
            0.21443220973014832,
            -0.19981569051742554,
            -0.2630469799041748,
            0.11328303068876266,
            0.03493789955973625,
            0.2982880771160126,
            -0.049675293266773224,
            0.3028636574745178,
            -0.131551593542099,
            0.3349660634994507,
            -0.025369372218847275,
            -0.08885389566421509,
            -0.11330859363079071,
            0.12956863641738892,
            0.2520533800125122,
            0.03949863463640213,
            0.08479601889848709,
            -0.1316053718328476,
            -0.0865989550948143,
            0.045054420828819275,
            -0.14629684388637543,
            -0.022303206846117973,
            0.047938574105501175,
            0.11737079173326492,
            0.005829050205647945,
            -0.04643663763999939,
            0.12859973311424255,
            -0.20801767706871033,
            -0.24264419078826904,
            0.027771642431616783,
            0.3957061469554901,
            0.23876680433750153,
            -0.019651196897029877,
            -0.07755628228187561,
            -0.007381856441497803,
            -0.039055995643138885,
            0.13601993024349213,
            -0.014002871699631214,
            -0.20683036744594574,
            0.005699433386325836,
            -0.14845775067806244,
            -0.025992192327976227,
            -0.11342664062976837,
            -0.16318681836128235,
            0.037094663828611374,
            -0.0026541457045823336,
            -0.0668748989701271,
            -0.13840460777282715,
            -0.054642800241708755,
            0.05057556554675102,
            0.35831281542778015,
            0.09792215377092361,
            -0.094692662358284,
            -0.09459606558084488,
            0.04775628075003624,
            -0.016002079471945763,
            -0.07319553941488266,
            -0.21345031261444092,
            -0.07910085469484329,
            -0.21259118616580963,
            -0.06390047818422318,
            -0.0647769421339035,
            0.04768593981862068,
            -0.04388894513249397,
            -0.015840090811252594,
            0.0029246911872178316,
            0.10489936918020248,
            -0.26621487736701965,
            -0.17648941278457642,
            0.2107144296169281,
            0.20557288825511932,
            0.06421782821416855,
            0.1421847939491272,
            -0.17625692486763,
            -0.2360222041606903,
            0.13275256752967834,
            0.15666355192661285,
            0.016464699059724808,
            -0.07941299676895142,
            -0.33480408787727356,
            -0.16850587725639343,
            -0.025426723062992096,
            0.0327875092625618,
            -0.1456795483827591,
            -0.016513651236891747,
            -0.08168606460094452,
            -0.07429029047489166,
            0.04661627486348152,
            -0.13313248753547668,
            -0.038743745535612106,
            -0.13567233085632324,
            0.033743198961019516,
            0.13857123255729675,
            -0.08018668740987778,
            -0.01260192971676588,
            0.1582474708557129,
            -0.3191620409488678,
            0.07625174522399902,
            0.12317852675914764,
            0.08240882307291031,
            -0.28238794207572937,
            0.032677825540304184,
            -0.14353212714195251,
            -0.00530798127874732,
            0.06632722169160843,
            0.018253106623888016,
            -0.11766710132360458,
            0.040316928178071976,
            -0.05397176742553711,
            0.1904909908771515,
            0.21674393117427826,
            0.06648136675357819,
            0.05736227706074715,
            0.4333469271659851,
            0.04883202910423279,
            0.1255589872598648,
            -0.17388592660427094,
            -0.0018805373692885041,
            -0.13200512528419495,
            -0.0422653891146183,
            -0.027196111157536507,
            -0.11948984116315842,
            -0.06478247046470642,
            -0.24388623237609863,
            0.06376218050718307,
            -0.026438366621732712,
            -0.2744884788990021,
            0.2563580870628357,
            -0.10564079880714417,
            0.03404679521918297,
            0.1859547346830368,
            -0.03646714240312576,
            0.4234602451324463,
            0.08422326296567917,
            0.04490657150745392,
            0.01028350368142128,
            0.04662220552563667,
            -0.11850512772798538,
            -0.1741761863231659,
            -0.14292922616004944,
            -0.2710457444190979,
            -0.25480756163597107,
            0.08396995067596436,
            -0.017788849771022797,
            -0.02422443963587284,
            0.14561834931373596,
            -0.043368615210056305,
            0.103244848549366,
            0.0508609414100647,
            -0.17388461530208588,
            0.17210522294044495,
            0.0160893052816391,
            0.3041976988315582,
            0.06287595629692078,
            -0.01090468093752861,
            -0.19366909563541412,
            0.40485599637031555,
            -0.0555109940469265,
            -0.0617462582886219,
            0.16574802994728088,
            -0.07645394653081894,
            0.07478100061416626,
            0.013435862958431244,
            0.1266137957572937,
            0.20379652082920074,
            -0.08466625958681107,
            0.15832893550395966,
            0.05471295490860939,
            0.04978807643055916,
            -0.30617594718933105,
            -0.0015981652541086078,
            0.2109222412109375,
            0.2939964532852173,
            -0.15397949516773224,
            -0.10747475922107697,
            -0.19733649492263794,
            0.1179741844534874,
            -0.17225965857505798,
            -0.03334025666117668,
            0.01955782063305378,
            0.016481226310133934,
            -0.11833786219358444,
            0.10583703964948654,
            0.21235959231853485,
            -0.21010828018188477,
            0.06339331716299057,
            0.26833561062812805,
            -0.15432123839855194,
            -0.1357513815164566,
            -0.05428440868854523,
            -0.21508952975273132,
            0.20093117654323578,
            -0.1283513903617859,
            -0.0468781515955925,
            0.14221373200416565,
            0.2003166824579239,
            0.12444324046373367,
            -0.15276992321014404,
            0.14204846322536469,
            -0.18223533034324646,
            -0.026461336761713028,
            0.17518362402915955,
            0.09675665944814682,
            -0.11923786997795105,
            -0.34225985407829285,
            -0.15040980279445648,
            0.05894797295331955,
            -0.13520459830760956,
            -0.1820531040430069,
            -0.09897195547819138,
            0.25168997049331665,
            -0.11377086490392685,
            -0.016285346820950508,
            0.14404647052288055,
            0.36458560824394226,
            0.14177370071411133,
            0.03520549461245537,
            0.08069635182619095,
            -0.1088688001036644,
            0.035040684044361115,
            -0.09793811291456223,
            0.12541569769382477,
            -0.03965891897678375,
            0.18768946826457977,
            -0.3124759793281555,
            0.34420716762542725,
            -0.2582012712955475,
            0.17971959710121155,
            -0.11338789016008377,
            -0.052058905363082886,
            -0.002881030784919858,
            0.05685101076960564,
            0.19487078487873077,
            -0.06533941626548767,
            0.09429819881916046,
            -0.12433426082134247,
            0.05678665265440941,
            -0.07148373126983643,
            -0.17591530084609985,
            -0.10894187539815903,
            -0.052424654364585876,
            0.21460044384002686,
            -0.28502508997917175,
            0.05321540683507919,
            0.22769977152347565,
            0.11573456972837448,
            -0.2769879996776581,
            -0.0051598628051579,
            -0.17599301040172577,
            0.24762177467346191,
            0.33005157113075256,
            0.01713135838508606,
            0.08870379626750946,
            -0.040242426097393036,
            -0.1292480230331421,
            -0.30530256032943726,
            -0.23320402204990387,
            -0.015286648645997047,
            -0.23280201852321625,
            -0.22240214049816132,
            -0.1655905544757843,
            0.048697780817747116,
            -0.06475608050823212,
            -0.013423839583992958,
            -0.09680937230587006,
            0.12424539029598236,
            0.09457475692033768,
            0.10608100146055222,
            0.010207589715719223,
            0.10588625818490982,
            0.18460093438625336,
            -0.23862114548683167,
            0.0003390601777937263,
            0.21653737127780914,
            -0.030507763847708702,
            0.04397822916507721,
            -0.08288325369358063,
            0.12871496379375458,
            0.20815031230449677,
            0.018954211845993996,
            -0.1228591725230217,
            -0.1507226973772049,
            0.16853024065494537,
            0.07241422683000565,
            -0.24605147540569305,
            0.02359244041144848,
            0.1897260844707489,
            0.10687887668609619,
            -0.07979782670736313,
            -0.22437527775764465,
            0.021251235157251358,
            -0.14234314858913422,
            0.06713175773620605,
            -0.23817194998264313,
            -0.364989310503006,
            0.05443949997425079,
            0.2998350262641907,
            -0.2444741576910019,
            0.284599244594574,
            0.010096333920955658,
            -0.18271182477474213,
            -0.2611665725708008,
            -0.12425050884485245,
            -0.007987034507095814,
            -0.04059223830699921,
            -0.14040471613407135,
            0.10751712322235107,
            0.20748871564865112,
            0.14475513994693756,
            -0.008052469231188297,
            0.3005838394165039,
            0.13073958456516266,
            -0.002178069669753313,
            0.06758063286542892,
            -0.03341332823038101,
            0.06517479568719864,
            -0.3037058115005493,
            -0.032508138567209244,
            0.10954049229621887,
            0.05624910816550255,
            0.017876433208584785,
            0.2295905500650406,
            -0.021161871030926704,
            -0.19579462707042694,
            0.007500545121729374,
            -0.06540112942457199,
            0.22952161729335785,
            -0.10253474116325378,
            -0.04731835424900055,
            -0.031232107430696487,
            0.14826972782611847,
            -0.1298256665468216,
            0.14419761300086975,
            0.308758407831192,
            0.14442220330238342,
            -0.1510675698518753,
            -0.1808834820985794,
            0.04391507804393768,
            0.15135112404823303,
            -0.12619630992412567,
            0.11967159807682037,
            0.07281289994716644,
            0.09517022222280502,
            0.007808790076524019,
            -0.03151047229766846,
            0.03940924257040024,
            0.07376406341791153,
            -0.08741714060306549,
            0.10557480156421661,
            -0.1682472676038742,
            0.034912385046482086,
            -0.022608531638979912,
            -0.10787899047136307,
            0.07702548801898956,
            0.22404202818870544,
            0.07583688944578171,
            -0.07776594161987305,
            -0.05399596318602562,
            0.24083425104618073,
            -0.044787634164094925,
            -0.15164195001125336,
            0.08814330399036407,
            -0.18980900943279266,
            0.1995094269514084,
            0.09147568047046661,
            0.1840900182723999,
            0.16736307740211487,
            0.003887475933879614,
            -0.09692154824733734,
            -0.2380225658416748,
            -0.026096463203430176,
            0.07067263126373291,
            -0.09242728352546692,
            -0.03532705456018448,
            0.10778436064720154,
            -0.01576784811913967,
            0.23805812001228333,
            0.00844278372824192,
            -0.07748047262430191,
            0.10471826791763306,
            -0.007757920306175947,
            0.14642509818077087,
            -0.012578640133142471,
            0.09292120486497879,
            0.17247462272644043,
            0.2890978455543518,
            -0.012552561238408089,
            -0.09659648686647415,
            -0.13557660579681396,
            0.0016736574470996857,
            -0.25018471479415894,
            0.00491322623565793,
            -0.15747855603694916,
            0.2496243417263031,
            -0.11193474382162094,
            -0.17758867144584656,
            -0.14118650555610657,
            0.14551953971385956,
            -0.082554392516613,
            0.0578172504901886,
            0.17754611372947693,
            0.02073759026825428,
            -0.11362569779157639,
            -0.03488810732960701,
            0.18258775770664215,
            0.22139188647270203,
            -0.21876661479473114,
            0.21713674068450928,
            -0.06330577284097672,
            -0.2111547589302063,
            -0.009459292516112328,
            0.06658560782670975,
            -0.03690630942583084,
            -0.05408259853720665,
            0.20067837834358215,
            -0.11495064944028854,
            -0.2203816920518875,
            0.02600119821727276,
            -0.20763960480690002,
            0.007908174768090248,
            0.08290039002895355,
            0.06082203984260559,
            -0.13134364783763885,
            0.039656948298215866,
            -0.0002883872948586941,
            -0.23606808483600616,
            -0.07874301075935364,
            0.07694501429796219,
            -0.07324221730232239,
            0.13193896412849426,
            0.29480788111686707,
            0.009499920532107353,
            0.17015841603279114,
            -0.16403323411941528,
            0.05517612025141716,
            0.18196594715118408,
            0.19573822617530823,
            -0.13105496764183044,
            -0.07999272644519806,
            0.10698637366294861,
            0.06918102502822876,
            -0.24634329974651337,
            -0.06397958099842072,
            -0.10366398841142654,
            0.12991571426391602,
            -0.08128345012664795,
            0.018464507535099983,
            -0.062266960740089417,
            0.27675512433052063,
            0.03125464543700218,
            -0.001376418280415237,
            -0.17816703021526337,
            -0.005373023916035891,
            0.2688658535480499,
            0.2227989286184311,
            0.032487135380506516,
            0.020362840965390205,
            0.008693058975040913,
            -0.16933120787143707,
            -0.0669374018907547,
            0.0734689012169838,
            0.054255299270153046,
            0.07339774072170258,
            -0.03243241459131241,
            -0.1951490342617035,
            -0.16588182747364044,
            -0.12474916130304337,
            -0.08291386067867279,
            0.046761248260736465,
            0.12300664931535721,
            -0.1683395951986313,
            0.1853289008140564,
            0.18006952106952667,
            -0.02270306833088398,
            -0.03915172815322876,
            -0.04007250815629959,
            -0.06671558320522308,
            -0.27036038041114807,
            0.06428615003824234,
            -0.1449112445116043,
            0.14925040304660797,
            -0.021469272673130035,
            0.20391720533370972,
            -0.012240957468748093,
            0.05225994810461998,
            -0.15985070168972015,
            0.09511639922857285,
            -0.03089272789657116,
            0.004436242859810591,
            0.25563427805900574,
            -0.13431645929813385,
            0.2296976000070572,
            -0.09310458600521088,
            0.0026077241636812687,
            -0.12555469572544098,
            -0.009906884282827377,
            0.05662108212709427,
            0.012487007305026054,
            0.10332044214010239,
            -0.1022125706076622,
            0.04408363997936249,
            -0.13786551356315613,
            0.13142675161361694,
            -0.05928739532828331,
            0.08601763099431992,
            0.24072235822677612,
            -0.05823015421628952,
            -0.008274399675428867,
            -0.04822950065135956,
            -0.007621511351317167,
            -0.01578552834689617,
            0.2847497761249542,
            -0.05167267099022865,
            0.07783852517604828,
            -0.08105827122926712,
            -0.03640950843691826,
            0.15146352350711823,
            -0.17957714200019836,
            0.14105066657066345,
            -0.014212485402822495,
            -0.027060026302933693,
            0.01502226758748293,
            -0.23994340002536774,
            0.15986891090869904,
            -0.13250692188739777,
            -0.007153221871703863,
            0.0033219358883798122,
            0.02719602920114994,
            0.02304864302277565,
            -0.10167192667722702,
            -0.024446118623018265,
            -0.09812565892934799,
            -0.027800370007753372,
            0.10219141840934753,
            -0.1970217525959015,
            0.16981543600559235,
            -0.01043276209384203,
            0.3066447079181671,
            0.08128023892641068,
            0.07613958418369293,
            0.2493836134672165,
            -0.22421973943710327,
            -0.12039914727210999,
            0.08137746155261993,
            -0.047321584075689316,
            -0.11120227724313736,
            -0.02895362302660942,
            0.13772206008434296,
            -0.11830399185419083,
            0.3155241310596466,
            0.05145085230469704,
            0.0529521144926548,
            -0.18417638540267944,
            0.2756372094154358,
            0.12932594120502472,
            0.16606608033180237,
            -0.16447360813617706,
            0.18073494732379913,
            -0.10117682069540024,
            0.12507066130638123,
            -0.056207075715065,
            0.0020200852304697037,
            -0.02281738445162773,
            0.3649718761444092,
            -0.2353636771440506,
            0.04233992099761963,
            0.09469657391309738,
            -0.11429433524608612,
            -0.12491090595722198,
            0.21634851396083832,
            0.038901437073946,
            0.03231026604771614,
            0.11162962764501572,
            0.1236381009221077,
            0.1280096173286438,
            -0.28501880168914795,
            0.08038268983364105,
            0.03100356087088585,
            0.33884599804878235,
            0.10017701983451843,
            0.21929775178432465,
            0.17410054802894592,
            -0.41815248131752014,
            -0.05201559513807297,
            -0.07212533056735992,
            -0.03908775746822357,
            0.0341254360973835,
            -0.23553675413131714,
            -0.19950895011425018,
            -0.3393397629261017,
            -0.12196480482816696,
            0.0837177112698555,
            0.033349938690662384,
            -0.051994819194078445,
            0.058510828763246536,
            -0.1889650672674179,
            -0.09499119967222214,
            -0.28349801898002625,
            0.08516934514045715,
            0.17488601803779602,
            -0.048440609127283096,
            0.0960632860660553,
            -0.11002010852098465,
            -0.02256162464618683,
            -0.1935565173625946,
            0.21459195017814636,
            -0.1315041482448578,
            -0.07034116238355637,
            0.00487524876371026,
            0.11894917488098145,
            -0.08707166463136673,
            0.010339030995965004,
            -0.014769253320991993,
            0.1683865189552307,
            -0.09654803574085236,
            0.07729441672563553,
            0.07044776529073715,
            -0.1726546585559845,
            0.3207652270793915,
            -0.020331064239144325,
            -0.17102749645709991,
            -0.10237982124090195,
            -0.3215543329715729,
            0.014406247064471245,
            -0.011661974713206291,
            0.06162530556321144,
            0.06448428332805634,
            -0.1843961626291275,
            0.06206345930695534,
            0.01130217220634222,
            -0.10952985286712646,
            0.3573002219200134,
            -0.14118923246860504,
            0.19779157638549805,
            0.18217040598392487,
            0.1566830277442932,
            0.15553279221057892,
            0.10502708703279495,
            -0.01732068508863449,
            -0.1498846709728241,
            -0.1221187636256218,
            -0.048101238906383514,
            -0.0951024740934372,
            -0.000905055901966989,
            -0.1532427817583084,
            -0.06413546949625015,
            -0.01489532645791769,
            -0.25834372639656067,
            -0.08622165024280548,
            0.01803543232381344,
            0.10753421485424042,
            -0.20535387098789215,
            -0.10380791127681732,
            0.1456383615732193,
            0.10129435360431671,
            0.0810614675283432,
            -0.10593670606613159,
            0.21662479639053345,
            0.09385310858488083,
            0.32378289103507996,
            -0.06664439290761948,
            0.24274751543998718,
            0.12879620492458344,
            0.0098213329911232,
            -0.13886873424053192,
            -0.2573220729827881,
            -0.027507547289133072,
            0.26047876477241516,
            -0.12283682823181152,
            0.24629069864749908,
            0.03331933915615082,
            -0.0781327560544014,
            -0.13571543991565704,
            0.1664630025625229,
            0.14516940712928772,
            -0.1815520077943802,
            0.06591029465198517,
            -0.02046254836022854,
            -0.17389272153377533,
            0.016876177862286568,
            0.21066008508205414,
            -0.15582145750522614,
            0.14497247338294983,
            0.16957497596740723,
            0.06121864169836044,
            -0.018604010343551636,
            -0.10868695378303528,
            0.12117638438940048,
            -0.0342610701918602,
            0.060303524136543274,
            0.18441469967365265,
            0.013156640343368053,
            -0.1381702423095703,
            -0.26758724451065063,
            -0.06696756929159164,
            0.08959316462278366,
            0.12021178752183914,
            0.023028932511806488,
            0.2893484830856323,
            -0.3928547501564026,
            -0.07889264822006226,
            0.03401752933859825,
            -0.041138000786304474,
            0.00009229330316884443,
            0.12869742512702942,
            -0.17807988822460175,
            -0.13850797712802887,
            -0.14425836503505707,
            0.18981754779815674,
            -0.25559985637664795,
            -0.22457459568977356,
            0.010556201450526714,
            0.06305830180644989,
            0.14204971492290497,
            0.314510315656662,
            0.07119379192590714,
            0.16887038946151733,
            0.1544259488582611,
            0.15502433478832245,
            -0.3078237771987915,
            -0.015195340849459171,
            -0.019956795498728752,
            -0.14192654192447662,
            -0.1670440435409546,
            -0.22929571568965912,
            0.05024430528283119,
            -0.31260034441947937,
            -0.01845039799809456,
            0.09537031501531601,
            0.18658512830734253,
            0.0028801492881029844,
            -0.16116666793823242,
            0.0676536113023758,
            -0.08553812652826309,
            0.2200111746788025,
            -0.021820971742272377,
            -0.09983773529529572,
            -0.1916353851556778,
            0.3325471878051758,
            0.09566450119018555,
            -0.06308337301015854,
            -0.13227416574954987,
            -0.031538981944322586,
            -0.31344643235206604,
            0.01515533309429884,
            -0.0268055722117424,
            -0.11494415998458862,
            -0.05681033432483673,
            0.13306035101413727,
            0.07502782344818115,
            0.3146982491016388,
            0.27219998836517334,
            -0.02773086540400982,
            -0.1490657776594162,
            -0.0012506033526733518,
            -0.17458389699459076,
            0.14424552023410797,
            0.15297406911849976,
            0.20523831248283386,
            0.2031487375497818,
            0.2148888260126114,
            -0.0596495196223259,
            -0.04559063911437988,
            0.1493953913450241,
            -0.1011105552315712,
            0.17011891305446625,
            -0.15996573865413666,
            0.10236700624227524,
            0.12191961705684662,
            -0.039906375110149384,
            0.19254536926746368,
            -0.029350165277719498,
            0.22410652041435242,
            0.1379156857728958,
            -0.2803184986114502,
            0.002659371355548501,
            -0.06564296036958694,
            0.0317927710711956,
            -0.00928131677210331,
            -0.2893611788749695,
            0.0715392455458641,
            -0.1834949553012848,
            -0.023417798802256584,
            0.2815004289150238,
            0.056793127208948135,
            -0.15398386120796204,
            0.1557857245206833,
            -0.10261058062314987,
            0.09764748811721802,
            -0.033420298248529434,
            0.04033024609088898,
            -0.0154569111764431,
            0.03628078103065491,
            -0.10008177906274796,
            -0.09807710349559784,
            -0.3677751123905182,
            0.03574304282665253,
            0.11844302713871002,
            0.009429522790014744,
            -0.04126274958252907,
            0.021229391917586327,
            -0.1464904248714447,
            -0.1726837009191513,
            0.05998806282877922,
            0.14929869771003723,
            -0.10647124797105789,
            -0.1031503900885582,
            0.08221591264009476,
            -0.08077066391706467,
            0.03611509129405022,
            0.07739415764808655,
            0.0007610583561472595,
            -0.32147955894470215,
            -0.20011286437511444,
            -0.05111047998070717,
            0.039670679718256,
            0.007427306845784187,
            0.0012604990042746067,
            -0.08160844445228577,
            -0.1105804592370987,
            -0.1947101354598999,
            0.06726932525634766,
            -0.15269318222999573,
            0.07211516052484512,
            0.17322766780853271,
            0.10759779065847397,
            0.2101079821586609,
            0.26435384154319763,
            0.04919971525669098,
            0.026116646826267242,
            0.2008965164422989,
            -0.004739189054816961,
            -0.2295723706483841,
            -0.1357274055480957,
            0.11609607934951782,
            0.03140173479914665,
            0.23556014895439148,
            0.14761361479759216,
            -0.20443940162658691,
            0.02280532196164131,
            0.02034713700413704,
            -0.017035357654094696,
            -0.12657761573791504,
            0.1848892718553543,
            -0.263683944940567,
            -0.06441304832696915,
            -0.01652146875858307,
            -0.08886782079935074,
            -0.0075742146000266075,
            -0.10374648123979568,
            0.0779637023806572,
            -0.0827220231294632,
            0.040739189833402634,
            0.14038337767124176,
            -0.08597463369369507,
            0.1674257516860962,
            -0.11853465437889099,
            -0.055676285177469254,
            -0.17893430590629578,
            -0.024734310805797577,
            0.041713424026966095,
            -0.26057708263397217,
            0.19108045101165771,
            -0.09423220902681351,
            0.16112372279167175,
            -0.14823850989341736,
            0.23166529834270477,
            -0.2879701852798462,
            -0.08900023251771927,
            0.08869297802448273,
            0.25369271636009216,
            0.199075385928154,
            0.09086433053016663,
            -0.010130701586604118,
            -0.05038222298026085,
            -0.1056818887591362,
            0.03076748736202717,
            -0.12638172507286072,
            -0.22248566150665283,
            0.10673580318689346,
            0.1283314824104309,
            0.1836329698562622,
            0.11465787142515182,
            -0.22991368174552917,
            -0.016554178670048714,
            0.011497937142848969,
            -0.06719265133142471,
            0.0281967930495739,
            0.022525107488036156,
            0.19089224934577942,
            0.03572268784046173,
            0.29566141963005066,
            -0.016390206292271614,
            0.10225978493690491,
            0.004247970413416624,
            0.13618816435337067,
            0.011429346166551113,
            -0.010690583847463131,
            0.153076633810997,
            0.02341054007411003,
            0.14970095455646515,
            0.11335433274507523,
            -0.1707179695367813,
            -0.060156188905239105,
            -0.02055247686803341,
            -0.0898016020655632,
            0.0789995864033699,
            -0.11624498665332794,
            -0.07715257257223129,
            0.10611125081777573,
            0.2504967451095581,
            0.034054532647132874,
            0.16847598552703857,
            -0.03325626999139786,
            0.158440500497818,
            -0.019846098497509956,
            -0.06380456686019897,
            -0.010220024734735489,
            -0.15496961772441864,
            -0.05090758576989174,
            0.20495784282684326,
            0.28873270750045776,
            0.2100728452205658,
            0.1657264679670334,
            -0.07885035127401352,
            -0.1356153041124344,
            -0.14837880432605743,
            0.04377353563904762,
            0.20396801829338074,
            0.23112443089485168,
            0.10645078867673874,
            -0.11898308247327805,
            -0.015252410434186459,
            -0.17308659851551056,
            -0.17261169850826263,
            0.05089683085680008,
            0.05757841467857361,
            0.19253642857074738,
            0.13709886372089386,
            0.03080889955163002,
            0.22560228407382965,
            0.01577075384557247,
            0.08106867969036102,
            0.06677300482988358,
            0.1492270827293396,
            0.18808208405971527,
            -0.09119361639022827,
            -0.036283064633607864,
            0.10220815986394882,
            -0.203029602766037,
            0.037287529557943344,
            -0.07177461683750153,
            0.04699942097067833,
            -0.05987751483917236,
            -0.07884467393159866,
            -0.2138231247663498,
            -0.052754271775484085,
            0.1367756426334381,
            0.0377836748957634,
            -0.2467612773180008,
            0.09211569279432297,
            0.18665777146816254,
            0.13507816195487976,
            -0.0859927237033844,
            -0.2676658630371094,
            -0.08928506821393967,
            -0.032987240701913834,
            -0.10711134970188141,
            -0.0448630191385746,
            -0.06707241386175156,
            -0.01698233373463154,
            -0.13983005285263062,
            0.10708959400653839,
            -0.023551801219582558,
            0.04152417555451393,
            0.009376141242682934,
            -0.09367626905441284,
            0.2203994244337082,
            0.027519965544342995,
            -0.10385388880968094,
            0.052915722131729126,
            -0.12931956350803375,
            0.1656472533941269,
            -0.1235259473323822,
            0.03577767312526703,
            -0.019872914999723434,
            -0.14885199069976807,
            0.1490183174610138,
            -0.060317978262901306,
            -0.08574817329645157,
            0.012365622445940971,
            0.02564486674964428,
            -0.3300599455833435,
            0.07733237743377686,
            -0.04862607270479202,
            -0.23858946561813354,
            0.18865878880023956,
            -0.033775683492422104,
            -0.01783120445907116,
            -0.1466384381055832,
            0.14159172773361206,
            -0.03743397444486618,
            0.22495891153812408,
            0.1712886244058609,
            0.05317366123199463,
            -0.016665158793330193,
            0.019028732553124428,
            0.35236746072769165,
            -0.08611646294593811,
            -0.12127765268087387,
            0.1221328154206276,
            0.03502047806978226,
            0.2523723840713501,
            -0.09329697489738464,
            -0.1507740020751953,
            0.07190649211406708,
            -0.18028147518634796,
            0.09582429379224777,
            0.3318954408168793,
            0.21843130886554718,
            0.04307004436850548,
            0.1720598191022873,
            0.07321931421756744,
            -0.055896464735269547,
            -0.045761458575725555,
            0.06352778524160385,
            0.1567756086587906,
            -0.20341899991035461,
            0.2756739854812622,
            0.09057679772377014,
            -0.06110602989792824,
            -0.07758910953998566,
            -0.16893208026885986,
            0.11373089253902435,
            0.1358252465724945,
            -0.07181403785943985,
            -0.33115723729133606,
            0.13079744577407837,
            -0.10585007816553116,
            -0.15165141224861145,
            0.23783673346042633,
            -0.1739075779914856,
            -0.14526861906051636,
            0.23886246979236603,
            0.04463782161474228,
            -0.14543411135673523,
            0.08233927935361862,
            0.2252943217754364,
            0.037724945694208145,
            -0.16124896705150604,
            0.11948063969612122,
            0.029180865734815598,
            0.2355135679244995,
            0.12618044018745422,
            -0.2186952829360962,
            0.11101888120174408,
            0.018606677651405334,
            -0.019802100956439972,
            -0.15242108702659607,
            0.18708740174770355,
            -0.3112669289112091,
            -0.32515770196914673,
            -0.1912984699010849,
            0.08553643524646759,
            0.3068464398384094,
            -0.12706729769706726,
            -0.015899967402219772,
            -0.019456572830677032,
            -0.035443875938653946,
            -0.2906039357185364,
            0.17357176542282104,
            -0.016681987792253494,
            -0.11900196969509125,
            0.08077261596918106,
            -0.12029300630092621,
            -0.2524963319301605,
            -0.027710992842912674,
            -0.2760760188102722,
            -0.16182099282741547,
            -0.07949062436819077,
            0.045769836753606796,
            0.3155151903629303,
            0.08501193672418594,
            -0.20793314278125763,
            0.04492689296603203,
            -0.024005262181162834,
            0.24045583605766296,
            0.14299796521663666,
            -0.012580090202391148,
            -0.24744324386119843,
            0.04517824202775955,
            0.13644921779632568,
            0.06472103297710419,
            0.15737150609493256,
            -0.12567228078842163,
            -0.0671478882431984,
            -0.02186942845582962,
            -0.14511722326278687,
            0.14185284078121185,
            0.09866848587989807,
            0.14916083216667175,
            0.09770718961954117,
            -0.18188928067684174,
            -0.23625755310058594,
            -0.29202088713645935,
            -0.07929519563913345,
            0.1632087677717209,
            0.06538015604019165,
            0.13195934891700745,
            -0.053542524576187134,
            0.1376192569732666,
            -0.12852396070957184,
            0.09942226111888885,
            -0.07983999699354172,
            0.08798404783010483,
            -0.19905175268650055,
            -0.06102736294269562,
            -0.17167240381240845,
            -0.003895085072144866,
            -0.1842344105243683,
            -0.16958829760551453,
            -0.040379248559474945,
            0.24753853678703308,
            -0.17557042837142944,
            -0.18424762785434723,
            0.042738404124975204,
            0.04513242095708847,
            0.011801091022789478,
            -0.012887866236269474,
            0.07724107801914215,
            0.0039552911184728146,
            0.03253358229994774,
            0.31282514333724976,
            0.041209761053323746,
            -0.07308565080165863,
            0.011318004690110683,
            0.09855250269174576,
            0.10763859748840332,
            0.08219684660434723,
            0.049904920160770416,
            -0.13480332493782043,
            0.08848776668310165,
            0.037105437368154526,
            -0.024462906643748283,
            0.0913894921541214,
            -0.01665932685136795,
            -0.20446857810020447,
            -0.18613597750663757,
            0.30166852474212646,
            0.1752738207578659,
            -0.016509201377630234,
            0.1526167243719101,
            0.2166915237903595,
            0.12521234154701233,
            -0.12232507020235062,
            0.18359173834323883,
            0.05952773988246918,
            0.1660052090883255,
            -0.23813608288764954,
            0.18812674283981323,
            0.2125910520553589,
            -0.01671186275780201,
            -0.2996690571308136,
            -0.3087073564529419,
            -0.09047877788543701,
            0.19127628207206726,
            -0.15421341359615326,
            0.1347864717245102,
            0.06073140352964401,
            -0.03755748271942139,
            -0.1340419352054596,
            0.23136202991008759,
            -0.0053520966321229935,
            -0.061319444328546524,
            0.1794370859861374,
            0.06462858617305756,
            0.3447688817977905,
            -0.08084136992692947,
            0.09695276618003845,
            0.09017594158649445,
            -0.11872260272502899,
            -0.005991592537611723,
            -0.10151252150535583,
            0.23608142137527466,
            0.09230101853609085,
            -0.015786398202180862,
            0.15273909270763397,
            0.14535461366176605,
            0.18377669155597687,
            -0.1546841710805893,
            -0.21215073764324188,
            0.1154090091586113,
            0.28666847944259644,
            -0.18210279941558838,
            -0.17882536351680756,
            -0.03532012179493904,
            0.03977563604712486,
            -0.286088228225708,
            -0.2103646844625473,
            -0.11881470680236816,
            -0.04347548633813858,
            0.17733287811279297,
            -0.017495278269052505,
            0.15041330456733704,
            -0.05049581453204155,
            -0.02438490092754364,
            0.22795142233371735,
            -0.07108813524246216,
            0.25533461570739746,
            -0.11614345014095306,
            -0.029538264498114586,
            0.0666474923491478,
            -0.027849793434143066,
            -0.12919308245182037,
            -0.27766871452331543,
            0.07454843819141388,
            -0.13227595388889313,
            -0.1204289048910141,
            -0.20486833155155182,
            -0.2420383095741272,
            -0.3282037079334259,
            0.1917361319065094,
            0.05860229209065437,
            -0.09120040386915207,
            -0.19069235026836395,
            0.04592403024435043,
            -0.13504089415073395,
            0.00013888819376006722,
            -0.22060991823673248,
            -0.035848505795001984,
            -0.016835760325193405,
            -0.012535826303064823,
            0.1214912086725235,
            -0.1598036140203476,
            0.028942793607711792,
            0.236153706908226,
            -0.13875775039196014,
            -0.19691431522369385,
            -0.1548098921775818,
            0.07099127024412155,
            0.13031674921512604,
            0.04414459690451622,
            0.004688340239226818,
            -0.08152403682470322,
            0.09298093616962433,
            0.006580987013876438,
            0.044969141483306885,
            -0.09701447933912277,
            -0.26221612095832825,
            -0.08968614786863327,
            -0.0793287605047226,
            -0.13179433345794678,
            0.24122793972492218,
            -0.2035173624753952,
            -0.23126325011253357,
            -0.02515043132007122,
            -0.2362126260995865,
            0.19042077660560608,
            -0.24015940725803375,
            -0.1924285739660263,
            0.16993029415607452,
            0.26075947284698486,
            -0.02193307876586914,
            -0.018197067081928253,
            0.3175353407859802,
            0.34158870577812195,
            -0.24697668850421906,
            -0.09112398326396942,
            0.017697278410196304,
            0.10916202515363693,
            0.0692598968744278,
            0.0026784150395542383,
            -0.07462453097105026,
            -0.05553348734974861,
            0.003618950955569744,
            -0.015194647014141083,
            -0.04316862300038338,
            0.24104730784893036,
            0.06205344945192337,
            0.1947871595621109,
            0.1429421752691269,
            0.15893679857254028,
            0.1535208821296692,
            -0.08660517632961273,
            0.14969594776630402,
            0.0243353471159935,
            0.2683371603488922,
            -0.003551880829036236,
            0.013783351518213749,
            -0.07007873803377151,
            -0.008785257115960121,
            -0.03955290466547012,
            -0.18106138706207275,
            0.11684639006853104,
            -0.17096099257469177,
            0.0472957119345665,
            -0.004430023487657309,
            -0.20800809562206268,
            -0.03229708969593048,
            -0.02427486516535282,
            -0.08737508952617645,
            -0.18026329576969147,
            0.003927768208086491,
            0.06107776612043381,
            0.27470701932907104,
            -0.03263654559850693,
            0.1549205482006073,
            -0.12178413569927216,
            0.009788600727915764,
            -0.12843233346939087,
            -0.02279890701174736,
            0.06186568737030029,
            -0.08125686645507812,
            0.06769833713769913,
            -0.17552068829536438,
            -0.23816543817520142,
            -0.1416662633419037,
            -0.2253587394952774,
            -0.18034502863883972,
            -0.18095505237579346,
            -0.01953180320560932,
            -0.3217361569404602,
            0.1586417406797409,
            0.19363026320934296,
            -0.2308727353811264,
            -0.12310308963060379,
            0.15752597153186798,
            -0.02729646861553192,
            -0.06044289842247963,
            0.14737334847450256,
            -0.1802157461643219,
            0.19166655838489532,
            0.09776459634304047,
            -0.13260577619075775,
            -0.05512974038720131,
            0.20242978632450104,
            -0.0633189007639885,
            -0.053960658609867096,
            0.05476991832256317,
            -0.20861372351646423,
            -0.3492342233657837,
            -0.29472246766090393,
            0.24242699146270752,
            -0.05104983225464821,
            -0.24970856308937073,
            -0.13578639924526215,
            0.31885695457458496,
            0.03716211020946503,
            0.30865320563316345,
            0.01896427758038044,
            -0.1285606026649475,
            -0.004602687433362007,
            -0.09944309294223785,
            -0.13233691453933716,
            0.1526777446269989,
            -0.02966258116066456,
            0.10831142216920853,
            -0.20798121392726898,
            0.06192205846309662,
            -0.12806439399719238,
            0.1707308441400528,
            0.0917951762676239,
            -0.09583017230033875,
            -0.00918752234429121,
            -0.07485857605934143,
            0.05007569119334221,
            0.017887424677610397,
            -0.023012887686491013,
            0.020847296342253685,
            0.03491298854351044,
            -0.021031241863965988,
            -0.045336805284023285,
            -0.025099128484725952,
            0.263542115688324,
            0.10642340034246445,
            -0.18340639770030975,
            -0.015036692842841148,
            0.23635520040988922,
            0.04098695144057274,
            -0.15081052482128143,
            0.112394779920578,
            -0.03422144427895546,
            -0.052761223167181015,
            -0.0001508460263721645,
            0.2723623812198639,
            -0.19972078502178192,
            0.25037217140197754,
            0.0525379478931427,
            0.07370681315660477,
            -0.08116110414266586,
            0.13433769345283508,
            -0.13460427522659302,
            -0.09150983393192291,
            0.158601775765419,
            -0.15431925654411316,
            0.17884546518325806,
            -0.08082272112369537,
            -0.2193169891834259,
            0.35823890566825867,
            0.14200781285762787,
            -0.0187769066542387,
            0.32158905267715454,
            0.21943914890289307,
            0.04872994124889374,
            0.09766516834497452,
            0.0010349961230531335,
            -0.11893074214458466,
            0.15585577487945557,
            0.13759499788284302,
            0.16229882836341858,
            0.023846808820962906,
            0.08408521115779877,
            -0.02524925209581852,
            0.215861514210701,
            -0.021569544449448586,
            -0.1452818065881729,
            0.2764213979244232,
            -0.13515226542949677,
            -0.12868884205818176,
            -0.24605807662010193,
            -0.18725275993347168,
            0.004858279600739479,
            0.13921692967414856,
            0.006420418620109558,
            -0.07208908349275589,
            -0.10014696419239044,
            0.05312656611204147,
            -0.18833284080028534,
            -0.073451466858387,
            -0.09416457265615463,
            0.10344800353050232,
            -0.03649849444627762,
            0.22005073726177216,
            -0.14765678346157074,
            0.18880213797092438,
            0.1150180771946907,
            -0.022262178361415863,
            -0.011997019872069359,
            0.2066122144460678,
            -0.1545408070087433,
            -0.1343895047903061,
            -0.07786861062049866,
            -0.12062656134366989,
            -0.03847531974315643,
            0.003617254551500082,
            -0.10514547675848007,
            -0.14841876924037933,
            -0.1152941957116127,
            -0.024422306567430496,
            0.05074463039636612,
            0.12818168103694916,
            -0.15618905425071716,
            -0.05343838036060333,
            0.008670216426253319,
            0.14871709048748016,
            -0.09783317893743515,
            0.010358591563999653,
            0.09099136292934418,
            0.03481856361031532,
            -0.012970957905054092,
            -0.007597507443279028,
            0.1976049244403839,
            -0.11582311987876892,
            -0.12358756363391876,
            0.08777793496847153,
            0.258055180311203,
            -0.22472305595874786,
            -0.07188041508197784,
            0.06170105189085007,
            0.08205283433198929,
            0.05641587823629379,
            0.029863493517041206,
            -0.0367651991546154,
            0.017715711146593094,
            -0.060405172407627106,
            -0.17254950106143951,
            0.08594144135713577,
            0.08464019000530243,
            -0.11653373390436172,
            0.23376117646694183,
            -0.03444044664502144,
            -0.020561009645462036,
            0.025055766105651855,
            0.045528344810009,
            -0.24543005228042603,
            0.017098618671298027,
            -0.10868256539106369,
            -0.046378444880247116,
            0.012729994021356106,
            -0.2639070451259613,
            0.10918042808771133,
            -0.10689468681812286,
            0.1032855361700058,
            -0.05453755334019661,
            -0.18948955833911896,
            0.006498529575765133,
            -0.11059632897377014,
            0.15451951324939728,
            -0.034322138875722885,
            -0.0779130682349205,
            0.06398928165435791,
            -0.3466677963733673,
            0.2270648330450058,
            0.18181303143501282,
            0.05865961313247681,
            0.3002416491508484,
            0.08635030686855316,
            -0.18689598143100739,
            0.17268335819244385,
            -0.03194154053926468,
            0.1267147958278656,
            -0.006093986332416534,
            0.16986282169818878,
            0.0512322299182415,
            0.3244399130344391,
            0.17336030304431915,
            0.04640834033489227,
            -0.09077814221382141,
            -0.11524409055709839,
            -0.025545524433255196,
            -0.10845202952623367,
            0.014506196603178978,
            -0.01316770538687706,
            0.06445743143558502,
            0.015124930068850517,
            0.09595544636249542,
            0.15069083869457245,
            0.06894873827695847,
            0.2088097184896469,
            0.020746838301420212,
            -0.3163348138332367,
            0.07362092286348343,
            -0.04691191390156746,
            0.06404373049736023,
            -0.13776902854442596,
            0.02952069789171219,
            -0.07839632779359818,
            -0.2367755025625229,
            0.02584715560078621,
            -0.05892464518547058,
            -0.1280607134103775,
            0.11269119381904602,
            0.04983239620923996,
            0.1420547068119049,
            -0.07990510016679764,
            -0.04270544648170471,
            -0.05572305619716644,
            0.031052377074956894,
            -0.15897132456302643,
            -0.05385444313287735,
            -0.025911517441272736,
            0.0026482194662094116,
            -0.09390381723642349,
            -0.1668623983860016,
            -0.13232214748859406,
            0.21045660972595215,
            -0.04468875750899315,
            0.09932540357112885,
            0.1097622960805893,
            -0.15225620567798615,
            0.010764144361019135,
            -0.07846120744943619,
            0.0681290403008461,
            -0.15478718280792236,
            -0.0295297522097826,
            -0.12015776336193085,
            0.0886654406785965,
            -0.14761050045490265,
            -0.10459591448307037,
            0.020105138421058655,
            0.15735913813114166,
            0.09732570499181747,
            0.05269639939069748,
            -0.04299302026629448,
            -0.18135246634483337,
            0.08829453587532043,
            0.09380266815423965,
            -0.2634051740169525,
            -0.02274397201836109,
            -0.02168222889304161,
            -0.19661439955234528,
            -0.10180912911891937,
            -0.0647691935300827,
            -0.11405206471681595,
            0.12981629371643066,
            -0.15684448182582855,
            0.21168625354766846,
            0.06891429424285889,
            -0.20172633230686188,
            -0.2298348993062973,
            -0.009759985841810703,
            0.18572920560836792,
            0.037286944687366486,
            0.1487913876771927,
            -0.10051945596933365,
            0.0345257930457592,
            0.1365003138780594,
            -0.027439439669251442,
            -0.020647428929805756,
            0.3005666434764862,
            0.16703911125659943,
            0.18828730285167694,
            -0.07658019661903381,
            0.057159047573804855,
            -0.04533131793141365,
            -0.12743885815143585,
            -0.08082397282123566,
            -0.004348339047282934,
            0.13893045485019684,
            0.06934808194637299,
            0.23092558979988098,
            -0.004648859612643719,
            0.09429654479026794,
            0.2556247413158417,
            -0.20307518541812897,
            -0.03476547449827194,
            0.09284012019634247,
            0.19240880012512207,
            -0.13802528381347656,
            -0.08364909142255783,
            0.07615619897842407,
            -0.11378321051597595,
            0.006289329379796982,
            0.0663420706987381,
            0.07286359369754791,
            0.049986936151981354,
            -0.2463814914226532,
            -0.21517765522003174,
            0.16268403828144073,
            -0.11660243570804596,
            0.1549433022737503,
            -0.09892378002405167,
            -0.11887913942337036,
            -0.0030587634537369013,
            0.15750379860401154,
            -0.045938316732645035,
            0.19346237182617188,
            -0.02501087449491024,
            0.05131171643733978,
            -0.12665370106697083,
            -0.03124186210334301,
            0.15126626193523407,
            0.004164392128586769,
            -0.0035360746551305056,
            0.208229660987854,
            -0.030674129724502563,
            -0.060492224991321564,
            0.22418151795864105,
            0.1320286989212036,
            0.4122527837753296,
            -0.07270415872335434,
            -0.06699911504983902,
            0.009957723319530487,
            0.14823466539382935,
            -0.0014366972027346492,
            0.0530380979180336,
            0.05745012313127518,
            -0.042225077748298645,
            -0.13284574449062347,
            0.12386906892061234,
            0.034534770995378494,
            -0.19601038098335266,
            0.11672608554363251,
            -0.011264930479228497,
            0.10402984917163849,
            0.10909224301576614,
            -0.027798810973763466,
            0.109514519572258,
            0.21032212674617767,
            -0.03790939599275589,
            -0.0766606256365776,
            0.1416022777557373,
            0.19428855180740356,
            0.00662072841078043,
            -0.03664439544081688,
            -0.018958579748868942,
            0.06788669526576996,
            -0.022662052884697914,
            0.12511369585990906,
            -0.042976606637239456,
            0.06634505838155746,
            -0.061883993446826935,
            0.28646349906921387,
            0.12086927145719528,
            0.11859455704689026,
            -0.24484020471572876,
            -0.10662151128053665,
            0.08787057548761368,
            0.11071173846721649,
            0.09485173970460892,
            0.027044249698519707,
            -0.029170246794819832,
            0.003098368179053068,
            -0.25689828395843506,
            0.06815297156572342,
            0.13552449643611908,
            -0.11999425292015076,
            0.08766204863786697,
            0.06010923907160759,
            0.2794420123100281,
            0.10504494607448578,
            0.14158524572849274,
            0.08798954635858536,
            0.0683799609541893,
            0.0634346529841423,
            0.0034542949870228767,
            0.206617072224617,
            -0.1270894855260849,
            -0.06785877048969269,
            0.2531665861606598,
            0.16521424055099487,
            -0.1325317919254303,
            0.06933750212192535,
            0.11721940338611603,
            -0.23597955703735352,
            0.037714410573244095,
            -0.03610389307141304,
            0.002511646132916212,
            -0.14025291800498962,
            0.24023796617984772,
            0.03485780581831932,
            0.2038884162902832,
            0.281920462846756,
            -0.11069077998399734,
            -0.2840706706047058,
            -0.23054392635822296,
            -0.2223168909549713,
            0.053827665746212006,
            -0.20871351659297943,
            0.16615904867649078,
            0.13354305922985077,
            -0.003236672142520547,
            0.10287284106016159,
            -0.3676539361476898,
            0.07464586198329926,
            -0.13658668100833893,
            0.2586185336112976,
            0.2990800440311432,
            0.11413238942623138,
            -0.09690403193235397,
            -0.16788475215435028,
            0.029556620866060257,
            -0.023442260921001434,
            -0.011473312973976135,
            -0.23984505236148834,
            0.0053589786402881145,
            -0.28513434529304504,
            0.06083734333515167,
            -0.17057695984840393,
            0.06649390608072281,
            -0.0864042192697525,
            0.13787390291690826,
            -0.017167042940855026,
            0.12282667309045792,
            0.20600557327270508,
            -0.22737754881381989,
            -0.17025500535964966,
            0.16699084639549255,
            0.20080946385860443,
            -0.03533517196774483,
            -0.34840816259384155,
            0.12657198309898376,
            -0.052172545343637466,
            -0.14168888330459595,
            -0.20109853148460388,
            -0.005551125854253769,
            0.12545813620090485,
            0.29847458004951477,
            -0.09484066814184189,
            -0.036900538951158524,
            0.3217962086200714,
            -0.006647186353802681,
            0.1253395825624466,
            -0.07207123935222626,
            -0.00798166636377573,
            0.023760715499520302,
            0.19498668611049652,
            -0.09155546128749847,
            0.12373132258653641,
            0.26928141713142395,
            -0.10039682686328888,
            -0.13317233324050903,
            0.1618025153875351,
            0.021192288026213646,
            -0.08021959662437439,
            0.017834939062595367,
            0.1281908005475998,
            0.060804255306720734,
            0.16944022476673126,
            -0.14586035907268524,
            -0.02747284062206745,
            0.22499965131282806,
            0.20767416059970856,
            0.05923382192850113,
            -0.09554044902324677,
            0.023209605365991592,
            0.07750221341848373,
            0.0021341578103601933,
            -0.1730576902627945,
            -0.02893800660967827,
            -0.03912791982293129,
            -0.01173608098179102,
            -0.16730675101280212,
            -0.19073231518268585,
            0.023234589025378227,
            0.05694446712732315,
            0.06161335110664368,
            -0.1215062066912651,
            0.0885573998093605,
            -0.0725162923336029,
            -0.07351097464561462,
            0.27015867829322815,
            0.06879719346761703,
            0.10019952803850174,
            -0.10020308196544647,
            0.09091094881296158,
            -0.02785807102918625,
            -0.03340195491909981,
            0.22497344017028809,
            0.004218839108943939,
            0.05748391151428223,
            0.1822081208229065,
            0.07458781450986862,
            -0.04065395146608353,
            -0.1641213744878769,
            0.178829163312912,
            0.23457053303718567,
            -0.013291707262396812,
            0.1880660206079483,
            -0.10914666950702667,
            -0.07650966197252274,
            -0.16190993785858154,
            -0.022001389414072037,
            0.114590585231781,
            -0.018633626401424408,
            -0.24671286344528198,
            -0.12410702556371689,
            -0.050142496824264526,
            0.15984003245830536,
            0.04654326289892197,
            0.2750604450702667,
            0.08101603388786316,
            -0.08435029536485672,
            -0.06909903883934021,
            0.05613440275192261,
            -0.03755170851945877,
            -0.06712565571069717,
            -0.0898444801568985,
            -0.12623707950115204,
            -0.05770276114344597,
            -0.08244912326335907,
            -0.02610813081264496,
            -0.15857765078544617,
            0.10430152714252472,
            -0.04344949871301651,
            0.2552846670150757,
            0.08968400955200195,
            0.13354597985744476,
            0.29364287853240967,
            0.07534701377153397,
            0.025726107880473137,
            0.013519939966499805,
            -0.2665030062198639,
            0.1626693457365036,
            -0.2966638505458832,
            -0.08379567414522171,
            0.05536571517586708,
            -0.09742570668458939,
            0.030448969453573227,
            -0.08356644958257675,
            0.23801013827323914,
            -0.08304030448198318,
            0.12039975821971893,
            -0.07244578748941422,
            -0.0586763434112072,
            -0.03886664658784866,
            -0.009781346656382084,
            -0.06863611936569214,
            -0.0961565300822258,
            -0.08153268694877625,
            0.13769686222076416,
            -0.10420393943786621,
            0.14036792516708374,
            0.20180870592594147,
            0.05726952478289604,
            -0.07746223360300064,
            0.07139471918344498,
            -0.26016974449157715,
            -0.11717865616083145,
            0.19318455457687378,
            0.1267623007297516,
            0.0714484453201294,
            0.22670406103134155,
            0.13625508546829224,
            0.11467897891998291,
            0.03208252415060997,
            -0.10672177374362946,
            0.016918623819947243,
            0.038733117282390594,
            0.07135561108589172,
            0.046994347125291824,
            0.04668600484728813,
            -0.0059667183086276054,
            -0.13349170982837677,
            0.084318608045578,
            0.09761974215507507,
            -0.2383061945438385,
            -0.0383940264582634,
            0.13200856745243073,
            -0.02195662073791027,
            -0.04052620381116867,
            0.02301706373691559,
            -0.009373215027153492,
            -0.059326592832803726,
            0.030198540538549423,
            0.06191297993063927,
            -0.27271679043769836,
            0.11125918477773666,
            0.033414483070373535,
            0.06901893019676208,
            -0.11634444445371628,
            0.05891590192914009,
            0.13054530322551727,
            0.007222275249660015,
            0.11214490979909897,
            -0.17128080129623413,
            0.08735370635986328,
            -0.26509156823158264,
            0.05205536633729935,
            -0.025264082476496696,
            -0.14745177328586578,
            -0.08877667039632797,
            -0.08784640580415726,
            0.1269972324371338,
            -0.11005225777626038,
            0.006658695638179779,
            0.08123651891946793,
            0.07592204213142395,
            0.017852311953902245,
            0.11754361540079117,
            -0.07852505147457123,
            0.06463451683521271,
            0.12196055799722672,
            -0.1498376727104187,
            -0.04067734256386757,
            0.28001868724823,
            0.1314566433429718,
            -0.16344837844371796,
            0.08239991217851639,
            0.2467808723449707,
            -0.00040483727934770286,
            -0.17234419286251068,
            -0.017979182302951813,
            0.18566304445266724,
            0.11055636405944824,
            0.04507605731487274,
            0.16317221522331238,
            -0.35925716161727905,
            -0.19284038245677948,
            0.028232641518115997,
            0.10405988991260529,
            -0.12300080806016922,
            -0.07681066542863846,
