{
  "modelName": "left_hand_controls_sonic_drive",
  "modelType": "neural_network",
  "poseType": "hands",
  "gestureNames": [
    "left hand open",
    "left hand close",
    "left hand index"
  ],
  "labelEncoder": {
    "left hand open": 0,
    "left hand close": 1,
    "left hand index": 2
  },
  "labelDecoder": {
    "0": "left hand open",
    "1": "left hand close",
    "2": "left hand index"
  },
  "accuracy": 1,
  "trainingTime": "40.10",
  "numFeatures": 88,
  "numClasses": 3,
  "sampleCounts": {
    "left hand open": 547,
    "left hand close": 531,
    "left hand index": 583
  },
  "totalSamples": 1661,
  "timestamp": "2026-03-28T11:37:11.117Z",
  "architecture": {
    "layers": [
      128,
      64
    ],
    "dropout": [
      0.3,
      0.2
    ]
  },
  "config": {
    "epochs": 50,
    "learningRate": 0.001,
    "batchSize": 32,
    "validationSplit": 0.2
  },
  "weights": [
    {
      "name": "dense_Dense1",
      "weights": [
        {
          "shape": [
            88,
            128
          ],
          "data": [
            -0.1841278076171875,
            0.0194229893386364,
            -0.02068483456969261,
            -0.05399792268872261,
            -0.1231161430478096,
            -0.2885832190513611,
            -0.07244182378053665,
            0.25119855999946594,
            0.11132319271564484,
            0.06043710187077522,
            -0.01573898084461689,
            -0.08957192301750183,
            -0.2606421411037445,
            -0.16438338160514832,
            0.16348469257354736,
            -0.2181888222694397,
            0.0876503586769104,
            -0.23807838559150696,
            0.1448162943124771,
            -0.10993844270706177,
            -0.03386630862951279,
            -0.2356211543083191,
            0.14161521196365356,
            -0.02291896939277649,
            -0.11951575428247452,
            0.10226798057556152,
            -0.18323065340518951,
            -0.06747529655694962,
            -0.06138455122709274,
            0.18606474995613098,
            0.13042256236076355,
            0.014745291322469711,
            0.07451697438955307,
            0.035582441836595535,
            -0.2591628432273865,
            0.07966984808444977,
            0.09699801355600357,
            -0.09967469424009323,
            -0.22436799108982086,
            0.032439183443784714,
            -0.17290273308753967,
            -0.03739790990948677,
            0.0942879468202591,
            -0.05835365504026413,
            0.16611364483833313,
            -0.28755462169647217,
            0.2089809775352478,
            -0.05048007145524025,
            0.05883196368813515,
            -0.1496589630842209,
            -0.05139310285449028,
            0.24960432946681976,
            -0.05645676702260971,
            0.12645424902439117,
            -0.08746051043272018,
            -0.10853759199380875,
            -0.012191002257168293,
            -0.18377749621868134,
            0.09544236958026886,
            -0.05297885462641716,
            0.12029997259378433,
            0.030454521998763084,
            -0.12991008162498474,
            -0.024141089990735054,
            0.1588422954082489,
            0.18464623391628265,
            -0.08018030226230621,
            0.11795034259557724,
            -0.10301292687654495,
            -0.04739946126937866,
            0.07032198458909988,
            0.171101912856102,
            -0.15196534991264343,
            -0.21104128658771515,
            0.17286868393421173,
            0.1315372884273529,
            -0.233714297413826,
            0.09875505417585373,
            0.09286566078662872,
            -0.03876446560025215,
            0.19182604551315308,
            -0.07290520519018173,
            -0.27370187640190125,
            -0.08115872740745544,
            -0.19598674774169922,
            -0.009735957719385624,
            -0.07881562411785126,
            0.06920508295297623,
            0.10829468071460724,
            -0.19513516128063202,
            0.10057327151298523,
            0.062235813587903976,
            0.2414829283952713,
            0.13419340550899506,
            0.12119624018669128,
            -0.1369343101978302,
            -0.12073555588722229,
            -0.014170820824801922,
            0.1885443925857544,
            0.053013335913419724,
            0.047821566462516785,
            0.03161081299185753,
            0.08319797366857529,
            -0.20650282502174377,
            -0.23351287841796875,
            -0.03878110274672508,
            -0.07947748154401779,
            0.006439893506467342,
            -0.09578127413988113,
            -0.07550698518753052,
            0.13179507851600647,
            -0.021318623796105385,
            -0.1292877495288849,
            0.2681013345718384,
            0.20330804586410522,
            0.09759096056222916,
            0.05307893455028534,
            -0.09481783211231232,
            -0.053160689771175385,
            0.06099464371800423,
            0.10551540553569794,
            -0.07182054221630096,
            -0.15652647614479065,
            0.05845623463392258,
            0.047998979687690735,
            0.03127143532037735,
            0.18960453569889069,
            -0.18143218755722046,
            -0.061442919075489044,
            0.26688867807388306,
            -0.01270931027829647,
            -0.07251692563295364,
            -0.1108333095908165,
            0.20640793442726135,
            0.10600480437278748,
            -0.06257270276546478,
            0.05038296431303024,
            -0.11957837641239166,
            -0.15471409261226654,
            0.04772935062646866,
            -0.010750515386462212,
            -0.05937090888619423,
            0.0034936098381876945,
            -0.03858973830938339,
            -0.03352374956011772,
            0.14083518087863922,
            -0.08829281479120255,
            0.053544383496046066,
            0.18490193784236908,
            -0.07345754653215408,
            -0.02560313232243061,
            0.11298035085201263,
            -0.07412488013505936,
            0.1833248883485794,
            0.0696282833814621,
            0.04935600608587265,
            0.13028180599212646,
            -0.15381094813346863,
            0.05517955496907234,
            0.1470976620912552,
            -0.011832469142973423,
            -0.06472264975309372,
            -0.10271092504262924,
            -0.028959207236766815,
            0.03407857194542885,
            -0.1885630190372467,
            0.031923484057188034,
            0.2573697566986084,
            0.16539576649665833,
            -0.1989205926656723,
            0.129769966006279,
            -0.16879796981811523,
            0.05600190907716751,
            0.07066777348518372,
            0.021047627553343773,
            0.1552472561597824,
            0.10394396632909775,
            -0.10826282203197479,
            -0.09981406480073929,
            -0.22925350069999695,
            0.27455151081085205,
            0.1260307878255844,
            0.16993293166160583,
            0.13193172216415405,
            -0.05294389650225639,
            0.1909511834383011,
            -0.0604722760617733,
            -0.22125835716724396,
            0.015103942714631557,
            0.01237113494426012,
            -0.12329702824354172,
            0.005137164611369371,
            0.05706287920475006,
            -0.2789730131626129,
            0.07401533424854279,
            -0.21312034130096436,
            -0.1276428997516632,
            0.17044925689697266,
            0.012611493468284607,
            0.07156860083341599,
            -0.09263734519481659,
            -0.08977567404508591,
            -0.0497196689248085,
            -0.18138104677200317,
            0.021408043801784515,
            -0.05460992455482483,
            0.2070283591747284,
            -0.07496467977762222,
            -0.10423538088798523,
            -0.038798436522483826,
            -0.12368614226579666,
            0.23469297587871552,
            0.12787321209907532,
            -0.05908229202032089,
            -0.06512174010276794,
            0.2148580551147461,
            -0.02369922585785389,
            -0.030572818592190742,
            -0.16613852977752686,
            -0.2512536346912384,
            0.15125440061092377,
            -0.12860681116580963,
            0.03624750301241875,
            -0.2042451649904251,
            -0.005120602436363697,
            -0.1496669203042984,
            -0.03802961856126785,
            -0.2547864019870758,
            -0.06573636084794998,
            -0.050629258155822754,
            0.0676206424832344,
            -0.23884601891040802,
            -0.01910475827753544,
            0.2120293825864792,
            -0.19709943234920502,
            0.056461527943611145,
            -0.0920647531747818,
            -0.06201860308647156,
            -0.07442805916070938,
            -0.16819912195205688,
            -0.2457692176103592,
            -0.10085601359605789,
            -0.021590132266283035,
            0.254999041557312,
            0.08167514204978943,
            0.13169978559017181,
            -0.07699452340602875,
            0.055858153849840164,
            -0.1313844472169876,
            -0.014430703595280647,
            0.16724683344364166,
            0.04663261026144028,
            -0.03824560344219208,
            0.14266294240951538,
            -0.28511956334114075,
            0.047141775488853455,
            -0.13579526543617249,
            0.16747528314590454,
            -0.08703582733869553,
            0.010214101523160934,
            -0.2538067102432251,
            0.20440176129341125,
            0.08043467253446579,
            0.08610666543245316,
            -0.1318800151348114,
            -0.045063816010951996,
            -0.011533140204846859,
            -0.08248057216405869,
            -0.05024657025933266,
            0.1292075365781784,
            0.10172954946756363,
            0.07844917476177216,
            0.020118489861488342,
            0.16388985514640808,
            -0.15036419034004211,
            0.046661797910928726,
            0.00141581567004323,
            -0.08520937711000443,
            -0.04461589455604553,
            0.12376943975687027,
            0.1365901678800583,
            0.20388995110988617,
            0.01509762927889824,
            0.16124795377254486,
            -0.11324145644903183,
            0.00530010461807251,
            -0.10361825674772263,
            0.07329076528549194,
            -0.15969160199165344,
            -0.054525990039110184,
            0.1761232316493988,
            0.044745929539203644,
            -0.021758699789643288,
            -0.11329282075166702,
            -0.10500271618366241,
            0.24179930984973907,
            0.03589091822504997,
            0.01804683730006218,
            0.024122240021824837,
            0.10128235071897507,
            -0.2081320583820343,
            0.014207016676664352,
            -0.007783455774188042,
            -0.06830970197916031,
            -0.007844476029276848,
            0.18206565082073212,
            -0.21716272830963135,
            -0.11795516312122345,
            0.08511141687631607,
            0.1737070530653,
            0.04443515092134476,
            -0.001924320706166327,
            -0.0844900831580162,
            0.28466132283210754,
            0.23887991905212402,
            0.15901677310466766,
            0.0008819128852337599,
            0.07492560893297195,
            -0.061106398701667786,
            -0.06886067241430283,
            -0.001957907807081938,
            -0.13095606863498688,
            -0.16576948761940002,
            0.09828904271125793,
            0.028204206377267838,
            0.10134465247392654,
            -0.296476811170578,
            0.08085115998983383,
            -0.20872646570205688,
            -0.18421506881713867,
            0.26410534977912903,
            -0.20147353410720825,
            0.0242985300719738,
            0.11248284578323364,
            0.16787834465503693,
            -0.02743365243077278,
            0.016226183623075485,
            -0.033127717673778534,
            -0.07803254574537277,
            0.027376173064112663,
            -0.04210073500871658,
            0.19031421840190887,
            -0.04855978488922119,
            0.011836535297334194,
            -0.0751446783542633,
            -0.22237487137317657,
            -0.21238011121749878,
            0.08894996345043182,
            0.184154212474823,
            0.14270295202732086,
            0.02956853061914444,
            -0.15275560319423676,
            -0.18393760919570923,
            0.03139587119221687,
            -0.05131411924958229,
            0.049026552587747574,
            0.015671787783503532,
            0.20117560029029846,
            0.03595361486077309,
            -0.09916578978300095,
            0.15102146565914154,
            0.12603077292442322,
            0.21427994966506958,
            0.08558576554059982,
            0.13787411153316498,
            0.1013338714838028,
            -0.044358331710100174,
            0.04840794950723648,
            0.01783215068280697,
            -0.022030329331755638,
            0.035930465906858444,
            0.27867013216018677,
            0.15346206724643707,
            -0.2195429503917694,
            -0.0584845133125782,
            -0.11275186389684677,
            -0.08013784885406494,
            -0.09740734845399857,
            -0.039028991013765335,
            -0.20116209983825684,
            0.03524624556303024,
            0.17753443121910095,
            0.203594371676445,
            0.06509271264076233,
            -0.002533385530114174,
            -0.04127711057662964,
            -0.19534210860729218,
            -0.0938551053404808,
            0.21804264187812805,
            0.01848968304693699,
            0.015378080308437347,
            -0.08072878420352936,
            -0.04594767093658447,
            -0.13475225865840912,
            0.15654483437538147,
            0.03555028885602951,
            0.19554707407951355,
            -0.25509583950042725,
            -0.0863703191280365,
            0.026615606620907784,
            -0.13055425882339478,
            -0.16331182420253754,
            -0.09952237457036972,
            -0.02064942754805088,
            -0.07247310131788254,
            -0.3163619041442871,
            0.056806135922670364,
            -0.09541226178407669,
            0.2703521251678467,
            0.11064132302999496,
            -0.1339176595211029,
            -0.04286222532391548,
            -0.13379891216754913,
            -0.011234099045395851,
            -0.23355866968631744,
            0.20223964750766754,
            0.05152091383934021,
            -0.05295472964644432,
            0.028260665014386177,
            0.021239208057522774,
            -0.21989330649375916,
            -0.17543673515319824,
            0.11646689474582672,
            -0.24994993209838867,
            0.023872211575508118,
            -0.06826266646385193,
            0.04523670673370361,
            0.06607645004987717,
            0.143433079123497,
            0.15621648728847504,
            -0.0956699401140213,
            -0.2367333620786667,
            0.11654695868492126,
            -0.10161726921796799,
            0.28749752044677734,
            -0.13157305121421814,
            -0.1749173104763031,
            -0.011009483598172665,
            0.14306345582008362,
            0.07414482533931732,
            -0.1820884346961975,
            0.012864244170486927,
            -0.1862904131412506,
            -0.2318982034921646,
            -0.2307928204536438,
            -0.038377273827791214,
            -0.14369606971740723,
            0.15641964972019196,
            0.03641388565301895,
            -0.0381191186606884,
            0.2785104215145111,
            -0.21358557045459747,
            0.1543285995721817,
            -0.062057722359895706,
            0.09885531663894653,
            0.10112087428569794,
            0.09936704486608505,
            -0.08735092729330063,
            0.009690677747130394,
            -0.10564173758029938,
            0.023608390241861343,
            -0.018096914514899254,
            0.1871185600757599,
            -0.0434977151453495,
            -0.03534667193889618,
            0.0712912455201149,
            -0.03794233500957489,
            -0.08754583448171616,
            0.24507826566696167,
            -0.20738382637500763,
            -0.1529257446527481,
            0.031516533344984055,
            0.039811715483665466,
            0.24175241589546204,
            0.12645357847213745,
            -0.037736646831035614,
            0.10396779328584671,
            -0.036286793649196625,
            -0.08393657952547073,
            -0.004656169563531876,
            0.25367575883865356,
            -0.1503956913948059,
            0.07255306839942932,
            -0.09439050406217575,
            -0.06213359162211418,
            -0.08579623699188232,
            -0.014518387615680695,
            0.139191135764122,
            0.17751355469226837,
            0.08079642057418823,
            -0.11141934990882874,
            -0.1510094702243805,
            0.015214390121400356,
            0.14143243432044983,
            0.09239337593317032,
            -0.11618833243846893,
            -0.03325092792510986,
            0.10976231843233109,
            -0.028551530092954636,
            -0.07140146940946579,
            0.205159530043602,
            -0.14476874470710754,
            -0.0017380027566105127,
            -0.19449648261070251,
            -0.10963636636734009,
            -0.07835710048675537,
            0.16037532687187195,
            -0.07819714397192001,
            0.1342679113149643,
            -0.08974388241767883,
            -0.04976452887058258,
            0.07667074352502823,
            -0.04811841621994972,
            -0.10742639005184174,
            -0.018689099699258804,
            0.22276301681995392,
            -0.17904327809810638,
            0.015009831637144089,
            0.10019373148679733,
            -0.0824006050825119,
            -0.1643647998571396,
            -0.09383923560380936,
            -0.1407754123210907,
            -0.23524270951747894,
            0.03445180132985115,
            0.06477629393339157,
            0.02350599877536297,
            0.006054303143173456,
            -0.027468472719192505,
            0.08800777792930603,
            0.26380103826522827,
            0.17340220510959625,
            -0.2104414701461792,
            0.08066302537918091,
            0.21270093321800232,
            -0.2044575959444046,
            0.13981002569198608,
            -0.2889695167541504,
            0.04359187185764313,
            0.15922200679779053,
            -0.12231810390949249,
            0.03858840838074684,
            -0.006852458696812391,
            0.11858163774013519,
            -0.04705856740474701,
            -0.10537343472242355,
            0.07415816932916641,
            0.05831223353743553,
            -0.13712522387504578,
            0.2793736755847931,
            -0.07140986621379852,
            -0.11689604073762894,
            0.04479842260479927,
            0.06775021553039551,
            0.0865054577589035,
            0.016695307567715645,
            0.07734574377536774,
            0.15497660636901855,
            0.14218024909496307,
            -0.14877179265022278,
            0.291457861661911,
            0.029366500675678253,
            -0.25468364357948303,
            -0.0456114299595356,
            -0.13906490802764893,
            0.15525422990322113,
            -0.08520444482564926,
            0.03793305531144142,
            0.07979586720466614,
            -0.10811932384967804,
            0.08007031679153442,
            0.3006305992603302,
            0.10285453498363495,
            -0.039831746369600296,
            0.13283680379390717,
            0.14880986511707306,
            0.13148576021194458,
            -0.1280549019575119,
            0.09557170420885086,
            -0.1703856885433197,
            0.05705852806568146,
            0.16709871590137482,
            0.16104693710803986,
            -0.031068647280335426,
            0.06989375501871109,
            0.016876695677638054,
            -0.025649365037679672,
            -0.011041124351322651,
            -0.0652909129858017,
            0.06944012641906738,
            0.13722728192806244,
            -0.2690131664276123,
            -0.055359456688165665,
            0.057543978095054626,
            0.0235372856259346,
            0.14463692903518677,
            0.17250174283981323,
            0.02499762736260891,
            -0.028685061261057854,
            -0.03145455941557884,
            0.17825710773468018,
            -0.018107706680893898,
            -0.07939363270998001,
            -0.25271573662757874,
            -0.03881062939763069,
            -0.18461181223392487,
            0.25858479738235474,
            -0.012251107022166252,
            -0.09652521461248398,
            0.19526512920856476,
            0.2696843445301056,
            0.17173518240451813,
            0.012593632563948631,
            0.14847509562969208,
            -0.09044528007507324,
            -0.13739238679409027,
            -0.14208802580833435,
            0.020619569346308708,
            -0.08111235499382019,
            0.07659479975700378,
            0.06622369587421417,
            0.18390017747879028,
            0.172838494181633,
            -0.11141658574342728,
            0.01353993359953165,
            -0.11545097082853317,
            0.15103068947792053,
            -0.12714210152626038,
            0.1955290138721466,
            -0.20741942524909973,
            0.18744173645973206,
            0.1770874261856079,
            -0.16549597680568695,
            -0.10845090448856354,
            -0.03542507067322731,
            -0.20074819028377533,
            0.14569012820720673,
            0.064534030854702,
            0.0837130919098854,
            0.08728978037834167,
            0.05896542966365814,
            -0.2660142779350281,
            0.09139353781938553,
            -0.3091922402381897,
            0.23195616900920868,
            0.01886901631951332,
            -0.03749175742268562,
            0.02856576070189476,
            0.017150482162833214,
            -0.146293044090271,
            -0.06341355293989182,
            -0.13616082072257996,
            0.016917400062084198,
            -0.0550471693277359,
            0.06328380107879639,
            -0.1283825933933258,
            -0.1061200499534607,
            0.0028494358994066715,
            0.008837432600557804,
            -0.010126556269824505,
            -0.13885819911956787,
            0.08839482814073563,
            0.009869963862001896,
            -0.05124570056796074,
            0.06495679914951324,
            0.23255114257335663,
            -0.047949351370334625,
            0.06209752336144447,
            -0.005432736128568649,
            -0.22021876275539398,
            0.06488962471485138,
            0.07502710819244385,
            -0.17947205901145935,
            0.025222912430763245,
            -0.12261906266212463,
            0.20891974866390228,
            -0.08622869849205017,
            -0.0945594310760498,
            -0.07563331723213196,
            0.12175258994102478,
            -0.15416432917118073,
            -0.05355038121342659,
            0.029824228957295418,
            -0.07808462530374527,
            0.20200702548027039,
            -0.09208179265260696,
            -0.010208950378000736,
            0.19572900235652924,
            0.06098712608218193,
            0.024211367592215538,
            0.08981610834598541,
            -0.16007252037525177,
            0.0372748002409935,
            0.05491052567958832,
            -0.031151875853538513,
            -0.02661401405930519,
            -0.14534799754619598,
            -0.06459224224090576,
            0.1395128071308136,
            -0.07811683416366577,
            -0.1315138190984726,
            0.29305362701416016,
            0.03923225775361061,
            -0.027704697102308273,
            0.11103195697069168,
            -0.1105683371424675,
            0.05718957260251045,
            0.2395753562450409,
            -0.22398141026496887,
            -0.10557060688734055,
            0.13204464316368103,
            -0.09888843446969986,
            -0.14808957278728485,
            0.025244928896427155,
            0.24278971552848816,
            -0.09803260862827301,
            -0.10157542675733566,
            0.21064957976341248,
            -0.1257602572441101,
            -0.24978788197040558,
            0.28823167085647583,
            -0.0801309123635292,
            -0.17965641617774963,
            -0.04022189974784851,
            0.18672548234462738,
            -0.19781503081321716,
            0.09374631941318512,
            -0.09247244894504547,
            0.15387405455112457,
            -0.2816654443740845,
            -0.22388100624084473,
            -0.06974636763334274,
            0.12355345487594604,
            -0.0060937292873859406,
            0.11250379681587219,
            0.01203839760273695,
            -0.2229243814945221,
            0.14785435795783997,
            -0.17677035927772522,
            -0.02410362847149372,
            0.20398929715156555,
            -0.2933838367462158,
            0.1805793046951294,
            0.2653054893016815,
            0.2772139608860016,
            0.16574817895889282,
            -0.007479242514818907,
            0.1103130578994751,
            -0.09400508552789688,
            -0.12380991131067276,
            0.1009838804602623,
            -0.1585557460784912,
            0.2246386855840683,
            0.1549616903066635,
            -0.0417640320956707,
            -0.15799906849861145,
            -0.010156244970858097,
            -0.14305944740772247,
            -0.0009445793693885207,
            0.07818056643009186,
            -0.07675214856863022,
            0.014419162645936012,
            0.13351231813430786,
            0.07164686918258667,
            0.13853564858436584,
            0.17349645495414734,
            0.019385874271392822,
            0.14018410444259644,
            0.2298031598329544,
            0.04642340913414955,
            0.011922843754291534,
            0.17623187601566315,
            0.13978900015354156,
            0.10180932283401489,
            0.03741355985403061,
            -0.132008358836174,
            0.25134220719337463,
            -0.03756154701113701,
            0.04675288498401642,
            -0.21054047346115112,
            0.29091495275497437,
            -0.12389647215604782,
            -0.14531417191028595,
            0.1365061104297638,
            -0.11399238556623459,
            -0.08663403242826462,
            -0.06505829840898514,
            0.27953898906707764,
            0.177057683467865,
            -0.09330593794584274,
            0.044842276722192764,
            -0.18233425915241241,
            -0.033780504018068314,
            0.0761193037033081,
            -0.06152453273534775,
            -0.2251245677471161,
            -0.11332742124795914,
            -0.013412488624453545,
            -0.13190171122550964,
            0.04201144352555275,
            0.11206010729074478,
            0.053498681634664536,
            0.12020502239465714,
            0.04733005538582802,
            -0.15327188372612,
            -0.2015528380870819,
            -0.11111844331026077,
            -0.030255774036049843,
            0.25924617052078247,
            -0.1923622041940689,
            0.1771358996629715,
            0.08592585474252701,
            0.22637610137462616,
            0.08096420764923096,
            -0.19275975227355957,
            -0.1641084849834442,
            -0.2774442732334137,
            -0.08496761322021484,
            0.020429780706763268,
            0.05216119810938835,
            -0.12845252454280853,
            0.11785279214382172,
            -0.2135000228881836,
            -0.17741098999977112,
            -0.1991395503282547,
            -0.01862461492419243,
            0.02516152895987034,
            0.13397511839866638,
            0.16545988619327545,
            -0.17572958767414093,
            0.14722199738025665,
            0.17266322672367096,
            -0.22503891587257385,
            -0.11846117675304413,
            0.0468507818877697,
            -0.03216201812028885,
            0.026627758517861366,
            0.1960127204656601,
            -0.03587573766708374,
            -0.01829828880727291,
            0.1478559523820877,
            -0.02984463796019554,
            0.12054441124200821,
            0.13553506135940552,
            0.09227903187274933,
            0.27441081404685974,
            0.19928421080112457,
            0.12193075567483902,
            -0.15174320340156555,
            -0.12989793717861176,
            -0.017156947404146194,
            0.1737256646156311,
            -0.026217050850391388,
            -0.023785756900906563,
            -0.27212467789649963,
            -0.16735178232192993,
            -0.10574217140674591,
            -0.152625173330307,
            0.18234433233737946,
            -0.12262563407421112,
            0.2017425000667572,
            -0.08330058306455612,
            0.23534689843654633,
            0.03393835201859474,
            0.02578294649720192,
            -0.0881301760673523,
            0.033397458493709564,
            -0.07963789999485016,
            -0.023593561723828316,
            -0.2999311089515686,
            0.1370273232460022,
            0.06479743868112564,
            -0.2255316823720932,
            -0.038058988749980927,
            0.015042489394545555,
            0.12520171701908112,
            -0.07434649765491486,
            0.025439627468585968,
            0.005027673207223415,
            0.15509405732154846,
            -0.0407925620675087,
            0.19314363598823547,
            0.08009235560894012,
            -0.17769412696361542,
            -0.03911522030830383,
            -0.054403647780418396,
            0.01216126699000597,
            -0.2362651377916336,
            -0.0385359488427639,
            0.059221673756837845,
            0.08851286768913269,
            -0.07650485634803772,
            -0.061964064836502075,
            -0.009085583500564098,
            0.0685107633471489,
            -0.008825436234474182,
            -0.057213157415390015,
            0.20375439524650574,
            -0.0637226477265358,
            -0.05317913740873337,
            0.03369385376572609,
            -0.19484679400920868,
            -0.009010293520987034,
            0.038411568850278854,
            0.08188683539628983,
            -0.01659221015870571,
            0.025520101189613342,
            0.18406936526298523,
            0.15766003727912903,
            0.2267063558101654,
            -0.03261126950383186,
            -0.1261131316423416,
            -0.19085486233234406,
            -0.21736939251422882,
            -0.10414502024650574,
            0.13676756620407104,
            0.03426510468125343,
            -0.0012979854363948107,
            0.2598656713962555,
            0.032761335372924805,
            0.016899365931749344,
            0.2525024712085724,
            0.12301206588745117,
            0.21406081318855286,
            -0.18121472001075745,
            0.16723540425300598,
            0.09772902727127075,
            0.02536560781300068,
            -0.0757451131939888,
            -0.23194682598114014,
            0.00965795386582613,
            -0.12209270894527435,
            -0.125845804810524,
            -0.051354363560676575,
            0.0034805943723767996,
            -0.074221171438694,
            -0.17994165420532227,
            -0.13428299129009247,
            -0.01989869214594364,
            -0.09763931483030319,
            -0.03688044100999832,
            0.0356474295258522,
            -0.02194337174296379,
            -0.027866201475262642,
            -0.09635907411575317,
            -0.07342412322759628,
            0.05194200202822685,
            0.13677728176116943,
            0.03456491976976395,
            0.17300084233283997,
            0.1986185759305954,
            -0.19799083471298218,
            -0.1385599970817566,
            -0.00016849579697009176,
            0.16150766611099243,
            -0.03616806119680405,
            -0.11452982574701309,
            -0.009137404151260853,
            0.009827663190662861,
            -0.27306196093559265,
            -0.05577981099486351,
            -0.054338086396455765,
            0.03517290577292442,
            -0.03651750087738037,
            -0.027839243412017822,
            0.14185470342636108,
            -0.09072376042604446,
            0.16612045466899872,
            -0.0523354709148407,
            -0.10429402440786362,
            0.11774694919586182,
            0.10455413162708282,
            -0.0032665051985532045,
            -0.09908531606197357,
            -0.18707343935966492,
            0.029409952461719513,
            0.11451766639947891,
            -0.01678372547030449,
            -0.1428302526473999,
            -0.02138369530439377,
            0.008524846285581589,
            0.10495994985103607,
            0.006946392357349396,
            -0.10634694993495941,
            -0.06445498764514923,
            0.05651577189564705,
            -0.18181803822517395,
            0.07577595859766006,
            0.2781530022621155,
            0.01065271720290184,
            -0.19435599446296692,
            -0.2137899547815323,
            0.2785147726535797,
            -0.004890499170869589,
            0.14345881342887878,
            -0.03694137930870056,
            0.09457235783338547,
            -0.11168159544467926,
            0.0359790176153183,
            0.1188158318400383,
            0.032480284571647644,
            0.029215587303042412,
            -0.08899829536676407,
            -0.13819605112075806,
            -0.12398084253072739,
            0.17978161573410034,
            -0.04272282123565674,
            0.06330451369285583,
            0.12202664464712143,
            0.12510253489017487,
            -0.10903461277484894,
            0.060366738587617874,
            -0.007238910999149084,
            0.016019590198993683,
            -0.0018762422259896994,
            0.19776684045791626,
            0.07063844054937363,
            0.0799974650144577,
            -0.2044636309146881,
            -0.03181544318795204,
            -0.16125096380710602,
            -0.05393683537840843,
            0.1508566290140152,
            0.1517702043056488,
            0.09607281535863876,
            0.024556351825594902,
            -0.06621132791042328,
            -0.0969703197479248,
            0.22303229570388794,
            -0.17167878150939941,
            0.12308282405138016,
            -0.14615672826766968,
            0.15053728222846985,
            0.14137667417526245,
            -0.021457841619849205,
            -0.03789285570383072,
            0.11861618608236313,
            0.060677316039800644,
            -0.12535454332828522,
            -0.058410219848155975,
            -0.19587889313697815,
            -0.07936107367277145,
            0.050424233078956604,
            -0.02090173214673996,
            -0.010019760578870773,
            0.053044676780700684,
            0.020728355273604393,
            0.13807830214500427,
            0.04308618605136871,
            -0.1256813406944275,
            0.1754838228225708,
            -0.06908730417490005,
            -0.013888872228562832,
            0.048403263092041016,
            0.1560252606868744,
            0.06292019039392471,
            0.2304617166519165,
            0.11137019842863083,
            -0.023622503504157066,
            -0.0993916243314743,
            0.0229706559330225,
            -0.10460565984249115,
            -0.1540832221508026,
            0.19142727553844452,
            0.08651815354824066,
            0.01472292747348547,
            -0.005064633209258318,
            0.02239430509507656,
            -0.31154805421829224,
            0.07898865640163422,
            0.0002712860004976392,
            -0.02156345546245575,
            0.06943325698375702,
            -0.024661926552653313,
            0.24327267706394196,
            -0.03408773988485336,
            0.18335247039794922,
            -0.08348194509744644,
            -0.0013875731965526938,
            0.06654342263936996,
            -0.04869716987013817,
            -0.034775808453559875,
            0.06410183012485504,
            0.0031160784419625998,
            0.18376801908016205,
            0.0562872476875782,
            -0.07834915816783905,
            0.0025198853109031916,
            0.1322956085205078,
            -0.019291535019874573,
            0.021668942645192146,
            -0.1653563380241394,
            -0.03610672801733017,
            0.08466816693544388,
            -0.06698669493198395,
            -0.19120892882347107,
            -0.21957434713840485,
            -0.2620041072368622,
            -0.09228502213954926,
            0.0519074946641922,
            -0.047831952571868896,
            -0.17464853823184967,
            0.10359427332878113,
            0.015629010275006294,
            0.001325298915617168,
            0.1925269514322281,
            -0.0834539458155632,
            0.016647497192025185,
            0.1488105058670044,
            0.15941832959651947,
            0.03162067383527756,
            -0.02167249470949173,
            -0.18331211805343628,
            0.12571553885936737,
            0.011031805537641048,
            0.028241325169801712,
            0.12821854650974274,
            -0.18495339155197144,
            -0.13927583396434784,
            -0.2581852674484253,
            -0.0415147989988327,
            -0.027842916548252106,
            -0.3037964701652527,
            -0.23290866613388062,
            0.023585766553878784,
            -0.10319514572620392,
            0.14289231598377228,
            0.18348802626132965,
            0.07421602308750153,
            0.27085331082344055,
            0.09184742718935013,
            0.31260913610458374,
            0.11593634635210037,
            0.17214363813400269,
            0.15201930701732635,
            -0.045172225683927536,
            -0.1347728669643402,
            -0.06528785079717636,
            -0.10732248425483704,
            -0.07600249350070953,
            -0.22548364102840424,
            0.07996759563684464,
            0.1387346237897873,
            -0.013547138310968876,
            -0.018350504338741302,
            0.029033510014414787,
            -0.008199864998459816,
            0.06076785922050476,
            -0.023403530940413475,
            -0.07299451529979706,
            0.046045932918787,
            0.05114108696579933,
            -0.1934741884469986,
            0.15055252611637115,
            0.2260105162858963,
            -0.17173634469509125,
            -0.1614636480808258,
            -0.08205364644527435,
            0.09430904686450958,
            0.12965460121631622,
            0.10400877147912979,
            0.022030958905816078,
            -0.12386732548475266,
            -0.17010219395160675,
            -0.14011509716510773,
            -0.17930440604686737,
            0.18908339738845825,
            0.12458888441324234,
            0.11437489092350006,
            -0.25012701749801636,
            -0.14075344800949097,
            -0.04495610296726227,
            0.03679375723004341,
            0.10805477946996689,
            -0.00787136610597372,
            0.007699042093008757,
            -0.056662365794181824,
            0.16023828089237213,
            -0.14744366705417633,
            -0.14711712300777435,
            -0.07461337000131607,
            -0.0328277051448822,
            -0.075822614133358,
            0.14427363872528076,
            0.21675324440002441,
            0.27195796370506287,
            -0.09180451929569244,
            -0.0047205532900989056,
            0.250653475522995,
            -0.02454661764204502,
            -0.23532837629318237,
            -0.13977950811386108,
            0.028240639716386795,
            -0.1754114031791687,
            0.1013808473944664,
            -0.0054338909685611725,
            0.09521255642175674,
            0.12717436254024506,
            -0.17021408677101135,
            -0.20426534116268158,
            0.018870975822210312,
            0.05930107831954956,
            0.09312532842159271,
            -0.25744447112083435,
            -0.04607056453824043,
            0.05605974793434143,
            0.039884377270936966,
            -0.0020841483492404222,
            -0.0005700205801986158,
            0.0693054273724556,
            -0.06149640306830406,
            0.08884988725185394,
            -0.043596480041742325,
            -0.024875778704881668,
            0.05933253467082977,
            -0.022239869460463524,
            -0.0721820518374443,
            -0.06485345214605331,
            0.020209064707159996,
            -0.018345994874835014,
            -0.016515737399458885,
            0.05418398231267929,
            0.07621689140796661,
            0.2412048727273941,
            -0.12844708561897278,
            0.1380394697189331,
            0.008189764805138111,
            0.11650361120700836,
            -0.09001980721950531,
            0.05056869238615036,
            -0.13276070356369019,
            -0.06636868417263031,
            0.07157458364963531,
            -0.010909165255725384,
            -0.06173960492014885,
            -0.146094411611557,
            0.002254720078781247,
            0.022050321102142334,
            -0.05314846336841583,
            -0.1984955221414566,
            -0.07615608721971512,
            0.046285878866910934,
            -0.11883126944303513,
            0.11318647116422653,
            0.0002542052825447172,
            0.08311579376459122,
            -0.022610725834965706,
            0.17941206693649292,
            -0.12037775665521622,
            -0.25905436277389526,
            0.016704117879271507,
            -0.028911136090755463,
            0.028112908825278282,
            -0.08356892317533493,
            -0.07028990238904953,
            -0.14876379072666168,
            0.04404246434569359,
            -0.09882265329360962,
            0.1811073273420334,
            0.13354560732841492,
            -0.16889576613903046,
            -0.25525984168052673,
            0.052077192813158035,
            -0.2098120152950287,
            0.2048141360282898,
            0.16697284579277039,
            -0.07367424666881561,
            0.19996678829193115,
            0.3142918646335602,
            -0.16172213852405548,
            -0.2179723083972931,
            0.014489094726741314,
            -0.2913292348384857,
            -0.03768144175410271,
            -0.03366895020008087,
            -0.1484925001859665,
            0.029614919796586037,
            0.14146079123020172,
            0.0181431844830513,
            -0.0005436805076897144,
            -0.01782885566353798,
            -0.0007026114617474377,
            0.15252190828323364,
            -0.04512682929635048,
            0.044035766273736954,
            0.15922166407108307,
            0.17833873629570007,
            -0.03911585733294487,
            0.04172954335808754,
            -0.12315019965171814,
            -0.23076900839805603,
            0.07034168392419815,
            -0.028053827583789825,
            -0.029228584840893745,
            0.10399199277162552,
            -0.22121785581111908,
            -0.04042547196149826,
            0.04973006993532181,
            -0.09679333865642548,
            0.2832798659801483,
            0.10667441785335541,
            -0.022556930780410767,
            -0.08551692962646484,
            -0.17866526544094086,
            -0.20769037306308746,
            0.11170686036348343,
            0.08105635643005371,
            -0.11840774118900299,
            0.05441203713417053,
            0.07444252073764801,
            -0.19226330518722534,
            0.07919324189424515,
            0.21064384281635284,
            -0.24144990742206573,
            -0.13220396637916565,
            0.06602004170417786,
            0.16603273153305054,
            0.15553657710552216,
            0.06388118863105774,
            -0.11680655181407928,
            0.1337156742811203,
            -0.16127710044384003,
            0.04927845671772957,
            0.2080899029970169,
            -0.13678909838199615,
            0.06090877950191498,
            -0.11245730519294739,
            0.04175885021686554,
            -0.06731952726840973,
            -0.1617162972688675,
            0.010530177503824234,
            -0.14991386234760284,
            -0.13665416836738586,
            -0.1560060828924179,
            0.05570478364825249,
            0.06078444421291351,
            -0.1279052048921585,
            -0.2551489472389221,
            0.012602762319147587,
            -0.10288578271865845,
            -0.002383818617090583,
            0.14860066771507263,
            -0.2802363932132721,
            0.1686147302389145,
            -0.25298845767974854,
            0.04461798816919327,
            -0.02127900719642639,
            0.0736829936504364,
            -0.008759988471865654,
            -0.18102887272834778,
            0.06070220470428467,
            -0.17984426021575928,
            -0.04954762011766434,
            0.20993690192699432,
            0.09695598483085632,
            0.08261774480342865,
            -0.1358242779970169,
            -0.07603833824396133,
            -0.2176041305065155,
            0.03436359763145447,
            -0.2209005355834961,
            -0.22755761444568634,
            0.005941376555711031,
            -0.09677555412054062,
            0.03614657744765282,
            -0.032240353524684906,
            -0.23833255469799042,
            0.18611082434654236,
            0.026560157537460327,
            0.24756282567977905,
            -0.04276709258556366,
            0.047589339315891266,
            -0.015073368325829506,
            -0.18894286453723907,
            0.048670317977666855,
            0.03164849430322647,
            -0.08531946688890457,
            -0.12397760152816772,
            0.1590314358472824,
            0.03424737975001335,
            -0.22849257290363312,
            -0.1378515511751175,
            0.027684710919857025,
            -0.12267031520605087,
            -0.0379173718392849,
            -0.013489417731761932,
            -0.02542286179959774,
            0.08855658024549484,
            -0.0008393388707190752,
            -0.13122916221618652,
            -0.14540429413318634,
            -0.05361369624733925,
            0.20266513526439667,
            0.07163982838392258,
            0.06972049176692963,
            -0.06234932318329811,
            -0.04586317762732506,
            -0.05195414274930954,
            0.1264164298772812,
            -0.27203044295310974,
            0.09128686040639877,
            -0.07128211855888367,
            -0.2598513662815094,
            0.13699573278427124,
            0.14957663416862488,
            0.06826204806566238,
            0.04792763292789459,
            -0.14935635030269623,
            0.1078910082578659,
            -0.19965994358062744,
            -0.005622114986181259,
            -0.08006201684474945,
            0.12439584732055664,
            0.2256261110305786,
            -0.14520332217216492,
            0.14053238928318024,
            -0.14647912979125977,
            0.07767903059720993,
            -0.1802724152803421,
            -0.07302309572696686,
            -0.042499590665102005,
            -0.21767880022525787,
            -0.0035275821574032307,
            -0.23947930335998535,
            -0.10897046327590942,
            -0.07612407207489014,
            -0.24337884783744812,
            -0.13374222815036774,
            -0.02832404337823391,
            -0.06944755464792252,
            -0.10705260187387466,
            -0.09490815550088882,
            0.031983014196157455,
            -0.1587853729724884,
            0.11672747880220413,
            0.12205882370471954,
            -0.200077086687088,
            -0.15807993710041046,
            -0.0857410579919815,
            0.26236405968666077,
            -0.10607306659221649,
            0.1148439571261406,
            -0.011279148980975151,
            0.20081181824207306,
            0.19411641359329224,
            0.09174342453479767,
            -0.23618079721927643,
            0.10303977131843567,
            0.2153169959783554,
            0.2554556429386139,
            -0.10137864202260971,
            -0.03282805532217026,
            0.02125857025384903,
            -0.0160664189606905,
            0.09323775768280029,
            -0.06097538024187088,
            0.18980197608470917,
            0.21873457729816437,
            -0.11631625145673752,
            0.0009540697210468352,
            -0.2192135900259018,
            0.14421574771404266,
            -0.016486266627907753,
            0.0020669056102633476,
            0.11115748435258865,
            0.0924079567193985,
            0.07365414500236511,
            0.11365257948637009,
            -0.04181572422385216,
            0.033269353210926056,
            0.05362122133374214,
            0.2628996968269348,
            0.20320285856723785,
            -0.18520666658878326,
            0.05481958016753197,
            -0.11534422636032104,
            0.08470650762319565,
            0.01931574009358883,
            -0.036911237984895706,
            -0.11269592493772507,
            -0.04328291118144989,
            -0.038376450538635254,
            0.10545924305915833,
            -0.018285393714904785,
            -0.15427885949611664,
            0.22494716942310333,
            0.015601497143507004,
            -0.050273895263671875,
            -0.03518198803067207,
            -0.1706690937280655,
            0.11145246773958206,
            0.17758333683013916,
            0.028020482510328293,
            -0.050488851964473724,
            0.040662165731191635,
            -0.18524320423603058,
            0.019998824223876,
            0.203436940908432,
            0.25404486060142517,
            0.09027425944805145,
            -0.0815655067563057,
            -0.08801956474781036,
            0.06197816878557205,
            0.003604481229558587,
            -0.015999330207705498,
            -0.0665028914809227,
            -0.06595241278409958,
            0.052605293691158295,
            -0.11152192950248718,
            0.06629254668951035,
            -0.034919414669275284,
            -0.0030100385192781687,
            0.19220250844955444,
            0.34330517053604126,
            0.14724253118038177,
            0.060104794800281525,
            0.18896956741809845,
            -0.12030034512281418,
            0.042952969670295715,
            -0.09689182788133621,
            0.16451069712638855,
            0.21208663284778595,
            -0.1046241745352745,
            0.29596108198165894,
            -0.17041698098182678,
            0.17348550260066986,
            0.14858128130435944,
            0.12287383526563644,
            -0.051229774951934814,
            -0.21249768137931824,
            0.2570337653160095,
            -0.19983930885791779,
            -0.05171475559473038,
            0.052138980478048325,
            0.06195646524429321,
            0.05908719077706337,
            0.01858147606253624,
            0.3218185305595398,
            -0.08632700890302658,
            0.06291992962360382,
            0.1541835516691208,
            -0.05730341002345085,
            0.14127840101718903,
            -0.15754017233848572,
            0.08496059477329254,
            0.08711083233356476,
            -0.00815676525235176,
            0.03489350154995918,
            -0.12107160687446594,
            0.15526701509952545,
            0.0721244066953659,
            0.062138207256793976,
            0.16227412223815918,
            -0.1793380081653595,
            -0.20546303689479828,
            -0.035482700914144516,
            -0.1444942057132721,
            -0.163689985871315,
            -0.01390641275793314,
            -0.13753056526184082,
            -0.14761744439601898,
            0.12047112733125687,
            -0.03365124389529228,
            0.006909708958119154,
            0.05292969197034836,
            0.06578728556632996,
            -0.13332317769527435,
            -0.024042539298534393,
            -0.02517765574157238,
            -0.09263628721237183,
            0.059167031198740005,
            -0.29506224393844604,
            -0.0807228609919548,
            0.16309891641139984,
            0.1497383415699005,
            0.13623389601707458,
            -0.12209746241569519,
            0.07469893991947174,
            0.30444881319999695,
            0.2957736551761627,
            0.018556570634245872,
            0.05070291459560394,
            0.01163401361554861,
            -0.16043387353420258,
            -0.11087952554225922,
            0.010673449374735355,
            0.17760275304317474,
            0.13017798960208893,
            -0.06112905219197273,
            0.16131512820720673,
            -0.02132043056190014,
            0.017581256106495857,
            0.07733944058418274,
            -0.04875553399324417,
            -0.08382165431976318,
            -0.23471054434776306,
            -0.05781557038426399,
            -0.19326728582382202,
            -0.10920734703540802,
            -0.052632879465818405,
            -0.15626785159111023,
            -0.11357401311397552,
            -0.12247537821531296,
            0.12693127989768982,
            -0.0263470821082592,
            -0.17205998301506042,
            0.04774593561887741,
            0.1517048478126526,
            -0.037908393889665604,
            0.2526102364063263,
            0.17166592180728912,
            0.05094216763973236,
            -0.04687667265534401,
            0.055695902556180954,
            -0.027401980012655258,
            -0.24547453224658966,
            0.03025909885764122,
            -0.13192987442016602,
            -0.12420079857110977,
            -0.21719801425933838,
            0.09658928215503693,
            -0.009789133444428444,
            0.04232139512896538,
            0.04149866849184036,
            0.031054290011525154,
            -0.2255484163761139,
            0.1474221646785736,
            -0.10315821319818497,
            -0.20914185047149658,
            -0.11670315265655518,
            -0.07887054979801178,
            0.18977227807044983,
            -0.12936024367809296,
            0.01331696193665266,
            -0.147531658411026,
            -0.03617800027132034,
            0.16613945364952087,
            0.1122276708483696,
            -0.00636732392013073,
            -0.28122591972351074,
            -0.19111672043800354,
            0.24751032888889313,
            -0.1774594485759735,
            0.010646402835845947,
            0.041423965245485306,
            0.1945571005344391,
            -0.256015419960022,
            0.10039591044187546,
            -0.1887912154197693,
            -0.09802497923374176,
            -0.15445329248905182,
            0.1816883385181427,
            0.08611735701560974,
            -0.18473424017429352,
            0.19332610070705414,
            0.037297286093235016,
            0.22564636170864105,
            -0.18214251101016998,
            0.01738940179347992,
            -0.04799661412835121,
            0.044828031212091446,
            0.07735705375671387,
            -0.01602656953036785,
            0.007212123833596706,
            -0.13655857741832733,
            -0.1322946399450302,
            -0.06302431970834732,
            0.1776680201292038,
            0.10540399700403214,
            -0.0772518664598465,
            0.06340936571359634,
            0.04929438233375549,
            0.18738305568695068,
            -0.17918895184993744,
            -0.10097233206033707,
            -0.12110336124897003,
            0.08916626870632172,
            0.01084871031343937,
            0.18280331790447235,
            -0.050238583236932755,
            -0.15228645503520966,
            0.10011207312345505,
            -0.005140289198607206,
            0.0469081774353981,
            0.28660333156585693,
            -0.051694054156541824,
            -0.11402826011180878,
            0.10718740522861481,
            -0.012616417370736599,
            0.11970401555299759,
            0.061483193188905716,
            -0.0047089410945773125,
            -0.051462460309267044,
            -0.2114732563495636,
            0.08109555393457413,
            0.22943052649497986,
            -0.16408710181713104,
            0.24252571165561676,
            -0.08970452100038528,
            -0.1704031080007553,
            0.07261520624160767,
            -0.08557207882404327,
            0.19303180277347565,
            -0.12114489823579788,
            -0.13532480597496033,
            -0.15284445881843567,
            -0.23700381815433502,
            -0.09451129287481308,
            0.17235691845417023,
            0.09711826592683792,
            0.21126699447631836,
            -0.05040726810693741,
            -0.12852275371551514,
            -0.16475269198417664,
            -0.018703583627939224,
            0.0037013075780123472,
            -0.16928839683532715,
            0.17705464363098145,
            -0.08636415004730225,
            -0.12756434082984924,
            -0.1937256157398224,
            0.049939174205064774,
            0.04751179367303848,
            0.02719048038125038,
            -0.034277141094207764,
            -0.1923273354768753,
            -0.12566736340522766,
            0.028235621750354767,
            0.13971523940563202,
            -0.04847338795661926,
            -0.13297760486602783,
            -0.06634440273046494,
            -0.14580200612545013,
            0.18087653815746307,
            0.04859738424420357,
            0.1011696606874466,
            0.21191567182540894,
            -0.004476236179471016,
            0.22469641268253326,
            0.1055721789598465,
            -0.16083909571170807,
            -0.08726901561021805,
            -0.06060628592967987,
            0.05724545195698738,
            -0.09964284300804138,
            0.05429798364639282,
            0.21160267293453217,
            0.1073472797870636,
            -0.23497097194194794,
            -0.004908282309770584,
            0.14827391505241394,
            0.15979377925395966,
            0.1786484569311142,
            -0.166733980178833,
            0.12094887346029282,
            -0.16260507702827454,
            0.27719560265541077,
            0.00010074754391098395,
            0.09628284722566605,
            0.15446025133132935,
            0.12055571377277374,
            -0.03847245126962662,
            0.03440496325492859,
            -0.18956206738948822,
            -0.15289953351020813,
            0.20289523899555206,
            -0.09513985365629196,
            -0.05151176080107689,
            0.07192728668451309,
            0.14575329422950745,
            -0.11000335216522217,
            0.015481583774089813,
            0.24185067415237427,
            0.12309221923351288,
            -0.016145681962370872,
            -0.01838061399757862,
            0.11476825177669525,
            -0.14134863018989563,
            0.07721281051635742,
            0.11107894033193588,
            0.2023920863866806,
            -0.053570687770843506,
            0.08871205896139145,
            0.23147009313106537,
            0.17081613838672638,
            0.001331089879386127,
            -0.09703134000301361,
            0.15630893409252167,
            0.032053302973508835,
            -0.13974058628082275,
            0.11625383794307709,
            -0.2836973965167999,
            -0.2473134845495224,
            -0.17902664840221405,
            -0.0026718429289758205,
            -0.20732596516609192,
            -0.11663515865802765,
            -0.13686779141426086,
            -0.030185502022504807,
            -0.034376490861177444,
            0.26811298727989197,
            -0.10875502973794937,
            0.030480055138468742,
            -0.22804787755012512,
            0.2017124742269516,
            -0.0746549516916275,
            -0.12661249935626984,
            -0.061133719980716705,
            0.018237512558698654,
            -0.040242891758680344,
            -0.34730634093284607,
            0.02535167895257473,
            0.05917685106396675,
            -0.05144351348280907,
            -0.06947052478790283,
            -0.07252518087625504,
            0.005296091083437204,
            0.2656819224357605,
            0.11113280057907104,
            -0.01893005706369877,
            -0.21784809231758118,
            0.15951678156852722,
            0.11329731345176697,
            0.03540839999914169,
            0.19542984664440155,
            -0.0019517006585374475,
            -0.007759714033454657,
            0.11208396404981613,
            0.059849925339221954,
            -0.19596198201179504,
            0.038673531264066696,
            -0.2125430703163147,
            -0.034117233008146286,
            0.04102795198559761,
            0.027822982519865036,
            0.12322063744068146,
            -0.07923132181167603,
            -0.1224546954035759,
            -0.18140235543251038,
            0.06142472103238106,
            -0.04797857999801636,
            0.04522958770394325,
            0.21548959612846375,
            -0.18878410756587982,
            0.13646316528320312,
            0.2657763361930847,
            0.10324014723300934,
            0.17594468593597412,
            -0.17605718970298767,
            0.050346191972494125,
            -0.023478159680962563,
            -0.09852351993322372,
            0.0804952010512352,
            -0.2179931253194809,
            0.0665431022644043,
            0.07019629329442978,
            0.08699173480272293,
            0.1339145302772522,
            -0.08269032835960388,
            -0.03126855939626694,
            -0.0967465490102768,
            0.044379863888025284,
            0.06569802016019821,
            0.08147462457418442,
            -0.1937665194272995,
            0.13746821880340576,
            -0.06805296242237091,
            0.11004842817783356,
            0.14170052111148834,
            -0.12881706655025482,
            -0.07162443548440933,
            -0.07539771497249603,
            -0.14121954143047333,
            0.13872653245925903,
            0.08678510040044785,
            -0.07592082023620605,
            -0.04395093023777008,
            0.05295410007238388,
            -0.05449110269546509,
            -0.04574977606534958,
            0.15029896795749664,
            -0.23446974158287048,
            0.19942320883274078,
            -0.06366657465696335,
            0.08072981983423233,
            -0.2636011838912964,
            -0.07269129902124405,
            0.05961710214614868,
            -0.17905570566654205,
            0.2721148729324341,
            -0.38230153918266296,
            -0.40451779961586,
            0.11501353234052658,
            0.24741777777671814,
            -0.08698099851608276,
            0.14095288515090942,
            -0.0838073268532753,
            0.02714403159916401,
            -0.006464258302003145,
            0.12148959934711456,
            -0.10669205337762833,
            0.14843003451824188,
            0.36966291069984436,
            0.1278885155916214,
            0.15828457474708557,
            -0.24126309156417847,
            0.04043548181653023,
            0.006956546101719141,
            0.002779065864160657,
            -0.0888482928276062,
            0.05262812599539757,
            -0.05828150734305382,
            0.024571537971496582,
            0.24063272774219513,
            -0.025150105357170105,
            0.04126916080713272,
            -0.11709688603878021,
            -0.1366790384054184,
            -0.1780070811510086,
            -0.027543678879737854,
            -0.26403534412384033,
            0.226161390542984,
            0.03541039302945137,
            0.16538786888122559,
            0.0027132052928209305,
            0.12102963775396347,
            -0.023666029796004295,
            -0.11163739860057831,
            0.059907544404268265,
            -0.1799519658088684,
            -0.23447631299495697,
            -0.10083568096160889,
            0.0616423524916172,
            0.21121469140052795,
            0.23703286051750183,
            -0.0474487841129303,
            -0.20498672127723694,
            -0.1816820502281189,
            -0.13855722546577454,
            0.011363031342625618,
            0.001824539853259921,
            -0.14286726713180542,
            -0.15598659217357635,
            -0.025862783193588257,
            -0.19524326920509338,
            -0.18188439309597015,
            0.18464964628219604,
            -0.09735830873250961,
            0.09207983314990997,
            0.05209488421678543,
            0.04974114149808884,
            0.188673734664917,
            0.1687115877866745,
            0.058417242020368576,
            0.12226355075836182,
            0.08938703685998917,
            0.12679685652256012,
            -0.24238714575767517,
            -0.03490503877401352,
            -0.20702005922794342,
            0.10520780086517334,
            -0.03301132842898369,
            0.07940872758626938,
            0.00017515680519863963,
            -0.04017460718750954,
            0.12795846164226532,
            -0.09481887519359589,
            -0.12678608298301697,
            -0.19463983178138733,
            0.028840599581599236,
            -0.0005609526415355504,
            0.1609785258769989,
            -0.08185610920190811,
            0.045250169932842255,
            0.05940810963511467,
            -0.07067554444074631,
            -0.036364633589982986,
            -0.0021405210718512535,
            0.02005700021982193,
            0.01269723940640688,
            0.14370514452457428,
            -0.02391034923493862,
            -0.15203848481178284,
            -0.2662160098552704,
            -0.10689143091440201,
            0.06264104694128036,
            -0.07588600367307663,
            0.13697011768817902,
            -0.09398398548364639,
            -0.009562657214701176,
            0.11265332996845245,
            -0.005154930986464024,
            -0.02840246632695198,
            -0.01306905411183834,
            -0.008289001882076263,
            -0.13816218078136444,
            -0.04349861666560173,
            0.0864778459072113,
            -0.14033061265945435,
            -0.032351136207580566,
            -0.2613198757171631,
            0.05584565922617912,
            -0.033673226833343506,
            -0.07519564777612686,
            -0.08706202358007431,
            -0.20090800523757935,
            -0.17951048910617828,
            0.13392655551433563,
            0.10213599354028702,
            0.11884469538927078,
            -0.03950522840023041,
            0.0265987329185009,
            -0.16563895344734192,
            0.024289989843964577,
            -0.0071707479655742645,
            0.19188755750656128,
            0.1538381278514862,
            -0.12026160955429077,
            -0.002984127728268504,
            0.1269029974937439,
            -0.022042950615286827,
            -0.05106902867555618,
            0.039003219455480576,
            0.05751020461320877,
            -0.24504207074642181,
            0.028794601559638977,
            -0.1548859179019928,
            0.1471678763628006,
            0.09012153744697571,
            -0.3008905053138733,
            0.12390386313199997,
            -0.09249555319547653,
            -0.06504008919000626,
            0.21197478473186493,
            0.15491150319576263,
            -0.07042159885168076,
            -0.1292257159948349,
            0.17100916802883148,
            -0.002816167427226901,
            -0.0474669486284256,
            0.14625120162963867,
            -0.22980046272277832,
            0.13715271651744843,
            0.004409379325807095,
            -0.09261327981948853,
            -0.002491647843271494,
            0.11063451319932938,
            0.11496701836585999,
            -0.14958073198795319,
            -0.13500791788101196,
            -0.059302039444446564,
            0.08843398094177246,
            0.3050175905227661,
            -0.044083405286073685,
            -0.03742164745926857,
            0.21750321984291077,
            -0.2754213809967041,
            0.17709942162036896,
            0.14890959858894348,
            -0.0850449725985527,
            0.028419502079486847,
            0.038762107491493225,
            0.290112167596817,
            0.09897348284721375,
            0.006800354924052954,
            -0.3134211003780365,
            0.20897603034973145,
            -0.055963367223739624,
            -0.10485363006591797,
            0.026768283918499947,
            0.023920973762869835,
            0.04822331666946411,
            -0.025319628417491913,
            0.06384750455617905,
            -0.0789714977145195,
            0.10137546807527542,
            -0.09325894713401794,
            -0.23668290674686432,
            0.02085135504603386,
            0.16740547120571136,
            0.14797741174697876,
            0.12093245983123779,
            0.11424962431192398,
            -0.2940986156463623,
            0.024211887270212173,
            -0.043637678027153015,
            0.11548352241516113,
            0.10659287124872208,
            0.23549652099609375,
            0.09020143002271652,
            -0.05167229101061821,
            -0.12594597041606903,
            -0.07972340285778046,
            -0.11938592046499252,
            0.0293009914457798,
            -0.2019691914319992,
            0.06157524883747101,
            0.13578781485557556,
            -0.0900421291589737,
            0.07026384770870209,
            0.027878399938344955,
            0.12449131906032562,
            -0.0033929133787751198,
            -0.07794767618179321,
            0.07299318164587021,
            0.036891739815473557,
            0.07761786878108978,
            0.039280861616134644,
            0.26360034942626953,
            -0.10667438805103302,
            0.032439641654491425,
            0.08603006601333618,
            -0.03465621545910835,
            0.08587691187858582,
            -0.09620729833841324,
            -0.08953893184661865,
            -0.0552414134144783,
            -0.19907262921333313,
            -0.017789317294955254,
            -0.2176583856344223,
            -0.13503038883209229,
            -0.045550715178251266,
            -0.05547410622239113,
            0.1512320339679718,
            0.09937592595815659,
            -0.04378674924373627,
            -0.1528724730014801,
            -0.1153787150979042,
            0.08509223908185959,
            0.026254190132021904,
            -0.04717712104320526,
            0.035842858254909515,
            -0.2308725267648697,
            0.15125764906406403,
            0.03796050697565079,
            -0.03797939047217369,
            -0.1445128172636032,
            -0.22231526672840118,
            0.05002352222800255,
            0.15182052552700043,
            0.09511507302522659,
            -0.05966692417860031,
            0.022690895944833755,
            0.06374404579401016,
            -0.021706869825720787,
            0.15758240222930908,
            -0.03894447907805443,
            -0.2176472395658493,
            0.08092808723449707,
            -0.13628198206424713,
            0.13613741099834442,
            0.2042308747768402,
            -0.08943675458431244,
            0.09879694133996964,
            0.07192359119653702,
            -0.1590176373720169,
            -0.019770899787545204,
            0.05416819080710411,
            0.15724733471870422,
            -0.0620354600250721,
            0.011200548149645329,
            -0.008710633963346481,
            -0.0396612323820591,
            -0.12048760801553726,
            -0.0854944959282875,
            -0.06419204920530319,
            -0.0350271612405777,
            -0.0050619845278561115,
            -0.06929154694080353,
            0.11038465052843094,
            0.08346887677907944,
            0.02526172436773777,
            -0.2097632884979248,
            -0.28985172510147095,
            0.09234804660081863,
            0.21085290610790253,
            -0.15680797398090363,
            0.25468921661376953,
            -0.03729863092303276,
            -0.04364690184593201,
            0.23068726062774658,
            -0.16986119747161865,
            -0.005342614371329546,
            0.134909987449646,
            -0.09722881764173508,
            -0.0009054712136276066,
            -0.045031022280454636,
            -0.060970377177000046,
            -0.014429987408220768,
            -0.15378357470035553,
            -0.11002494394779205,
            -0.055547021329402924,
            -0.08515001088380814,
            -0.35435688495635986,
            -0.006373071577399969,
            0.2147718369960785,
            -0.22108829021453857,
            0.10792325437068939,
            0.04079987853765488,
            -0.13413341343402863,
            -0.06381552666425705,
            -0.1744406819343567,
            0.053343765437603,
            0.23321481049060822,
            -0.1369611620903015,
            0.07715754210948944,
            -0.09672430902719498,
            -0.05472197383642197,
            -0.033556342124938965,
            -0.06006054952740669,
            0.2858380675315857,
            -0.004301590844988823,
            -0.21831651031970978,
            -0.008457223884761333,
            0.1267130970954895,
            0.0014919675886631012,
            0.16486874222755432,
            -0.12279697507619858,
            0.11175007373094559,
            -0.2976263165473938,
            0.1862170249223709,
            0.18651358783245087,
            0.01299042534083128,
            0.02636752277612686,
            0.26284992694854736,
            0.0708627700805664,
            0.19153781235218048,
            0.0780179426074028,
            0.10199497640132904,
            0.2663036584854126,
            -0.1847674697637558,
            0.09143143892288208,
            -0.10568531602621078,
            -0.11803081631660461,
            0.22274251282215118,
            -0.006646791007369757,
            -0.017344538122415543,
            -0.12173325568437576,
            -0.22039549052715302,
            -0.05734254792332649,
            0.01008183415979147,
            -0.086485855281353,
            -0.1616605818271637,
            -0.21448011696338654,
            -0.04171830415725708,
            -0.06515311449766159,
            0.3051378130912781,
            -0.08065976202487946,
            -0.15826140344142914,
            0.22274218499660492,
            0.1710028201341629,
            -0.03909007087349892,
            -0.10675928741693497,
            0.04334011301398277,
            0.04429936036467552,
            0.23955345153808594,
            0.029599223285913467,
            0.18510736525058746,
            -0.020591210573911667,
            0.1962120682001114,
            -0.11805235594511032,
            0.11825048923492432,
            0.14735670387744904,
            0.08098282665014267,
            -0.07577945291996002,
            -0.03567500412464142,
            0.24351732432842255,
            0.05736001580953598,
            0.2905210256576538,
            0.025509823113679886,
            -0.13313028216362,
            0.13509488105773926,
            0.07484909147024155,
            -0.021937040612101555,
            -0.13523760437965393,
            -0.11299584060907364,
            -0.08550867438316345,
            -0.2054256647825241,
            -0.06415554881095886,
            0.19196069240570068,
            0.12549816071987152,
            -0.08606986701488495,
            -0.3069625198841095,
            0.12259337306022644,
            -0.054248660802841187,
            -0.09572738409042358,
            -0.1566942185163498,
            0.13200606405735016,
            -0.11027652770280838,
            0.08633805066347122,
            -0.1141405701637268,
            -0.14850595593452454,
            0.010686671361327171,
            -0.16570083796977997,
            0.07702052593231201,
            0.11968115717172623,
            -0.08060815930366516,
            0.05577471852302551,
            0.12978272140026093,
            0.013564292341470718,
            -0.015303866937756538,
            0.16214023530483246,
            -0.07878264784812927,
            0.03541257604956627,
            0.0786639079451561,
            -0.1327371448278427,
            -0.1954534947872162,
            -0.019728993996977806,
            0.023360660299658775,
            0.07760590314865112,
            0.08562755584716797,
            0.009597367607057095,
            0.017493218183517456,
            0.12791888415813446,
            -0.19144786894321442,
            -0.12351925671100616,
            -0.09564373642206192,
            -0.03954954817891121,
            0.09963768720626831,
            0.220865860581398,
            -0.07197827845811844,
            0.07001762092113495,
            -0.025336746126413345,
            -0.24839510023593903,
            -0.020633015781641006,
            -0.23849375545978546,
            0.15334585309028625,
            0.10663091391324997,
            0.2284587025642395,
            -0.016298184171319008,
            -0.27017781138420105,
            -0.04608626291155815,
            -0.053164027631282806,
            -0.061321672052145004,
            -0.14112825691699982,
            0.269106924533844,
            -0.1657414436340332,
            0.1508176177740097,
            -0.0700879842042923,
            -0.26548731327056885,
            0.020525053143501282,
            0.20619098842144012,
            -0.1561623513698578,
            0.1938645839691162,
            -0.034627508372068405,
            0.04276680573821068,
            -0.1909535825252533,
            0.031209414824843407,
            -0.039972346276044846,
            -0.07611463218927383,
            -0.2641304135322571,
            0.203700453042984,
            -0.07109799981117249,
            0.12910158932209015,
            0.06451910734176636,
            0.1293313056230545,
            -0.13732880353927612,
            0.025403685867786407,
            0.23358966410160065,
            -0.16769720613956451,
            -0.05229506641626358,
            -0.14707347750663757,
            0.07407768815755844,
            -0.13240261375904083,
            0.26993992924690247,
            -0.29369571805000305,
            0.18646949529647827,
            0.08966365456581116,
            0.12632949650287628,
            0.07914666086435318,
            0.010499930009245872,
            -0.031765490770339966,
            0.002352170180529356,
            -0.09525042772293091,
            0.018619786947965622,
            -0.09130999445915222,
            0.07485244423151016,
            -0.0915486291050911,
            -0.04529399052262306,
            -0.08664601296186447,
            -0.016834693029522896,
            0.1867879182100296,
            -0.07419265806674957,
            0.058627381920814514,
            0.05482059717178345,
            0.017185959964990616,
            0.030880354344844818,
            -0.02693389169871807,
            -0.18139371275901794,
            0.07095304131507874,
            0.2444857656955719,
            0.10919325053691864,
            0.08977693319320679,
            0.03729218989610672,
            0.097564697265625,
            -0.03190481662750244,
            -0.034858863800764084,
            -0.06002826988697052,
            0.027464566752314568,
            -0.05919879302382469,
            -0.15818262100219727,
            -0.020553112030029297,
            -0.007849502377212048,
            -0.2322610467672348,
            -0.1320907026529312,
            0.270232230424881,
            -0.01113108266144991,
            -0.19892531633377075,
            -0.20651184022426605,
            0.193205326795578,
            -0.2166815549135208,
            0.14168468117713928,
            -0.09787088632583618,
            -0.03294142708182335,
            -0.1612815409898758,
            0.051635537296533585,
            0.0939989760518074,
            0.12191680818796158,
            -0.007162084802985191,
            -0.23896202445030212,
            0.20334139466285706,
            -0.20503440499305725,
            0.3030090630054474,
            0.11829731613397598,
            0.06991110742092133,
            -0.026506125926971436,
            -0.03939085826277733,
            -0.009106568060815334,
            -0.274684339761734,
            -0.1126386746764183,
            0.10588201880455017,
            0.04353899881243706,
            -0.16360357403755188,
            -0.039850521832704544,
            0.14870820939540863,
            0.04767954722046852,
            0.12024956941604614,
            -0.20940658450126648,
            0.17213712632656097,
            -0.02219543047249317,
            -0.05094759166240692,
            -0.06471848487854004,
            0.3058248460292816,
            -0.1905418187379837,
            -0.1278267204761505,
            0.17595386505126953,
            0.2659531533718109,
            -0.1735970675945282,
            -0.22432012856006622,
            -0.0645427480340004,
            -0.06395460665225983,
            -0.2112148106098175,
            -0.05006754770874977,
            -0.0643044039607048,
            -0.05358261615037918,
            -0.1819867342710495,
            0.10821622610092163,
            -0.20437264442443848,
            0.15140356123447418,
            0.15053600072860718,
            -0.2124166637659073,
            0.1914130449295044,
            0.11225427687168121,
            -0.16655376553535461,
            -0.043599680066108704,
            -0.2605852782726288,
            -0.11499153077602386,
            -0.07395623624324799,
            -0.031079383566975594,
            0.25836312770843506,
            -0.16756173968315125,
            0.14307798445224762,
            0.2849505841732025,
            -0.16439397633075714,
            0.28637370467185974,
            -0.14687442779541016,
            0.08655592799186707,
            0.06397361308336258,
            -0.05335713177919388,
            -0.1766519397497177,
            0.005428933072835207,
            0.12004414945840836,
            -0.023713527247309685,
            0.21195532381534576,
            0.05400604382157326,
            -0.07147421687841415,
            0.019075686112046242,
            0.1862170696258545,
            0.023394936695694923,
            -0.1231338307261467,
            0.050711825489997864,
            0.03480517119169235,
            0.16771209239959717,
            -0.2091606706380844,
            -0.021053725853562355,
            -0.007480759639292955,
            0.08147717267274857,
            -0.12433620542287827,
            0.17620675265789032,
            0.014064823277294636,
            0.1471092402935028,
            0.04733163118362427,
            0.15024469792842865,
            0.02739204838871956,
            0.02986464463174343,
            -0.04962534457445145,
            0.024390775710344315,
            0.0214393213391304,
            0.08252709358930588,
            -0.0570506788790226,
            -0.2277706265449524,
            0.0060124872252345085,
            -0.1674242913722992,
            -0.1896788775920868,
            0.1425032615661621,
            0.017842374742031097,
            -0.010688954032957554,
            -0.11764014512300491,
            0.20012836158275604,
            -0.17020383477210999,
            -0.056002046912908554,
            -0.05626101791858673,
            -0.17707782983779907,
            -0.11469744145870209,
            -0.10497443377971649,
            -0.30485936999320984,
            0.07719974219799042,
            0.04508111625909805,
            -0.05954448878765106,
            0.11928227543830872,
            -0.24781277775764465,
            -0.10095527768135071,
            0.0007430692203342915,
            0.12476019561290741,
            0.11725205928087234,
            0.029229627922177315,
            -0.07424752414226532,
            0.10868623107671738,
            0.06187090650200844,
            0.069457046687603,
            0.09626323729753494,
            -0.215963214635849,
            0.2314213514328003,
            -0.06807134300470352,
            -0.09615301340818405,
            0.0623573400080204,
            0.10556957125663757,
            0.279890775680542,
            -0.05325187370181084,
            0.18883921205997467,
            -0.1161455363035202,
            -0.10881789028644562,
            0.06579360365867615,
            0.20911292731761932,
            0.0066231326200068,
            -0.08241251111030579,
            -0.23671138286590576,
            0.0111008919775486,
            -0.1333114206790924,
            0.08893100917339325,
            0.11059311032295227,
            -0.11752631515264511,
            0.18718212842941284,
            -0.15012051165103912,
            -0.09668359905481339,
            -0.09347302466630936,
            0.10874010622501373,
            0.1884586215019226,
            0.1704425811767578,
            -0.06674429029226303,
            0.004176662769168615,
            -0.18376551568508148,
            0.1886010617017746,
            -0.10047551989555359,
            -0.2767258882522583,
            0.06387583166360855,
            0.046998314559459686,
            0.09364700317382812,
            -0.08138400316238403,
            -0.09238763898611069,
            0.13344940543174744,
            0.2001563161611557,
            -0.0512143075466156,
            0.09455464780330658,
            -0.017790410667657852,
            0.2510620653629303,
            -0.15780512988567352,
            0.07004879415035248,
            0.05852659046649933,
            -0.03666254132986069,
            -0.2616198658943176,
            0.23032616078853607,
            -0.013133758679032326,
            0.05559229105710983,
            0.10523039847612381,
            0.01750222034752369,
            -0.0014813969610258937,
            0.10703793913125992,
            0.07827333360910416,
            -0.12291553616523743,
            0.1792815625667572,
            -0.060872431844472885,
            0.004723618738353252,
            0.022343624383211136,
            -0.14290335774421692,
            0.1520117074251175,
            0.17537902295589447,
            -0.18362680077552795,
            0.14631424844264984,
            0.2583088278770447,
            0.17209380865097046,
            0.10286829620599747,
            -0.10478734970092773,
            0.24557343125343323,
            0.07104170322418213,
            0.013798689469695091,
            -0.04209228977560997,
            0.0066995639353990555,
            -0.15782028436660767,
            -0.2084513008594513,
            0.03686947003006935,
            0.04396605119109154,
            -0.06969001144170761,
            0.19422486424446106,
            -0.04066014289855957,
            0.09992766380310059,
            -0.08145168423652649,
            0.00603197468444705,
            0.1339777261018753,
            0.1726120412349701,
            0.09387907385826111,
            -0.04457788169384003,
            0.08652007579803467,
            -0.03356329724192619,
            0.042562223970890045,
            0.036300480365753174,
            0.031487591564655304,
            0.0742645189166069,
            -0.008741743862628937,
            -0.11468090116977692,
            0.08869296312332153,
            -0.15365996956825256,
            0.09480924904346466,
            0.17701037228107452,
            -0.00462206220254302,
            0.013136896304786205,
            0.17251895368099213,
            -0.3061673045158386,
            -0.11879905313253403,
            0.011833888478577137,
            0.12106260657310486,
            0.06488639861345291,
            0.1836361587047577,
            -0.23925000429153442,
            -0.0628422349691391,
            -0.2815403342247009,
            -0.05796411260962486,
            -0.012985991314053535,
            -0.33521655201911926,
            -0.25132736563682556,
            0.12286995351314545,
            0.18374399840831757,
            -0.249750018119812,
            -0.20677046477794647,
            0.0235168244689703,
            0.10693871974945068,
            -0.004884099587798119,
            0.011992319487035275,
            0.007224275730550289,
            0.12273401021957397,
            0.16286306083202362,
            0.24439051747322083,
            0.1225845217704773,
            -0.24681396782398224,
            -0.0344005711376667,
            -0.06016204133629799,
            -0.15037061274051666,
            0.06407275795936584,
            -0.0384407714009285,
            -0.10825811326503754,
            -0.08704107254743576,
            0.003976786974817514,
            -0.043867774307727814,
            0.1977214217185974,
            0.012814939953386784,
            0.04487185925245285,
            0.15794265270233154,
            -0.012254094704985619,
            -0.057451073080301285,
            0.14692622423171997,
            0.04584905132651329,
            0.010055234655737877,
            -0.1366226226091385,
            -0.1463841199874878,
            -0.03998984023928642,
            -0.07692456990480423,
            -0.04318453371524811,
            -0.04933662712574005,
            0.09345732629299164,
            -0.0476248674094677,
            0.2940363883972168,
            -0.04400910437107086,
            -0.20453833043575287,
            0.09297765046358109,
            -0.03244540095329285,
            0.06845074146986008,
            0.13274388015270233,
            -0.08372634649276733,
            0.02352803386747837,
            0.219424769282341,
            0.09406961500644684,
            -0.0698624923825264,
            -0.08241546899080276,
            0.177767813205719,
            -0.018432024866342545,
            0.06598468869924545,
            0.19925503432750702,
            0.17625434696674347,
            -0.30429860949516296,
            0.08391433209180832,
            0.12052977830171585,
            0.12240704149007797,
            -0.09102322906255722,
            0.1406635046005249,
            -0.06733746081590652,
            0.11247403919696808,
            -0.0038519161753356457,
            0.12855203449726105,
            -0.16159573197364807,
            -0.29400622844696045,
            -0.10954703390598297,
            0.2093091905117035,
            0.12159498780965805,
            -0.08679338544607162,
            0.15274688601493835,
            0.009967701509594917,
            -0.1794460415840149,
            0.04832655191421509,
            0.0907130315899849,
            0.061783257871866226,
            -0.024760056287050247,
            0.15239030122756958,
            -0.10471180826425552,
            0.18235105276107788,
            -0.13038893043994904,
            -0.0181773379445076,
            0.28465837240219116,
            0.13850635290145874,
            0.029271481558680534,
            0.11424589157104492,
            0.16923794150352478,
            -0.07937847077846527,
            0.06942591071128845,
            0.003517307573929429,
            -0.0429820790886879,
            0.10321402549743652,
            -0.05830793455243111,
            -0.11328287422657013,
            0.00997186079621315,
            -0.07109905034303665,
            -0.23217041790485382,
            -0.14988502860069275,
            0.012220513075590134,
            -0.11015733331441879,
            -0.09701566398143768,
            -0.11028971523046494,
            0.05501183494925499,
            0.2654292583465576,
            -0.18437737226486206,
            -0.09060148894786835,
            0.08224533498287201,
            -0.10214673727750778,
            -0.05231952294707298,
            0.13368822634220123,
            0.008079861290752888,
            -0.11513497680425644,
            0.1748911738395691,
            0.1398116797208786,
            0.1881396323442459,
            -0.11360865086317062,
            -0.07124090194702148,
            -0.15535098314285278,
            -0.10537548363208771,
            0.08893681317567825,
            0.24364234507083893,
            -0.14621514081954956,
            0.1370706558227539,
            -0.11116230487823486,
            -0.025218352675437927,
            -0.028404030948877335,
            -0.003764504101127386,
            0.19054432213306427,
            -0.061360035091638565,
            -0.0864965170621872,
            0.1621083915233612,
            0.0179392509162426,
            -0.04469221830368042,
            -0.24176213145256042,
            0.15753857791423798,
            -0.09785187989473343,
            -0.008187465369701385,
            0.13009802997112274,
            -0.059428319334983826,
            -0.28990232944488525,
            0.21442976593971252,
            -0.12124577909708023,
            0.1094215139746666,
            -0.3168378174304962,
            0.07698897272348404,
            0.03331282362341881,
            0.08706384897232056,
            0.00562966288998723,
            -0.2706940472126007,
            -0.026818476617336273,
            0.07947181910276413,
            -0.13496366143226624,
            0.019579803571105003,
            -0.08514243364334106,
            0.23970229923725128,
            0.09273622930049896,
            -0.14273487031459808,
            0.22162558138370514,
            0.23957160115242004,
            0.10970607399940491,
            0.03585071489214897,
            -0.04489454999566078,
            0.3198147118091583,
            -0.2118104100227356,
            0.2101815640926361,
            -0.11769352853298187,
            0.1551797091960907,
            0.0794142335653305,
            0.20709162950515747,
            -0.08558136224746704,
            -0.017744049429893494,
            -0.03677532449364662,
            -0.0894082561135292,
            -0.17990179359912872,
            -0.19992440938949585,
            -0.18451610207557678,
            -0.2605755925178528,
            0.08370830863714218,
            0.14868757128715515,
            0.1385595202445984,
            -0.0677831619977951,
            -0.2242651730775833,
            0.10982885956764221,
            -0.19009345769882202,
            -0.07380551844835281,
            0.1267939805984497,
            -0.021958712488412857,
            -0.15960067510604858,
            -0.15348829329013824,
            0.2282872349023819,
            -0.011480660177767277,
            0.021993588656187057,
            0.23089006543159485,
            -0.14446422457695007,
            -0.025093941017985344,
            0.027629077434539795,
            0.14711591601371765,
            0.030676452443003654,
            0.14628370106220245,
            -0.004008950665593147,
            0.02656407468020916,
            0.010111132636666298,
            0.05524817481637001,
            -0.22065702080726624,
            -0.04277496039867401,
            -0.005002088379114866,
            -0.16191238164901733,
            -0.25809213519096375,
            -0.07242891937494278,
            -0.221213698387146,
            -0.08306746929883957,
            -0.12784193456172943,
            0.044517308473587036,
            0.03731020912528038,
            -0.08598405867815018,
            0.06941517442464828,
            -0.04178091138601303,
            0.02045159600675106,
            -0.24109123647212982,
            0.05591549724340439,
            0.011323411948978901,
            0.055655889213085175,
            -0.2289796769618988,
            0.26757311820983887,
            -0.18103072047233582,
            0.30884915590286255,
            -0.02243776060640812,
            -0.0045242528431117535,
            -0.12136125564575195,
            -0.1654873639345169,
            0.1534605771303177,
            -0.16146430373191833,
            0.13950814306735992,
            0.05577760189771652,
            0.06968413293361664,
            0.07310619950294495,
            -0.0018565112259238958,
            -0.13686005771160126,
            -0.0968547835946083,
            -0.0639030858874321,
            -0.04840195178985596,
            0.034424446523189545,
            0.03819556161761284,
            0.010027753189206123,
            -0.18226879835128784,
            -0.11737910658121109,
            -0.05322590842843056,
            -0.2025749683380127,
            0.1002851352095604,
            0.09107550978660583,
            -0.15657994151115417,
            -0.02337772212922573,
            0.014349741861224174,
            -0.09931463748216629,
            -0.09755716472864151,
            -0.08329923450946808,
            0.13358405232429504,
            -0.0817611962556839,
            -0.2237996906042099,
            0.015782739967107773,
            0.06254998594522476,
            0.16158944368362427,
            0.05596056208014488,
            -0.16561034321784973,
            -0.09530746191740036,
            0.10917403548955917,
            -0.13482356071472168,
            0.11446623504161835,
            0.017255660146474838,
            0.00831098947674036,
            0.07813914120197296,
            0.23102807998657227,
            -0.21151481568813324,
            -0.3194732964038849,
            0.15655550360679626,
            0.13868945837020874,
            -0.0030261152423918247,
            -0.18726342916488647,
            0.13537174463272095,
            -0.11097694933414459,
            -0.141099214553833,
            0.12999573349952698,
            0.32677170634269714,
            -0.002530684694647789,
            0.06544351577758789,
            0.009452161379158497,
            0.13390977680683136,
            0.19590452313423157,
            0.13279490172863007,
