{
  "modelName": "right_hand_sonic_drive",
  "modelType": "neural_network",
  "poseType": "hands",
  "gestureNames": [
    "right hand open",
    "right hand close",
    "right hand index"
  ],
  "labelEncoder": {
    "right hand open": 0,
    "right hand close": 1,
    "right hand index": 2
  },
  "labelDecoder": {
    "0": "right hand open",
    "1": "right hand close",
    "2": "right hand index"
  },
  "accuracy": 1,
  "trainingTime": "37.88",
  "numFeatures": 88,
  "numClasses": 3,
  "sampleCounts": {
    "right hand open": 558,
    "right hand close": 539,
    "right hand index": 577
  },
  "totalSamples": 1674,
  "timestamp": "2026-03-28T11:40:28.952Z",
  "architecture": {
    "layers": [
      128,
      64
    ],
    "dropout": [
      0.3,
      0.2
    ]
  },
  "config": {
    "epochs": 50,
    "learningRate": 0.001,
    "batchSize": 32,
    "validationSplit": 0.2
  },
  "weights": [
    {
      "name": "dense_Dense1",
      "weights": [
        {
          "shape": [
            88,
            128
          ],
          "data": [
            0.20887579023838043,
            0.03552839159965515,
            0.14498986303806305,
            0.019117850810289383,
            0.0864684209227562,
            -0.15380218625068665,
            -0.00340426922775805,
            0.293390691280365,
            0.01745237037539482,
            -0.2581900358200073,
            -0.05198340490460396,
            -0.09642710536718369,
            -0.03501025214791298,
            -0.065275639295578,
            -0.04198811575770378,
            -0.020063400268554688,
            0.029432328417897224,
            -0.08808717131614685,
            -0.05386774241924286,
            -0.2889704406261444,
            0.006000143941491842,
            -0.1884121149778366,
            -0.07782986015081406,
            -0.12832583487033844,
            -0.13121961057186127,
            -0.05414736643433571,
            -0.12648339569568634,
            -0.15646037459373474,
            -0.05078505352139473,
            -0.061756107956171036,
            -0.18390025198459625,
            -0.2573438882827759,
            -0.11857716739177704,
            0.048898473381996155,
            0.10162890702486038,
            0.2509278655052185,
            -0.2501520812511444,
            0.14121100306510925,
            0.0585564486682415,
            -0.008664269931614399,
            -0.27158549427986145,
            -0.1844416856765747,
            -0.22669123113155365,
            -0.19023580849170685,
            0.17806637287139893,
            0.11744573712348938,
            0.07064497470855713,
            0.08397424966096878,
            -0.031116005033254623,
            0.2349906861782074,
            -0.0008852987666614354,
            0.03683248534798622,
            -0.1166803166270256,
            -0.20521949231624603,
            0.03828190267086029,
            0.22577396035194397,
            -0.15689663589000702,
            0.048793401569128036,
            -0.11650651693344116,
            -0.016460372135043144,
            -0.09801463782787323,
            0.2918098270893097,
            -0.12916713953018188,
            -0.264694482088089,
            0.2691492736339569,
            -0.1741296350955963,
            0.04246813431382179,
            -0.06939265877008438,
            -0.1699465960264206,
            0.03544998914003372,
            -0.048404544591903687,
            0.07095281779766083,
            0.038311101496219635,
            0.23637741804122925,
            -0.05416491627693176,
            0.00974216591566801,
            -0.07144676893949509,
            0.19408567249774933,
            -0.15693344175815582,
            -0.15106213092803955,
            0.09279438108205795,
            -0.11996699869632721,
            0.09084320068359375,
            0.0635831356048584,
            0.1702851504087448,
            0.06958651542663574,
            0.12574928998947144,
            -0.25600290298461914,
            -0.12734569609165192,
            -0.2460416853427887,
            -0.258408784866333,
            0.15256913006305695,
            -0.12855248153209686,
            0.10429307818412781,
            -0.09783411026000977,
            -0.019440995529294014,
            -0.045080073177814484,
            0.017267977818846703,
            -0.18087857961654663,
            0.2843535840511322,
            0.17404723167419434,
            -0.2826751470565796,
            -0.18941976130008698,
            -0.06236114352941513,
            0.18321391940116882,
            -0.2879364788532257,
            0.0068094306625425816,
            -0.13736754655838013,
            0.048007749021053314,
            -0.17533649504184723,
            -0.22022677958011627,
            0.1548198163509369,
            0.24084961414337158,
            0.030635491013526917,
            -0.07669170945882797,
            0.1569240391254425,
            0.10512353479862213,
            -0.16094861924648285,
            -0.22042158246040344,
            -0.007658202201128006,
            0.02996181510388851,
            -0.2564585208892822,
            -0.12477274984121323,
            -0.08784051239490509,
            -0.04486747086048126,
            -0.16566699743270874,
            -0.1515761911869049,
            -0.08763167262077332,
            -0.14491920173168182,
            -0.1261514276266098,
            0.14010347425937653,
            -0.06624889373779297,
            -0.0023506025318056345,
            0.03317629545927048,
            -0.14957879483699799,
            -0.04735057055950165,
            -0.10181596130132675,
            0.21025396883487701,
            -0.21167749166488647,
            0.0554652214050293,
            -0.26717251539230347,
            -0.0626155361533165,
            -0.05748039111495018,
            -0.060516711324453354,
            0.027328012511134148,
            0.09680765122175217,
            0.24749045073986053,
            0.1891203373670578,
            0.11052190512418747,
            0.11016673594713211,
            0.09966713190078735,
            -0.06064726412296295,
            -0.20038975775241852,
            0.10271237045526505,
            0.048360735177993774,
            -0.14597536623477936,
            0.01598208397626877,
            0.07413367182016373,
            0.2033846378326416,
            0.016095412895083427,
            0.14878687262535095,
            0.07841048389673233,
            -0.03377736732363701,
            -0.002052478725090623,
            -0.10174032300710678,
            -0.17017462849617004,
            -0.17116762697696686,
            -0.054066002368927,
            -0.07712336629629135,
            0.22558113932609558,
            0.0030590845271945,
            -0.15545432269573212,
            -0.012401948682963848,
            0.029797416180372238,
            -0.20534123480319977,
            0.15209314227104187,
            0.0725686326622963,
            0.055800698697566986,
            -0.13176730275154114,
            0.11511002480983734,
            0.1452150046825409,
            -0.009386809542775154,
            -0.21763679385185242,
            -0.30655282735824585,
            -0.05451999232172966,
            0.027101529762148857,
            0.1426757574081421,
            -0.10052405297756195,
            0.18845562636852264,
            -0.007832609117031097,
            -0.024848205968737602,
            0.0463336706161499,
            0.04146268218755722,
            0.01796436496078968,
            -0.08656580001115799,
            -0.15721282362937927,
            0.09489835053682327,
            -0.139725461602211,
            0.04960189759731293,
            0.21958647668361664,
            0.0354490652680397,
            -0.03178313374519348,
            -0.24893364310264587,
            0.12689124047756195,
            0.13147832453250885,
            -0.08274484425783157,
            -0.12473795562982559,
            0.1752561628818512,
            -0.1095304936170578,
            -0.24667099118232727,
            -0.09549932926893234,
            0.19219015538692474,
            -0.06360843777656555,
            -0.15612010657787323,
            -0.27925506234169006,
            0.10366129130125046,
            -0.2567722201347351,
            0.2276625782251358,
            0.01705051027238369,
            -0.008479904383420944,
            0.19543331861495972,
            0.053174763917922974,
            0.11906316131353378,
            0.012040840461850166,
            -0.011791929602622986,
            0.09208621084690094,
            0.13963550329208374,
            -0.06286842375993729,
            0.08726324141025543,
            0.23044154047966003,
            -0.16658915579319,
            -0.212906613945961,
            0.0713685154914856,
            -0.06593929976224899,
            -0.035694606602191925,
            -0.2856525778770447,
            -0.07673733681440353,
            0.0251559317111969,
            0.0985826626420021,
            -0.19052539765834808,
            -0.0879088044166565,
            0.06621350347995758,
            0.11396017670631409,
            -0.15076713263988495,
            0.01983897015452385,
            0.014200055040419102,
            0.013591782189905643,
            0.15731221437454224,
            0.14206716418266296,
            -0.025397108867764473,
            -0.06597398221492767,
            0.038309961557388306,
            0.28939270973205566,
            -0.11754622310400009,
            -0.127846822142601,
            0.14582841098308563,
            -0.09223711490631104,
            0.0405542217195034,
            0.01372982282191515,
            0.011904777027666569,
            0.019359998404979706,
            -0.0049342927522957325,
            0.04654166102409363,
            0.1545594185590744,
            -0.02943423017859459,
            0.02072874829173088,
            0.2113596796989441,
            -0.14544768631458282,
            0.06844028830528259,
            -0.07970152795314789,
            -0.03240997716784477,
            -0.23723776638507843,
            0.1870943009853363,
            -0.26161375641822815,
            0.1039370447397232,
            0.058069221675395966,
            -0.024412378668785095,
            -0.01631065458059311,
            -0.16600006818771362,
            0.004178567789494991,
            -0.11270985007286072,
            -0.11256324499845505,
            0.1376127451658249,
            0.12245916575193405,
            0.22813789546489716,
            -0.1047750934958458,
            0.01041544321924448,
            0.11899036169052124,
            0.08000072836875916,
            0.12349847704172134,
            0.2470710128545761,
            0.03218744322657585,
            0.12927931547164917,
            0.031122807413339615,
            -0.0960787907242775,
            -0.02674303948879242,
            -0.06684405356645584,
            0.10693804919719696,
            0.02153310365974903,
            0.023719627410173416,
            0.024964140728116035,
            -0.03995882719755173,
            0.10543745011091232,
            -0.009201518259942532,
            -0.17738908529281616,
            -0.04345729202032089,
            0.13352161645889282,
            0.13571742177009583,
            0.16046398878097534,
            0.16973668336868286,
            -0.27913907170295715,
            -0.22036220133304596,
            -0.12248801440000534,
            -0.049533311277627945,
            0.0696578174829483,
            -0.028231998905539513,
            0.14764991402626038,
            0.0027864433359354734,
            0.022497734054923058,
            -0.23951305449008942,
            0.009816457517445087,
            0.14311543107032776,
            -0.18435817956924438,
            -0.12846209108829498,
            -0.05477480590343475,
            0.1538129299879074,
            -0.10157036036252975,
            0.06017790734767914,
            0.08972728252410889,
            -0.10907936096191406,
            -0.022271253168582916,
            -0.24431459605693817,
            -0.17538371682167053,
            0.00579744903370738,
            0.003619634546339512,
            0.071341373026371,
            0.03774712234735489,
            0.21542306244373322,
            -0.12129628658294678,
            -0.02139022760093212,
            0.01833401247859001,
            -0.16958004236221313,
            -0.055121634155511856,
            0.1925075650215149,
            -0.013146118260920048,
            0.03917769715189934,
            -0.04581836611032486,
            0.011883712373673916,
            -0.022392962127923965,
            0.20302291214466095,
            0.004313705954700708,
            -0.12403388321399689,
            -0.08114103227853775,
            -0.14248579740524292,
            0.01887388527393341,
            0.04867551475763321,
            0.2848326861858368,
            -0.1435742974281311,
            0.1227312833070755,
            0.15327966213226318,
            -0.011433141306042671,
            -0.04757554084062576,
            0.15345391631126404,
            0.10334696620702744,
            0.19652321934700012,
            -0.0991450846195221,
            -0.014528210274875164,
            0.07970539480447769,
            -0.24332965910434723,
            -0.11722806841135025,
            -0.14171403646469116,
            0.02754352055490017,
            0.14886592328548431,
            -0.11741017550230026,
            -0.17068065702915192,
            -0.059986211359500885,
            0.252852201461792,
            -0.13357014954090118,
            -0.13500766456127167,
            0.269840270280838,
            0.017251698300242424,
            0.23138321936130524,
            -0.03192922845482826,
            0.08741831034421921,
            -0.1685481071472168,
            -0.03450710326433182,
            -0.15813180804252625,
            -0.16545595228672028,
            0.06213678792119026,
            -0.20732760429382324,
            0.03913548216223717,
            0.11669061332941055,
            -0.2614326775074005,
            -0.20449677109718323,
            0.07947438210248947,
            -0.14352740347385406,
            0.12640133500099182,
            -0.08626236021518707,
            -0.03534460812807083,
            0.07959364354610443,
            -0.06134740263223648,
            -0.20988021790981293,
            -0.11441221833229065,
            0.019024284556508064,
            -0.09461791068315506,
            0.23044578731060028,
            0.17367713153362274,
            0.20972293615341187,
            0.23789668083190918,
            0.15851563215255737,
            -0.17935606837272644,
            0.029264071956276894,
            0.021744990721344948,
            0.16769187152385712,
            0.13785423338413239,
            -0.10190324485301971,
            -0.01180354319512844,
            0.01867073029279709,
            -0.18119588494300842,
            0.06960984319448471,
            -0.1482415646314621,
            0.05439586937427521,
            0.10910143703222275,
            -0.10363490134477615,
            -0.09281057864427567,
            0.06351695209741592,
            0.1588263362646103,
            -0.17762166261672974,
            0.04781562462449074,
            0.06194758042693138,
            0.012409242801368237,
            0.0876646637916565,
            0.031606171280145645,
            -0.2423786222934723,
            0.09409182518720627,
            -0.17368383705615997,
            -0.22457468509674072,
            0.0819106176495552,
            -0.024395529180765152,
            0.10732647031545639,
            -0.03555058315396309,
            -0.17569252848625183,
            0.010482732206583023,
            0.09885992854833603,
            0.060958221554756165,
            0.1389908641576767,
            0.1359853446483612,
            -0.054220668971538544,
            -0.05256382003426552,
            0.01738213188946247,
            -0.2635667324066162,
            -0.04654792323708534,
            -0.12940439581871033,
            -0.03896431624889374,
            -0.057663340121507645,
            -0.01967691071331501,
            -0.08792255073785782,
            -0.20103523135185242,
            -0.012870941311120987,
            0.25822460651397705,
            0.0026922482065856457,
            0.27177369594573975,
            -0.1619490087032318,
            -0.22830328345298767,
            -0.1606181561946869,
            0.007054717745631933,
            -0.23462557792663574,
            0.029246395453810692,
            -0.12499083578586578,
            -0.034229349344968796,
            0.03444948419928551,
            0.07137569785118103,
            0.04716701805591583,
            -0.09479004889726639,
            0.11444785445928574,
            0.15421704947948456,
            0.12086040526628494,
            -0.22388267517089844,
            -0.15183895826339722,
            0.16427068412303925,
            -0.009365702047944069,
            0.08175156265497208,
            -0.11897435039281845,
            -0.2713881731033325,
            -0.12164773792028427,
            0.000300563289783895,
            -0.27611044049263,
            -0.031677454710006714,
            -0.03698628768324852,
            -0.09508300572633743,
            0.054985545575618744,
            -0.08878063410520554,
            -0.06457816809415817,
            -0.08168678730726242,
            -0.022558465600013733,
            -0.2561799883842468,
            -0.08961910009384155,
            -0.07148405909538269,
            0.11047080904245377,
            -0.0973569005727768,
            -0.049429312348365784,
            0.13748052716255188,
            -0.012628592550754547,
            0.10448580980300903,
            -0.10149671137332916,
            -0.15395665168762207,
            -0.022069687023758888,
            0.152059867978096,
            -0.12261537462472916,
            -0.2118394523859024,
            -0.09077635407447815,
            0.030559565871953964,
            0.082665354013443,
            0.03626500442624092,
            0.18637672066688538,
            0.2071305364370346,
            0.04683054983615875,
            0.05120481923222542,
            -0.08037659525871277,
            0.06213526800274849,
            0.14767105877399445,
            0.15890219807624817,
            -0.08100437372922897,
            -0.15948031842708588,
            -0.1441579908132553,
            0.05900787562131882,
            0.18921726942062378,
            0.03439044952392578,
            0.07534673810005188,
            -0.04082069918513298,
            -0.07624726742506027,
            0.044811975210905075,
            -0.08548497408628464,
            -0.06407452374696732,
            -0.04763755202293396,
            0.05740422382950783,
            -0.013918057084083557,
            -0.14298342168331146,
            0.06898407638072968,
            0.014984083361923695,
            -0.04392818361520767,
            -0.21081851422786713,
            0.06315873563289642,
            0.2312639355659485,
            -0.18512676656246185,
            -0.09356816112995148,
            -0.23134814202785492,
            0.14563912153244019,
            0.10330463200807571,
            0.23312221467494965,
            0.15461336076259613,
            -0.06836951524019241,
            -0.22492285072803497,
            0.028316427022218704,
            -0.005262388847768307,
            0.2715552747249603,
            -0.19498631358146667,
            -0.08833881467580795,
            -0.147573322057724,
            0.010041301138699055,
            0.014456107281148434,
            -0.06121242046356201,
            0.21927039325237274,
            0.18996697664260864,
            0.06352391093969345,
            0.040345676243305206,
            -0.30067282915115356,
            -0.019177867099642754,
            -0.014437570236623287,
            0.027150390669703484,
            -0.13563069701194763,
            0.012420885264873505,
            -0.12787218391895294,
            0.029974481090903282,
            -0.1571473330259323,
            0.0832129418849945,
            -0.22711151838302612,
            -0.08627050369977951,
            0.08425506204366684,
            -0.20009009540081024,
            -0.2951562702655792,
            0.04830947890877724,
            0.16581565141677856,
            -0.05095581337809563,
            -0.052930813282728195,
            -0.10212651640176773,
            -0.1453055441379547,
            -0.05658072978258133,
            0.05355898663401604,
            -0.021089954301714897,
            -0.15987883508205414,
            -0.18390141427516937,
            -0.1464153677225113,
            -0.02116958051919937,
            -0.1850702464580536,
            0.0771368220448494,
            -0.1216181293129921,
            0.21297384798526764,
            0.09942106157541275,
            -0.13029837608337402,
            -0.05323074012994766,
            -0.011278790421783924,
            0.007899963296949863,
            -0.06401222944259644,
            0.02868657372891903,
            0.17735981941223145,
            0.12725408375263214,
            0.13097929954528809,
            -0.07490885257720947,
            -0.14017844200134277,
            -0.20356394350528717,
            -0.27233460545539856,
            -0.1666129231452942,
            0.009293056093156338,
            0.021011512726545334,
            -0.05521470308303833,
            -0.1801176816225052,
            0.07223750650882721,
            -0.15350490808486938,
            -0.08155755698680878,
            0.06152947247028351,
            0.01739892177283764,
            0.08207561820745468,
            0.15121452510356903,
            -0.14042243361473083,
            -0.2984103262424469,
            -0.047853197902441025,
            0.03623604774475098,
            -0.23114316165447235,
            -0.0676157996058464,
            0.004549466073513031,
            0.14076602458953857,
            -0.1672644168138504,
            -0.03302834555506706,
            0.1563439816236496,
            0.07173971086740494,
            0.0555630661547184,
            -0.061607275158166885,
            0.16621752083301544,
            -0.02069486491382122,
            0.13626909255981445,
            -0.09198489040136337,
            -0.0655326396226883,
            0.15442295372486115,
            -0.1410883516073227,
            0.2706776261329651,
            0.13892287015914917,
            0.023693544790148735,
            0.17243924736976624,
            0.07275481522083282,
            -0.13850311934947968,
            -0.27628982067108154,
            0.31334230303764343,
            0.28419238328933716,
            0.19146063923835754,
            -0.11818660795688629,
            0.033949609845876694,
            0.0021119785960763693,
            -0.12159059196710587,
            0.041023433208465576,
            -0.16751766204833984,
            -0.01858276128768921,
            -0.13782331347465515,
            0.15680049359798431,
            0.10591959208250046,
            -0.0942428931593895,
            0.08351211249828339,
            0.010493338108062744,
            0.008760543540120125,
            -0.06822943687438965,
            -0.39402270317077637,
            -0.21815037727355957,
            -0.005441845394670963,
            -0.1272970288991928,
            0.07867293804883957,
            -0.15369458496570587,
            -0.016689633950591087,
            -0.3044562339782715,
            0.01877135969698429,
            0.17320263385772705,
            0.08033733069896698,
            -0.026162724941968918,
            -0.049178965389728546,
            0.01692216284573078,
            0.09872851520776749,
            0.23915664851665497,
            -0.11442594230175018,
            -0.23135018348693848,
            0.08995240926742554,
            -0.0037527114618569613,
            0.17849087715148926,
            -0.23227456212043762,
            -0.03785637021064758,
            0.15381547808647156,
            0.1846875697374344,
            -0.0028808817733079195,
            0.08479781448841095,
            -0.05747136473655701,
            0.24487486481666565,
            -0.1988179236650467,
            0.1257544904947281,
            0.2824632227420807,
            -0.23344548046588898,
            -0.09392012655735016,
            -0.025891145691275597,
            -0.042013686150312424,
            -0.1919950395822525,
            0.007002490106970072,
            -0.05830424651503563,
            0.3775002956390381,
            -0.027178097516298294,
            -0.04533330351114273,
            0.05791785195469856,
            0.04773702472448349,
            0.025700559839606285,
            -0.09891199320554733,
            -0.19189797341823578,
            -0.08817636966705322,
            -0.27815940976142883,
            -0.2634686231613159,
            0.2841062545776367,
            0.2422327697277069,
            0.07469490170478821,
            0.12088082730770111,
            0.09974018484354019,
            -0.03341072052717209,
            -0.2723146080970764,
            0.051806479692459106,
            -0.07486721873283386,
            0.025775369256734848,
            0.14573316276073456,
            0.20119929313659668,
            -0.019070878624916077,
            0.13583363592624664,
            -0.027957364916801453,
            0.0396479070186615,
            0.02709873765707016,
            0.00965091958642006,
            0.12851963937282562,
            0.03129810094833374,
            0.15044040977954865,
            0.09784179925918579,
            -0.13366523385047913,
            -0.2682057023048401,
            0.12765800952911377,
            -0.18045440316200256,
            -0.011432599276304245,
            -0.07798344641923904,
            0.007287957705557346,
            -0.16871564090251923,
            0.03803061693906784,
            0.07785189151763916,
            0.12811048328876495,
            0.0395689532160759,
            -0.19764798879623413,
            -0.041519053280353546,
            -0.013435513712465763,
            -0.12641622126102448,
            0.07108592242002487,
            0.1256425380706787,
            -0.1380397528409958,
            -0.052878912538290024,
            -0.21111388504505157,
            0.07079557329416275,
            0.1980876326560974,
            0.16770894825458527,
            -0.20570015907287598,
            0.016207745298743248,
            0.035138942301273346,
            -0.1211707592010498,
            0.02960807830095291,
            -0.16776923835277557,
            -0.1387244164943695,
            -0.08659151941537857,
            -0.24690841138362885,
            0.2921298146247864,
            -0.233453631401062,
            -0.11325657367706299,
            0.10417120903730392,
            -0.05615662783384323,
            -0.15042871236801147,
            -0.012767085805535316,
            -0.1586707979440689,
            0.12298330664634705,
            0.006952955387532711,
            -0.039896439760923386,
            -0.015206140466034412,
            0.06799379736185074,
            -0.10768569260835648,
            0.05027441307902336,
            -0.036129508167505264,
            -0.044457122683525085,
            0.05258092284202576,
            -0.17959937453269958,
            -0.30265969038009644,
            -0.17025716602802277,
            0.152119979262352,
            -0.026007818058133125,
            0.17663101851940155,
            0.1183863952755928,
            -0.07285608351230621,
            0.010112046264111996,
            0.04780912399291992,
            0.12064776569604874,
            0.15483401715755463,
            0.16074082255363464,
            0.06349960714578629,
            0.054180774837732315,
            0.21117615699768066,
            0.1615929901599884,
            0.06520619988441467,
            0.14485108852386475,
            0.1562643200159073,
            0.2816457450389862,
            0.040702417492866516,
            -0.15985818207263947,
            -0.02356407232582569,
            0.25090980529785156,
            -0.1638428121805191,
            -0.1788894087076187,
            -0.0752653107047081,
            -0.04089144989848137,
            0.06392070651054382,
            -0.06977482885122299,
            0.2592315077781677,
            0.22514523565769196,
            -0.019150251522660255,
            0.13933004438877106,
            -0.07539099454879761,
            0.11668252944946289,
            0.1261279135942459,
            -0.0574437752366066,
            0.036844026297330856,
            -0.01209429930895567,
            0.05532001331448555,
            -0.04997901991009712,
            -0.09322816133499146,
            -0.15821798145771027,
            -0.12595590949058533,
            -0.10082751512527466,
            -0.06835342943668365,
            0.08732426911592484,
            -0.24438521265983582,
            -0.21577206254005432,
            -0.044488534331321716,
            -0.07244367897510529,
            0.04218782112002373,
            -0.016190432012081146,
            0.02757558599114418,
            0.11412610113620758,
            -0.2695736885070801,
            -0.21383625268936157,
            -0.10175591707229614,
            -0.013366111554205418,
            0.08846215903759003,
            0.06338267028331757,
            -0.19596107304096222,
            0.1267719715833664,
            -0.1030154749751091,
            0.017932787537574768,
            -0.05070609599351883,
            0.1165299266576767,
            -0.06667069345712662,
            -0.09232743084430695,
            -0.13829638063907623,
            0.04809711501002312,
            -0.14997348189353943,
            -0.2154758721590042,
            0.029792137444019318,
            -0.0521557591855526,
            -0.12189776450395584,
            -0.00008570730278734118,
            0.18327651917934418,
            0.1485442966222763,
            0.24175457656383514,
            -0.16884131729602814,
            -0.13471724092960358,
            0.08704087883234024,
            0.26537999510765076,
            0.08754938840866089,
            0.03423206880688667,
            -0.05198054388165474,
            -0.04123474657535553,
            0.10255680233240128,
            -0.12213373184204102,
            -0.09273558109998703,
            -0.31880781054496765,
            -0.06517817825078964,
            0.01572241634130478,
            0.12430311739444733,
            0.04064413905143738,
            -0.05321572348475456,
            0.06570440530776978,
            0.038973208516836166,
            0.052108846604824066,
            0.24251689016819,
            0.11505918949842453,
            0.020554332062602043,
            -0.018819808959960938,
            -0.17406846582889557,
            -0.10830500721931458,
            0.20948491990566254,
            -0.2699403762817383,
            0.20748868584632874,
            -0.08427140861749649,
            0.014980286359786987,
            0.05613204836845398,
            -0.037712547928094864,
            -0.11820338666439056,
            0.18003396689891815,
            0.13978010416030884,
            -0.026927098631858826,
            -0.1776471883058548,
            0.031036892905831337,
            0.16582272946834564,
            0.004545277915894985,
            0.08218715339899063,
            -0.16562500596046448,
            -0.1206861287355423,
            0.016362734138965607,
            -0.07401786744594574,
            0.13575629889965057,
            -0.08503874391317368,
            -0.23653408885002136,
            0.11774887144565582,
            0.03595525771379471,
            0.2524549663066864,
            -0.20144063234329224,
            -0.1948818564414978,
            0.127097487449646,
            0.1962130218744278,
            -0.04616929218173027,
            -0.02006826363503933,
            -0.08944106101989746,
            0.1181907132267952,
            0.1483040750026703,
            -0.045976899564266205,
            0.14322757720947266,
            0.08236328512430191,
            0.08859104663133621,
            -0.01455335970968008,
            0.0079899737611413,
            -0.22903813421726227,
            0.19155281782150269,
            -0.0516296848654747,
            -0.1218588650226593,
            -0.0064621069468557835,
            -0.03162405267357826,
            0.11977434903383255,
            -0.1144261509180069,
            -0.2748302221298218,
            -0.15304547548294067,
            0.26884743571281433,
            0.20021453499794006,
            -0.14583726227283478,
            0.003992296289652586,
            -0.18497252464294434,
            -0.06053495407104492,
            0.14196954667568207,
            -0.06241816282272339,
            0.21390476822853088,
            0.19911900162696838,
            0.08612240850925446,
            0.23970110714435577,
            0.18215328454971313,
            -0.0028563968371599913,
            -0.015681680291891098,
            -0.035092923790216446,
            -0.25967755913734436,
            0.049190931022167206,
            0.11903243511915207,
            -0.13339626789093018,
            0.1849755346775055,
            0.053220342844724655,
            -0.08784720301628113,
            -0.007686280179768801,
            0.1815916895866394,
            0.058781255036592484,
            -0.08431319147348404,
            0.06892798095941544,
            0.043984122574329376,
            -0.15134049952030182,
            -0.2597655653953552,
            -0.004312244243919849,
            -0.07350924611091614,
            0.1254132091999054,
            0.032026443630456924,
            0.0810193419456482,
            -0.012706153094768524,
            0.14223286509513855,
            0.01264437660574913,
            -0.07189085334539413,
            -0.02413273975253105,
            0.13587699830532074,
            0.09977937489748001,
            0.19787690043449402,
            -0.01573927327990532,
            -0.09483652561903,
            0.10455138236284256,
            0.0362577885389328,
            -0.2079194188117981,
            -0.06238120049238205,
            0.10900139808654785,
            -0.11991599947214127,
            -0.012263456359505653,
            -0.07297223806381226,
            -0.2247912585735321,
            -0.08952873200178146,
            -0.11072438210248947,
            -0.05318513885140419,
            -0.280429869890213,
            0.10044965893030167,
            0.11581404507160187,
            -0.20019195973873138,
            0.039837546646595,
            0.10971537977457047,
            0.23355287313461304,
            -0.19385002553462982,
            -0.1588289439678192,
            -0.10689372569322586,
            0.23809458315372467,
            -0.04969974607229233,
            -0.004696680698543787,
            0.02661355584859848,
            -0.09851580113172531,
            -0.0680931881070137,
            0.13647642731666565,
            0.009508798830211163,
            0.21065136790275574,
            -0.12988661229610443,
            -0.21092897653579712,
            -0.29239118099212646,
            0.09228392690420151,
            -0.09540949761867523,
            -0.1484871655702591,
            0.09938949346542358,
            0.2481606900691986,
            -0.10380374640226364,
            0.10029324889183044,
            -0.0012180700432509184,
            0.051839713007211685,
            0.14152610301971436,
            0.18949508666992188,
            -0.22301198542118073,
            -0.07897702604532242,
            0.01884111762046814,
            -0.020284416154026985,
            -0.016591954976320267,
            0.01979580894112587,
            0.14190824329853058,
            -0.2128569483757019,
            0.10310325026512146,
            0.04045769199728966,
            -0.2564185559749603,
            -0.12917689979076385,
            -0.1400378793478012,
            -0.14024974405765533,
            -0.15363618731498718,
            0.1729656308889389,
            -0.16691066324710846,
            0.23348945379257202,
            0.08070681989192963,
            0.08634049445390701,
            -0.20555374026298523,
            0.13570888340473175,
            -0.18206074833869934,
            -0.016646934673190117,
            -0.035922471433877945,
            -0.08412005007266998,
            -0.07883678376674652,
            0.12475970387458801,
            -0.10594446212053299,
            -0.020746488124132156,
            0.1397719532251358,
            0.24340218305587769,
            -0.13478709757328033,
            -0.20337499678134918,
            -0.25174978375434875,
            0.09267722815275192,
            0.026733266189694405,
            -0.09800201654434204,
            -0.18041884899139404,
            -0.2122848927974701,
            -0.07085228711366653,
            0.08817973732948303,
            -0.0932462215423584,
            -0.10853306204080582,
            0.1319173276424408,
            -0.07296358048915863,
            -0.13668249547481537,
            0.11812933534383774,
            0.06765639781951904,
            -0.18029002845287323,
            0.08188068866729736,
            -0.14396913349628448,
            0.06239809840917587,
            0.24046677350997925,
            -0.09110260754823685,
            -0.16115981340408325,
            0.03912107273936272,
            -0.009748398326337337,
            -0.20585784316062927,
            -0.19236120581626892,
            -0.1285003125667572,
            -0.09149770438671112,
            0.021899862214922905,
            0.02277315966784954,
            -0.14449551701545715,
            -0.37709319591522217,
            -0.07265221327543259,
            0.13163475692272186,
            0.21669143438339233,
            -0.02401447854936123,
            0.23512162268161774,
            -0.09234199672937393,
            -0.13545365631580353,
            0.06441648304462433,
            0.020116010680794716,
            0.2252645194530487,
            -0.06211000680923462,
            -0.07118630409240723,
            0.3354652225971222,
            0.14232924580574036,
            -0.052300091832876205,
            0.03339768201112747,
            -0.16642794013023376,
            -0.058096110820770264,
            -0.012843596749007702,
            0.025240080431103706,
            -0.016923999413847923,
            -0.0549420602619648,
            -0.11291959136724472,
            0.14360155165195465,
            0.26287320256233215,
            -0.10721216350793839,
            -0.057706113904714584,
            -0.12969061732292175,
            0.08557478338479996,
            -0.045494768768548965,
            0.19546793401241302,
            -0.09011507779359818,
            0.11567026376724243,
            0.046668484807014465,
            0.012907780706882477,
            -0.030669772997498512,
            -0.06912284344434738,
            0.07545970380306244,
            0.14732135832309723,
            -0.073323093354702,
            -0.020599842071533203,
            0.09238042682409286,
            0.05293892323970795,
            -0.057100605219602585,
            0.14866726100444794,
            0.08803296834230423,
            -0.03466276079416275,
            0.008455309085547924,
            -0.008704330772161484,
            -0.02143273688852787,
            -0.003967866767197847,
            0.09244737774133682,
            -0.02717127650976181,
            0.0574195422232151,
            0.012268280610442162,
            -0.03522045537829399,
            0.007037930190563202,
            -0.15641570091247559,
            -0.22273625433444977,
            -0.07040411978960037,
            0.15135709941387177,
            -0.17868629097938538,
            0.09223531186580658,
            0.1478452980518341,
            0.02435021474957466,
            0.11454001814126968,
            0.08207762986421585,
            0.07683447003364563,
            -0.0661935806274414,
            0.17933304607868195,
            0.157456636428833,
            -0.028847502544522285,
            0.04027838259935379,
            0.06300242990255356,
            -0.0395113006234169,
            0.022976407781243324,
            -0.04086790233850479,
            -0.16733624041080475,
            -0.21043513715267181,
            -0.27087438106536865,
            0.15544100105762482,
            0.1013404130935669,
            0.27488115429878235,
            -0.006677913013845682,
            0.27914685010910034,
            -0.14365017414093018,
            0.04359494894742966,
            0.2017972469329834,
            -0.1992095410823822,
            0.040980324149131775,
            -0.18870307505130768,
            -0.01652965508401394,
            -0.14075131714344025,
            0.06963499635457993,
            -0.2457718551158905,
            -0.27077728509902954,
            0.18764926493167877,
            0.15515509247779846,
            0.021294306963682175,
            0.01658635586500168,
            -0.16613131761550903,
            0.05001707375049591,
            -0.005492634605616331,
            0.007734369020909071,
            0.1407093107700348,
            0.23864811658859253,
            0.06264489144086838,
            -0.03571997582912445,
            -0.1472172886133194,
            -0.17062515020370483,
            -0.2466108202934265,
            -0.21274638175964355,
            -0.19352363049983978,
            0.22730955481529236,
            -0.050124868750572205,
            -0.08352497220039368,
            -0.10115884989500046,
            -0.15210169553756714,
            -0.02200826071202755,
            -0.2051570564508438,
            -0.042874470353126526,
            -0.08081718534231186,
            -0.09723153710365295,
            0.10840702056884766,
            0.10664832592010498,
            0.07282532006502151,
            -0.2933070659637451,
            -0.3009333908557892,
            -0.08080457150936127,
            -0.05262184143066406,
            0.09733287990093231,
            -0.0018799452809616923,
            -0.16526071727275848,
            -0.05734217166900635,
            0.24466274678707123,
            -0.20002034306526184,
            -0.016052020713686943,
            0.0008328465046361089,
            -0.011916888877749443,
            0.08755500614643097,
            -0.045712679624557495,
            0.06133342906832695,
            -0.003825404681265354,
            0.20487280189990997,
            -0.20969557762145996,
            0.0007510168361477554,
            -0.00707743875682354,
            0.10020629316568375,
            -0.1466212123632431,
            0.23799185454845428,
            -0.023108918219804764,
            -0.12389696389436722,
            0.005291704088449478,
            -0.15410549938678741,
            -0.08680091798305511,
            -0.16188113391399384,
            0.11709244549274445,
            -0.18499192595481873,
            0.11519117653369904,
            -0.24674785137176514,
            -0.2746388912200928,
            0.10219351202249527,
            0.15405644476413727,
            -0.022462552413344383,
            0.04172647371888161,
            0.2083369940519333,
            0.0584675632417202,
            -0.08252590894699097,
            -0.006827465258538723,
            -0.19579613208770752,
            0.1174759566783905,
            -0.043677546083927155,
            0.13106967508792877,
            -0.24917766451835632,
            -0.0013989814324304461,
            0.15582521259784698,
            -0.02305033430457115,
            -0.23868419229984283,
            -0.04212898015975952,
            0.22366246581077576,
            -0.14713403582572937,
            0.0020978525280952454,
            -0.12077628821134567,
            -0.03750067204236984,
            0.1471668928861618,
            0.21084900200366974,
            0.20226655900478363,
            -0.26208677887916565,
            -0.09456459432840347,
            -0.13020433485507965,
            -0.2590517997741699,
            0.19112949073314667,
            0.12643712759017944,
            -0.24176578223705292,
            -0.17742323875427246,
            -0.10588870197534561,
            0.20787671208381653,
            -0.09390178322792053,
            0.056132569909095764,
            0.10838628560304642,
            -0.05100015550851822,
            0.19802388548851013,
            -0.16696912050247192,
            0.16619718074798584,
            -0.08812131732702255,
            -0.06715077906847,
            0.23850184679031372,
            -0.2396097481250763,
            0.19398419559001923,
            0.07039175927639008,
            0.19747154414653778,
            0.10133356600999832,
            0.18965962529182434,
            0.055678751319646835,
            0.06490177661180496,
            -0.1672942042350769,
            0.036078907549381256,
            0.01200943998992443,
            -0.16318641602993011,
            0.011958189308643341,
            0.1246090978384018,
            0.036438047885894775,
            0.17896616458892822,
            0.03763837739825249,
            0.17637738585472107,
            0.01973007060587406,
            0.07528118789196014,
            0.001780470134690404,
            -0.0697321966290474,
            -0.05249891057610512,
            0.05075811967253685,
            -0.06287252902984619,
            -0.24152705073356628,
            0.2832578420639038,
            0.2148914784193039,
            0.08020143210887909,
            -0.26165202260017395,
            -0.025297800078988075,
            -0.09441112726926804,
            0.060774289071559906,
            0.009647258557379246,
            -0.2250334769487381,
            0.1719745397567749,
            -0.01487437542527914,
            0.16978052258491516,
            -0.0014278769958764315,
            -0.1074318066239357,
            0.08571771532297134,
            0.030809970572590828,
            0.18566317856311798,
            -0.06445597857236862,
            0.052952174097299576,
            0.06248217448592186,
            -0.1650184541940689,
            -0.1519310027360916,
            0.1666233241558075,
            -0.017504794523119926,
            0.11611831933259964,
            -0.10167890042066574,
            -0.021022535860538483,
            0.21852371096611023,
            0.12999051809310913,
            0.10819174349308014,
            0.12096474319696426,
            -0.027268260717391968,
            0.02650401182472706,
            0.1118316575884819,
            0.012706459499895573,
            0.005987998563796282,
            0.04167557880282402,
            -0.1696934700012207,
            -0.2606298625469208,
            -0.07835166156291962,
            0.08744346350431442,
            -0.05942631512880325,
            0.0938558503985405,
            -0.23890872299671173,
            -0.03208869695663452,
            0.13390155136585236,
            -0.2427455633878708,
            -0.030125819146633148,
            -0.025397641584277153,
            0.13576005399227142,
            -0.06562232971191406,
            -0.08930414170026779,
            -0.1315712034702301,
            0.1942886859178543,
            0.18661120533943176,
            -0.08680112659931183,
            -0.272199422121048,
            -0.1450657844543457,
            -0.21422602236270905,
            0.19207492470741272,
            -0.015526548959314823,
            0.09219999611377716,
            0.19113552570343018,
            0.12700992822647095,
            -0.03030616044998169,
            0.21776768565177917,
            -0.004463293589651585,
            -0.25929784774780273,
            -0.03072730079293251,
            0.0031466553919017315,
            -0.06177058070898056,
            0.021833334118127823,
            0.15166833996772766,
            -0.22762253880500793,
            0.06491658836603165,
            -0.12167013436555862,
            -0.10956860333681107,
            0.021702108904719353,
            0.18768183887004852,
            0.04663138464093208,
            0.10436134040355682,
            -0.1234116330742836,
            0.17881238460540771,
            0.0826592892408371,
            -0.11152727156877518,
            -0.06385184824466705,
            -0.06694480031728745,
            -0.07776480913162231,
            -0.003938081208616495,
            -0.033246301114559174,
            0.0805470421910286,
            0.02202136255800724,
            -0.09363414347171783,
            -0.08419539779424667,
            0.05755685269832611,
            0.06502682715654373,
            -0.1190720945596695,
            0.15407395362854004,
            -0.016394726932048798,
            0.05185678228735924,
            -0.057168956845998764,
            -0.18164853751659393,
            0.10703771561384201,
            -0.030345626175403595,
            0.14164994657039642,
            -0.10737505555152893,
            -0.043150920420885086,
            0.0911632850766182,
            -0.04701859503984451,
            0.13490746915340424,
            -0.11242098361253738,
            -0.050818685442209244,
            -0.13493506610393524,
            0.20652413368225098,
            -0.16308577358722687,
            -0.20341844856739044,
            0.08964639157056808,
            -0.052148010581731796,
            0.08899498730897903,
            0.02828877419233322,
            0.068971186876297,
            0.25500932335853577,
            -0.005136996973305941,
            0.13756735622882843,
            -0.10195084661245346,
            0.11908066272735596,
            -0.1685628741979599,
            -0.13675764203071594,
            0.027913006022572517,
            0.02741871401667595,
            0.06827061623334885,
            0.1457923799753189,
            -0.12892605364322662,
            0.19586820900440216,
            0.08521115779876709,
            0.2649644911289215,
            -0.07361258566379547,
            -0.04609979689121246,
            -0.05522872507572174,
            -0.11570289731025696,
            0.05480634421110153,
            -0.01287084724754095,
            0.20779170095920563,
            0.12384369969367981,
            -0.05144086107611656,
            0.1449074149131775,
            -0.05320795997977257,
            0.01760138012468815,
            0.08491282910108566,
            0.0005008793668821454,
            -0.01964772678911686,
            0.25932782888412476,
            0.03926136717200279,
            0.03763819858431816,
            -0.08348686993122101,
            -0.2265240103006363,
            -0.045463211834430695,
            -0.007413546554744244,
            -0.24375496804714203,
            -0.12558633089065552,
            -0.09119667857885361,
            0.07211175560951233,
            -0.2574085295200348,
            0.2155679315328598,
            0.1866336315870285,
            0.008375657722353935,
            -0.02018839679658413,
            -0.00548994354903698,
            0.015020334161818027,
            0.05580544099211693,
            0.14903828501701355,
            0.23008547723293304,
            -0.1481567919254303,
            -0.004685103893280029,
            -0.07200843095779419,
            -0.031561098992824554,
            0.07251119613647461,
            0.05961071699857712,
            -0.2349810004234314,
            -0.01904417760670185,
            -0.019655529409646988,
            -0.13160739839076996,
            -0.09475766122341156,
            0.15076209604740143,
            0.05768416449427605,
            0.034399595111608505,
            0.09827930480241776,
            0.09265051782131195,
            0.09589783102273941,
            0.1461520791053772,
            -0.11760684847831726,
            -0.049236223101615906,
            0.022411614656448364,
            0.04906916245818138,
            -0.002825672272592783,
            -0.05170895904302597,
            0.06464952975511551,
            -0.01006797794252634,
            0.18659305572509766,
            -0.020649466663599014,
            0.056686464697122574,
            -0.038026757538318634,
            0.17036190629005432,
            -0.0066500636748969555,
            -0.11161530017852783,
            0.21464446187019348,
            0.04668892174959183,
            0.11385335773229599,
            0.1961008757352829,
            0.24997784197330475,
            0.14434140920639038,
            -0.22144685685634613,
            -0.20258621871471405,
            0.130013570189476,
            0.18011750280857086,
            0.022727593779563904,
            0.27791813015937805,
            0.009117379784584045,
            -0.0666113793849945,
            0.09939055889844894,
            0.14371494948863983,
            0.055142492055892944,
            0.1771247833967209,
            0.07192081212997437,
            -0.10827881097793579,
            -0.05396115407347679,
            0.12337884306907654,
            -0.004367419518530369,
            0.08380520343780518,
            0.011540594510734081,
            0.08420141041278839,
            -0.011345839127898216,
            -0.11189712584018707,
            -0.023008039221167564,
            -0.009776090271770954,
            -0.07028546929359436,
            -0.03531036898493767,
            0.24643848836421967,
            -0.04457895830273628,
            -0.3331112861633301,
            0.014250037260353565,
            -0.016267266124486923,
            0.04367615655064583,
            0.1479850560426712,
            -0.2247101068496704,
            0.2581457197666168,
            -0.06812334805727005,
            -0.0066391825675964355,
            0.07536106556653976,
            0.04249519482254982,
            0.038439057767391205,
            -0.1128925085067749,
            -0.17639461159706116,
            0.20204655826091766,
            -0.05426746606826782,
            0.1390296071767807,
            -0.11576858907938004,
            0.16564878821372986,
            0.14877596497535706,
            -0.09423947334289551,
            0.199026420712471,
            -0.09543759375810623,
            0.08400371670722961,
            -0.14119718968868256,
            -0.2103595733642578,
            0.005445579066872597,
            -0.08915705233812332,
            -0.2355722039937973,
            -0.07867489010095596,
            -0.17917859554290771,
            0.11841924488544464,
            0.14171555638313293,
            -0.007310428656637669,
            -0.146177738904953,
            0.005119530484080315,
            0.05540788173675537,
            -0.06893064826726913,
            -0.09901419281959534,
            0.15291741490364075,
            -0.07158289849758148,
            0.16530847549438477,
            -0.14726433157920837,
            -0.005924209952354431,
            -0.006259531248360872,
            -0.0008582613081671298,
            -0.2293301522731781,
            -0.03745165094733238,
            0.127793550491333,
            0.07484398037195206,
            0.3093930780887604,
            -0.005150048993527889,
            0.09533486515283585,
            -0.032810475677251816,
            -0.2108689397573471,
            -0.037624064832925797,
            -0.06499531120061874,
            0.18667718768119812,
            -0.036902546882629395,
            -0.002054699696600437,
            -0.007838785648345947,
            0.0008806224795989692,
            -0.03198397904634476,
            -0.015112404711544514,
            0.010729451663792133,
            0.10898963361978531,
            0.2159881889820099,
            0.10036840289831161,
            -0.08612111210823059,
            0.15581728518009186,
            0.04365423321723938,
            -0.2688526213169098,
            -0.1821388155221939,
            0.05071255564689636,
            -0.16134348511695862,
            -0.10764480382204056,
            0.017807845026254654,
            0.04224632680416107,
            0.009275049902498722,
            -0.22904972732067108,
            0.06224823743104935,
            0.062440596520900726,
            0.004521313589066267,
            -0.19236114621162415,
            -0.22387540340423584,
            0.1262602061033249,
            0.26521965861320496,
            -0.11295992136001587,
            -0.08117233961820602,
            -0.2847210764884949,
            -0.012425245717167854,
            0.003109809011220932,
            -0.003195257391780615,
            0.08924220502376556,
            0.08753756433725357,
            0.10910855978727341,
            -0.07113119214773178,
            -0.05752655491232872,
            0.03365298733115196,
            0.20167118310928345,
            0.08816586434841156,
            0.18927186727523804,
            -0.12229478359222412,
            -0.23375803232192993,
            0.07381384074687958,
            -0.16373680531978607,
            0.20959092676639557,
            0.2398710697889328,
            -0.29571017622947693,
            -0.20970715582370758,
            0.13723903894424438,
            -0.2770402431488037,
            0.0830608531832695,
            -0.007136406376957893,
            -0.04175346717238426,
            0.08679862320423126,
            0.01625888980925083,
            -0.03392674773931503,
            0.12013814598321915,
            -0.19758209586143494,
            0.17433103919029236,
            0.04401227831840515,
            0.15599270164966583,
            0.06358309835195541,
            -0.06452722102403641,
            -0.04903649911284447,
            -0.03074800781905651,
            -0.10398933291435242,
            -0.17869924008846283,
            0.0519392229616642,
            0.09654407203197479,
            -0.19808633625507355,
            0.1722632646560669,
            0.2350834608078003,
            -0.04153828322887421,
            0.02845200151205063,
            0.1822860687971115,
            -0.28800877928733826,
            0.28138038516044617,
            -0.1731625497341156,
            -0.07226602733135223,
            0.024414869025349617,
            0.14127780497074127,
            0.030125759541988373,
            -0.10535965859889984,
            0.09461931139230728,
            0.07114612311124802,
            0.11427956819534302,
            0.03835934400558472,
            -0.1424761712551117,
            -0.1494176834821701,
            -0.08082292228937149,
            -0.10380382090806961,
            -0.1955590844154358,
            -0.06837881356477737,
            -0.2588745951652527,
            -0.20985111594200134,
            0.22753284871578217,
            0.1564948558807373,
            -0.0593755729496479,
            -0.0010650679469108582,
            -0.004491252359002829,
            -0.05673113092780113,
            -0.0015373375499621034,
            0.002344815293326974,
            -0.09737072885036469,
            -0.30518636107444763,
            -0.10431164503097534,
            -0.055267974734306335,
            -0.15200595557689667,
            -0.030402835458517075,
            -0.055296674370765686,
            -0.013049876317381859,
            0.10917538404464722,
            0.04954208433628082,
            0.09968727827072144,
            -0.04528438672423363,
            0.07770128548145294,
            -0.07567360252141953,
            -0.00893724150955677,
            -0.11172916740179062,
            -0.1673610359430313,
            0.1840614378452301,
            -0.04869887977838516,
            -0.204913929104805,
            0.10046087205410004,
            0.2804243266582489,
            -0.17234039306640625,
            0.17145906388759613,
            0.06933199614286423,
            -0.05131101235747337,
            -0.194651260972023,
            -0.035576339811086655,
            -0.016449453309178352,
            -0.10304682701826096,
            0.1801302433013916,
            -0.15111291408538818,
            0.061800867319107056,
            0.03916754573583603,
            -0.0936516523361206,
            -0.011138690635561943,
            -0.053911998867988586,
            0.02954348735511303,
            0.14755743741989136,
            0.005728857591748238,
            -0.0071318442933261395,
            0.06750558316707611,
            0.16556042432785034,
            -0.16103501617908478,
            0.027099505066871643,
            0.1297643631696701,
            0.00332427560351789,
            -0.15278752148151398,
            0.1022147387266159,
            -0.25510820746421814,
            -0.18280740082263947,
            -0.037344787269830704,
            -0.09161189943552017,
            -0.07057980448007584,
            0.2507958710193634,
            -0.16523632407188416,
            0.12109564989805222,
            0.2147219330072403,
            0.07127285748720169,
            -0.04761128127574921,
            0.12150419503450394,
            0.09721451997756958,
            -0.006402081809937954,
            0.0062940423376858234,
            0.05183770880103111,
            -0.216505765914917,
            -0.0937744751572609,
            -0.16533243656158447,
            0.09511358290910721,
            0.12025663256645203,
            0.1741955280303955,
            -0.09020943194627762,
            -0.1362411379814148,
            -0.026743000373244286,
            -0.1615857034921646,
            -0.03691635653376579,
            -0.17470169067382812,
            -0.07438468933105469,
            -0.27051404118537903,
            0.007317017763853073,
            0.07771958410739899,
            0.10253371298313141,
            0.10027487576007843,
            -0.030846089124679565,
            0.085225410759449,
            0.027487583458423615,
            0.05992266535758972,
            0.28805971145629883,
            0.1544942408800125,
            -0.22689662873744965,
            -0.044672369956970215,
            -0.3245265483856201,
            0.042020294815301895,
            -0.03779583424329758,
            0.16709648072719574,
            0.0010234917281195521,
            -0.001759514445438981,
            0.025948237627744675,
            0.26137396693229675,
            -0.18159407377243042,
            0.02413502149283886,
            -0.21017047762870789,
            0.10330048203468323,
            0.024719014763832092,
            -0.04225074499845505,
            0.08460111171007156,
            0.11755780130624771,
            0.14992433786392212,
            -0.09123653918504715,
            0.15623046457767487,
            -0.012955962680280209,
            0.14133320748806,
            -0.02805877849459648,
            0.08605483919382095,
            -0.0551685094833374,
            0.10605105757713318,
            -0.18799777328968048,
            0.20207799971103668,
            -0.046364523470401764,
            0.04983985051512718,
            -0.04036480933427811,
            0.0015987276565283537,
            0.04289928823709488,
            0.03794091194868088,
            -0.05437583476305008,
            0.09943319857120514,
            -0.22110576927661896,
            -0.09836003184318542,
            0.26214805245399475,
            0.22711080312728882,
            0.029317211359739304,
            -0.06781388819217682,
            -0.10071256011724472,
            -0.028144609183073044,
            -0.13390561938285828,
            -0.1691904515028,
            0.09880372136831284,
            0.009506698697805405,
            -0.0020102057605981827,
            0.047214850783348083,
            0.0821002945303917,
            -0.09533403068780899,
            0.047753509134054184,
            -0.021362051367759705,
            0.1550171673297882,
            0.2430475801229477,
            0.0930032730102539,
            -0.024870747700333595,
            -0.02563634142279625,
            -0.1934574991464615,
            0.13067710399627686,
            -0.026096338406205177,
            0.03121958300471306,
            0.16550520062446594,
            -0.12239137291908264,
            -0.10339619219303131,
            -0.20347264409065247,
            -0.007974513806402683,
            0.1892976611852646,
            0.02161705680191517,
            0.16855034232139587,
            0.016921721398830414,
            -0.2644423544406891,
            0.031905170530080795,
            -0.021618518978357315,
            0.25072184205055237,
            -0.1778896152973175,
            0.11978643387556076,
            -0.05778259411454201,
            0.2067909687757492,
            0.05522970110177994,
            -0.06658250838518143,
            -0.13673186302185059,
            -0.0018993832636624575,
            -0.28838831186294556,
            -0.17050953209400177,
            -0.15334446728229523,
            0.13741983473300934,
            0.06735207140445709,
            -0.11510654538869858,
            -0.0989813506603241,
            0.03196517378091812,
            -0.09250082075595856,
            0.18095552921295166,
            0.07655619084835052,
            -0.09617799520492554,
            -0.1260918825864792,
            0.03723781183362007,
            -0.06843128055334091,
            -0.06979546695947647,
            0.0737030878663063,
            0.10464724898338318,
            -0.2566969096660614,
            -0.11840353161096573,
            0.12967316806316376,
            -0.07551974803209305,
            0.22824575006961823,
            0.12328696250915527,
            -0.07089799642562866,
            0.16124098002910614,
            0.03040010668337345,
            -0.15310028195381165,
            0.11220092326402664,
            -0.13915306329727173,
            0.06272169947624207,
            -0.10130846500396729,
            -0.184981569647789,
            -0.1755792200565338,
            -0.19546158611774445,
            -0.13203434646129608,
            -0.14123305678367615,
            0.16739581525325775,
            0.22630783915519714,
            -0.08811138570308685,
            -0.151463583111763,
            0.04751558229327202,
            -0.0060397121123969555,
            -0.01451002899557352,
            -0.010771878995001316,
            0.0454331636428833,
            -0.06130480766296387,
            -0.1772310733795166,
            -0.31744909286499023,
            -0.09835044294595718,
            -0.050915732979774475,
            -0.12999998033046722,
            -0.2085600048303604,
            -0.16610610485076904,
            -0.1070011556148529,
            -0.23164087533950806,
            0.1406954675912857,
            0.07589149475097656,
            -0.2001848816871643,
            0.15377098321914673,
            -0.01389405783265829,
            0.03050043061375618,
            -0.04327472671866417,
            -0.02295970357954502,
            -0.016294853761792183,
            -0.1196274384856224,
            0.23796898126602173,
            0.09278970211744308,
            -0.18349803984165192,
            0.3006380796432495,
            -0.050826724618673325,
            0.24316558241844177,
            -0.1455952227115631,
            0.2510032057762146,
            0.056031834334135056,
            0.1618943214416504,
            0.16491664946079254,
            -0.14942769706249237,
            0.006798547692596912,
            0.0950697809457779,
            -0.05990760028362274,
            -0.1471381038427353,
            0.10360746830701828,
            -0.08570994436740875,
            0.021835044026374817,
            -0.06747087836265564,
            -0.08160674571990967,
            -0.06983942538499832,
            0.17357976734638214,
            0.17572973668575287,
            0.2224329113960266,
            -0.08877810090780258,
            -0.18348291516304016,
            0.05889592692255974,
            -0.07704636454582214,
            -0.15200823545455933,
            -0.10880330204963684,
            -0.25382858514785767,
            -0.07769708335399628,
            0.05050906911492348,
            0.12503676116466522,
            0.04773695021867752,
            -0.026218729093670845,
            0.10801286995410919,
            0.1567791849374771,
            -0.08657791465520859,
            -0.13954317569732666,
            -0.12477348744869232,
            -0.0604274608194828,
            -0.11322946846485138,
            -0.22456246614456177,
            0.3012019991874695,
            0.048040296882390976,
            0.1054292842745781,
            -0.08960599452257156,
            0.22829501330852509,
            -0.2055159956216812,
            -0.01737544871866703,
            -0.028732480481266975,
            0.04396621510386467,
            0.012608683668076992,
            0.20923222601413727,
            -0.08985982835292816,
            0.05214383825659752,
            0.11973466724157333,
            0.1081530824303627,
            -0.07708745449781418,
            0.20278817415237427,
            -0.11019490659236908,
            0.2796486020088196,
            0.1668182611465454,
            0.014510673470795155,
            0.22893325984477997,
            -0.026259714737534523,
            0.15160039067268372,
            -0.1391790509223938,
            -0.18161655962467194,
            0.04374763369560242,
            -0.049533747136592865,
            -0.09007018804550171,
            -0.052860524505376816,
            0.025762835517525673,
            0.02940855547785759,
            0.1060200110077858,
            0.15461976826190948,
            0.031593501567840576,
            0.12190960347652435,
            0.009521003812551498,
            0.02097194828093052,
            0.2748853266239166,
            -0.014953947626054287,
            -0.0010224453872069716,
            0.15599805116653442,
            -0.04943414777517319,
            0.06592293828725815,
            0.07491102069616318,
            -0.05205276608467102,
            0.06549952924251556,
            0.01064075157046318,
            0.125185027718544,
            0.10480348765850067,
            -0.09341108053922653,
            -0.08933030068874359,
            0.09999703615903854,
            0.07419987767934799,
            0.265510231256485,
            -0.13753612339496613,
            -0.06484918296337128,
            -0.22802430391311646,
            0.09853039681911469,
            -0.14690673351287842,
            0.0905970111489296,
            0.002375578274950385,
            0.30445632338523865,
            -0.1370643675327301,
            -0.09878211468458176,
            0.054430048912763596,
            -0.04259438440203667,
            -0.028896868228912354,
            0.0695239007472992,
            -0.048438675701618195,
            0.15404660999774933,
            -0.2658832371234894,
            -0.28508368134498596,
            -0.042415302246809006,
            0.03394468128681183,
            -0.031784672290086746,
            0.16789625585079193,
            -0.14813414216041565,
            0.25243204832077026,
            -0.1137610450387001,
            -0.06800922751426697,
            0.10212437063455582,
            0.14401036500930786,
            -0.21488486230373383,
            -0.08156891167163849,
            -0.12686984241008759,
            -0.02273527719080448,
            0.19142496585845947,
            -0.22047369182109833,
            0.15019485354423523,
            -0.29259592294692993,
            0.06886228173971176,
            0.1037047803401947,
            0.012085245922207832,
            0.058033064007759094,
            0.2649655342102051,
            0.1365068554878235,
            -0.07744421064853668,
            0.24428844451904297,
            0.044175028800964355,
            -0.0348631925880909,
            0.3121640086174011,
            -0.28957855701446533,
            -0.03331717848777771,
            0.09697051346302032,
            -0.12144338339567184,
            0.14194051921367645,
            0.03849191218614578,
            0.005146567709743977,
            -0.15355472266674042,
            -0.003803117200732231,
            -0.06704193353652954,
            0.07953359931707382,
            -0.08297092467546463,
            -0.023315049707889557,
            0.007400298956781626,
            0.19460058212280273,
            -0.034177266061306,
            -0.23989248275756836,
            -0.03212246298789978,
            -0.062020495533943176,
            -0.06672734022140503,
            0.11855994164943695,
            0.037559010088443756,
            -0.1625918447971344,
            -0.16251510381698608,
            -0.12655732035636902,
            0.029764147475361824,
            -0.037989918142557144,
            -0.17480942606925964,
            -0.1429089456796646,
            0.19960151612758636,
            0.24845947325229645,
            -0.14219391345977783,
            0.2593297064304352,
            -0.259274423122406,
            -0.012127621099352837,
            -0.005167063791304827,
            0.12543757259845734,
            0.07368992269039154,
            -0.0010116244666278362,
            -0.004315034952014685,
            -0.14933659136295319,
            0.10674405843019485,
            0.09995614737272263,
            -0.03637630492448807,
            0.18288932740688324,
            0.2331252098083496,
            0.042417608201503754,
            -0.07587762176990509,
            -0.06113296374678612,
            0.03110511600971222,
            0.25375235080718994,
            -0.1686069220304489,
            0.04419500008225441,
            -0.22956503927707672,
            0.009243819862604141,
            -0.10452105849981308,
            0.12002819776535034,
            -0.13853415846824646,
            0.11143764853477478,
            -0.03763177990913391,
            -0.20026811957359314,
            0.0029827009420841932,
            0.23319144546985626,
            -0.04257051646709442,
            -0.13387934863567352,
            -0.08857522159814835,
            0.1057797446846962,
            0.02878483198583126,
            0.03241198882460594,
            0.03920627385377884,
            0.13630129396915436,
            0.15505175292491913,
            0.1877429485321045,
            0.10955516248941422,
            -0.06632274389266968,
            -0.24138616025447845,
            0.22826655209064484,
            -0.09766173362731934,
            0.32143348455429077,
            0.26325085759162903,
            0.09349633008241653,
            -0.12477339804172516,
            -0.24541516602039337,
            -0.0369904562830925,
            0.015820935368537903,
            0.14788085222244263,
            0.019171224907040596,
            -0.09968823194503784,
            -0.10436639189720154,
            -0.20634177327156067,
            0.21434582769870758,
            0.04906237870454788,
            -0.1778136044740677,
            -0.12853644788265228,
            0.12273816019296646,
            -0.1358439028263092,
            -0.034096620976924896,
            0.09693247824907303,
            0.0060689630918204784,
            0.18934723734855652,
            0.09272079914808273,
            -0.16571560502052307,
            -0.05440671369433403,
            -0.321233332157135,
            -0.2714709937572479,
            0.15558692812919617,
            0.1987036168575287,
            -0.021128211170434952,
            -0.14184965193271637,
            -0.03381546586751938,
            -0.08055136352777481,
            0.11478475481271744,
            -0.12260743975639343,
            -0.16703352332115173,
            -0.11740224063396454,
            -0.09034620970487595,
            -0.05703573673963547,
            0.08793976157903671,
            -0.21218955516815186,
            -0.13219359517097473,
            0.0622103288769722,
            -0.18550840020179749,
            -0.10506530106067657,
            -0.17210888862609863,
            0.09760566055774689,
            -0.16030460596084595,
            -0.3370814621448517,
            0.04600488021969795,
            0.020964477211236954,
            0.2236982136964798,
            -0.0703750029206276,
            -0.07113324850797653,
            0.17986328899860382,
            -0.15180909633636475,
            -0.12211262434720993,
            -0.06999824196100235,
            -0.23505845665931702,
            0.03547060117125511,
            0.24676892161369324,
            0.17526483535766602,
            0.0030422077979892492,
            -0.16867463290691376,
            -0.03865012899041176,
            -0.102720245718956,
            -0.16925986111164093,
            0.2891390025615692,
            0.002127657411620021,
            -0.22781363129615784,
            0.024351252242922783,
            0.013156275264918804,
            -0.3145025372505188,
            0.10942551493644714,
            0.003788798814639449,
            -0.033905334770679474,
            -0.1421865075826645,
            0.05690012499690056,
            0.02800876833498478,
            0.05744307115674019,
            -0.06588899344205856,
            0.3703613877296448,
            -0.0924445390701294,
            0.08777832984924316,
            -0.2033543884754181,
            -0.20023107528686523,
            -0.11003337800502777,
            0.004594634287059307,
            -0.002837034408003092,
            -0.026291102170944214,
            0.07183953374624252,
            0.026759417727589607,
            0.15901032090187073,
            -0.09770295768976212,
            -0.1778957098722458,
            0.22813451290130615,
            -0.06550415605306625,
            -0.026134375482797623,
            0.14284762740135193,
            -0.2821832597255707,
            0.16794010996818542,
            -0.052754007279872894,
            0.11541463434696198,
            -0.23929736018180847,
            0.04983844980597496,
            0.16876912117004395,
            0.023438382893800735,
            -0.07843538373708725,
            -0.017265688627958298,
            -0.013859057798981667,
            0.019774043932557106,
            -0.02965780720114708,
            0.07223310321569443,
            0.09254305064678192,
            0.05802147090435028,
            0.03441233932971954,
            0.01038120687007904,
            -0.19889912009239197,
            0.08312476426362991,
            0.11128365993499756,
            0.22496087849140167,
            -0.0698920339345932,
            -0.0487932488322258,
            -0.09442757815122604,
            -0.25345999002456665,
            0.15569578111171722,
            0.016426220536231995,
            -0.08987656980752945,
            0.2813074290752411,
            -0.21164321899414062,
            0.17869532108306885,
            -0.1335649937391281,
            -0.026967700570821762,
            0.09630424529314041,
            0.2182115912437439,
            0.11441128700971603,
            0.04872821643948555,
            -0.06449643522500992,
            -0.08132317662239075,
            0.030444776639342308,
            -0.09237975627183914,
            0.2250436246395111,
            0.012139374390244484,
            0.0468447208404541,
            -0.08704200387001038,
            0.21189598739147186,
            -0.13573627173900604,
            -0.2822098135948181,
            0.07115410268306732,
            -0.01093585230410099,
            -0.052142105996608734,
            -0.21978288888931274,
            -0.1100628450512886,
            0.1921120285987854,
            -0.08360055088996887,
            0.06706467270851135,
            -0.11864479631185532,
            0.3217885494232178,
            0.19784419238567352,
            0.1261821836233139,
            0.038051292300224304,
            -0.13260646164417267,
            0.12119936943054199,
            0.15945981442928314,
            -0.027894696220755577,
            -0.011371276341378689,
            0.13923686742782593,
            -0.12398611009120941,
            -0.12943823635578156,
            0.1107902079820633,
            -0.04245196282863617,
            0.056652799248695374,
            -0.25863784551620483,
            0.12688206136226654,
            0.13521119952201843,
            -0.11902789771556854,
            0.06671089679002762,
            0.05038724094629288,
            0.0983537882566452,
            -0.01642155647277832,
            -0.06983828544616699,
            0.0757753849029541,
            -0.13428646326065063,
            -0.06617289036512375,
            -0.12364204227924347,
            -0.014635064639151096,
            0.051673274487257004,
            0.008584079332649708,
            0.21508383750915527,
            0.03841645270586014,
            0.17521092295646667,
            -0.2039709836244583,
            0.013726098462939262,
            0.14371062815189362,
            -0.025847019627690315,
            0.012971430085599422,
            0.206044539809227,
            -0.06204131618142128,
            -0.0011301148915663362,
            0.05717860534787178,
            0.13415881991386414,
            -0.11946254968643188,
            -0.13743309676647186,
            -0.24117986857891083,
            -0.10183542966842651,
            -0.008996378630399704,
            -0.23045605421066284,
            0.03816714510321617,
            -0.05543453246355057,
            -0.12021090090274811,
            0.0010553091997280717,
            -0.07695941627025604,
            0.021875644102692604,
            -0.12020926177501678,
            -0.17971289157867432,
            -0.27248120307922363,
            -0.21577657759189606,
            -0.0491473525762558,
            0.12213540077209473,
            0.27101391553878784,
            0.1153501570224762,
            -0.04227043688297272,
            0.027388831600546837,
            -0.09042210876941681,
            0.07485846430063248,
            0.031069232150912285,
            0.10354384779930115,
            -0.11869631707668304,
            0.07661788910627365,
            0.027245834469795227,
            -0.03467816859483719,
            0.06788704544305801,
            0.17664934694766998,
            -0.07639608532190323,
            -0.1342424750328064,
            -0.09657643735408783,
            0.07670032232999802,
            -0.09848343580961227,
            0.14580397307872772,
            0.17680640518665314,
            -0.010405412875115871,
            -0.09172606468200684,
            0.31632062792778015,
            0.10935918241739273,
            -0.13286684453487396,
            0.11056984961032867,
            -0.031980663537979126,
            -0.061327021569013596,
            -0.1335245817899704,
            -0.01972344145178795,
            0.16259191930294037,
            0.11467248201370239,
            -0.3104424476623535,
            0.20581114292144775,
            -0.04461871460080147,
            -0.1686171144247055,
            0.0396915078163147,
            -0.023280208930373192,
            -0.04374651983380318,
            -0.08817492425441742,
            -0.22218388319015503,
            -0.1183970719575882,
            -0.11270522326231003,
            0.010453512892127037,
            0.016299225389957428,
            0.09758691489696503,
            0.057946816086769104,
            0.18477772176265717,
            -0.16372431814670563,
            0.08843181282281876,
            -0.18391817808151245,
            0.06758328527212143,
            -0.007208115421235561,
            0.26567843556404114,
            -0.09540831297636032,
            -0.21120211482048035,
            0.03238344192504883,
            -0.17575663328170776,
            0.12237057834863663,
            -0.1157602071762085,
            0.011232326738536358,
            -0.07751727104187012,
            -0.020029328763484955,
            -0.007058563642203808,
            -0.2194514274597168,
            0.17970025539398193,
            -0.0529458113014698,
            0.1793033629655838,
            0.0074038696475327015,
            0.12238146364688873,
            -0.09523549675941467,
            -0.23954452574253082,
            -0.17268049716949463,
            -0.1750669628381729,
            -0.21719598770141602,
            0.023707043379545212,
            -0.3400250971317291,
            -0.009607190266251564,
            0.09601710736751556,
            -0.11763881146907806,
            -0.19695208966732025,
            0.011490551754832268,
            0.20283499360084534,
            -0.015458283014595509,
            0.1534285545349121,
            0.036084286868572235,
            -0.07044439017772675,
            0.09600146114826202,
            -0.13276365399360657,
            0.01767701469361782,
            0.0707966536283493,
            0.19700045883655548,
            -0.05807090923190117,
            0.003169889794662595,
            0.07214350253343582,
            0.12034086138010025,
            -0.18058937788009644,
            0.1749189794063568,
            0.16678835451602936,
            0.11734247207641602,
            -0.20308175683021545,
            -0.10779756307601929,
            0.03185350075364113,
            -0.014538828283548355,
            0.10156440734863281,
            0.07019240409135818,
            -0.1607513129711151,
            0.12649808824062347,
            -0.0031282457057386637,
            -0.06280232220888138,
            0.14295384287834167,
            0.1146901473402977,
            -0.02670253999531269,
            0.11209865659475327,
            0.1446561962366104,
            0.22625845670700073,
            0.02778392843902111,
            0.028458179906010628,
            0.16395331919193268,
            -0.09354697167873383,
            -0.13104701042175293,
            -0.2316822111606598,
            0.07169660925865173,
            -0.24012809991836548,
            -0.017055025324225426,
            0.11962831020355225,
            -0.13356269896030426,
            0.09464246779680252,
            0.19131001830101013,
            -0.031416039913892746,
            0.08880745619535446,
            0.06902384757995605,
            0.1149391308426857,
            -0.09102211892604828,
            -0.03347130864858627,
            0.14020077884197235,
            -0.1484411507844925,
            -0.03004283457994461,
            0.09619582444429398,
            0.13757546246051788,
            -0.03228526562452316,
            -0.13080570101737976,
            -0.01637572981417179,
            -0.11495640128850937,
            0.11711137741804123,
            0.05604593828320503,
            -0.04416131228208542,
            0.05670083686709404,
            0.11168218404054642,
            0.11215700954198837,
            0.08948180079460144,
            -0.021733125671744347,
            -0.054748330265283585,
            0.07157398760318756,
            0.10658738762140274,
            0.14620868861675262,
            -0.21931664645671844,
            -0.28235360980033875,
            0.16065245866775513,
            0.09487032145261765,
            -0.32936200499534607,
            0.03502390533685684,
            0.34101301431655884,
            -0.2022249847650528,
            -0.055068306624889374,
            0.2617945969104767,
            0.15338221192359924,
            0.03444723039865494,
            -0.08882434666156769,
            -0.052658598870038986,
            0.07528097927570343,
            0.12106086313724518,
            -0.052551522850990295,
            0.24715642631053925,
            -0.032904673367738724,
            0.046238940209150314,
            0.005001399200409651,
            -0.058539293706417084,
            0.2806706428527832,
            0.0036443828139454126,
            0.10035921633243561,
            -0.1372716724872589,
            -0.1671648770570755,
            -0.1538666933774948,
            0.04898814857006073,
            -0.09616835415363312,
            0.04126625135540962,
            -0.08903732895851135,
            0.10656942427158356,
            -0.08733115345239639,
            0.13363052904605865,
            0.13307735323905945,
            -0.06650956720113754,
            -0.06241890788078308,
            -0.015945428982377052,
            -0.18554933369159698,
            0.1539241522550583,
            -0.01982710137963295,
            0.29770728945732117,
            0.03067016787827015,
            0.020025888457894325,
            0.10780459642410278,
            -0.06429091840982437,
            0.029753733426332474,
            -0.15183483064174652,
            0.05543161928653717,
            0.22190281748771667,
            0.09827398508787155,
            -0.12927012145519257,
            0.04853116348385811,
            0.22584624588489532,
            0.1828346699476242,
            -0.14848342537879944,
            0.1709734946489334,
            -0.0048891594633460045,
            -0.035416342318058014,
            -0.0718185231089592,
            -0.28400230407714844,
            0.2692897915840149,
            0.26782819628715515,
            0.08982846885919571,
            -0.1597331166267395,
            0.0005892059998586774,
            0.0638686791062355,
            -0.09262772649526596,
            0.0825340673327446,
            -0.043351609259843826,
            0.16388247907161713,
            0.02825200743973255,
            0.08716214448213577,
            0.14215654134750366,
            -0.0424785241484642,
            0.06461314111948013,
            0.32108378410339355,
            -0.09143107384443283,
            0.29970431327819824,
            -0.2224186658859253,
            0.11592774838209152,
            -0.024557063356041908,
            0.03713175281882286,
            0.2101062834262848,
            -0.029573334380984306,
            -0.02080479823052883,
            -0.14687694609165192,
            0.02390395849943161,
            0.09445610642433167,
            0.10444644838571548,
            -0.18900497257709503,
            -0.08975637704133987,
            -0.10841193795204163,
            -0.0524538978934288,
            0.048598762601614,
            -0.14029178023338318,
            0.010838153772056103,
            -0.16941317915916443,
            0.011806859634816647,
            0.15505170822143555,
            -0.057722058147192,
            -0.09142403304576874,
            -0.1168917715549469,
            -0.037182509899139404,
            -0.049422722309827805,
            -0.16784167289733887,
            0.22579586505889893,
            -0.14251470565795898,
            0.1749769151210785,
            -0.08665752410888672,
            0.19847917556762695,
            0.12276356667280197,
            0.23355920612812042,
            0.03550951927900314,
            -0.12910889089107513,
            0.08766958117485046,
            -0.12205279618501663,
            0.16446204483509064,
            0.21024678647518158,
            0.13412022590637207,
            -0.29347559809684753,
            0.03799967095255852,
            -0.10996206104755402,
            0.08520039916038513,
            0.1292002946138382,
            -0.20326459407806396,
            -0.1968843638896942,
            -0.03548567369580269,
            -0.024663656949996948,
            0.13243357837200165,
            0.04752178490161896,
            0.2322027087211609,
            -0.05191216990351677,
            0.09028002619743347,
            -0.08064386993646622,
            0.08273670822381973,
            -0.07541737705469131,
            0.1901760995388031,
            -0.0375344343483448,
            0.1293080896139145,
            -0.17137183248996735,
            0.14440789818763733,
            -0.045426059514284134,
            0.2442404180765152,
            -0.11290643364191055,
            0.010129312053322792,
            0.10151348263025284,
            0.08510006964206696,
            0.1109551414847374,
            -0.12263099104166031,
            -0.08672104775905609,
            -0.11489202082157135,
            0.0514453649520874,
            -0.035045076161623,
            -0.11308243870735168,
            -0.1501995325088501,
            -0.020693421363830566,
            0.2780100107192993,
            0.0008499902323819697,
            0.03537212312221527,
            -0.02001720294356346,
            -0.18396911025047302,
            0.07735054194927216,
            -0.14113743603229523,
            0.19136740267276764,
            -0.059843335300683975,
            0.083295077085495,
            -0.046177297830581665,
            0.08112489432096481,
            -0.16288644075393677,
            -0.08142361789941788,
            0.0019751954823732376,
            -0.20671138167381287,
            -0.10295092314481735,
            0.22176718711853027,
            -0.07772861421108246,
            0.0264907106757164,
            0.08823555707931519,
            -0.048398151993751526,
            0.00584379630163312,
            -0.1436757594347,
            0.04114537313580513,
            -0.005341107025742531,
            0.0443255715072155,
            0.24644528329372406,
            -0.19251766800880432,
            -0.08051939308643341,
            0.14364463090896606,
            -0.16744673252105713,
            -0.11104404181241989,
            0.01102464459836483,
            -0.06629496067762375,
            -0.03688362240791321,
            0.18419304490089417,
            -0.02003803849220276,
            0.0409151166677475,
            0.08425401896238327,
            -0.04917244613170624,
            0.18692299723625183,
            0.14279496669769287,
            0.07800313830375671,
            -0.027892598882317543,
            0.058956731110811234,
            0.1829649657011032,
            0.0022913061548024416,
            -0.07828669250011444,
            0.27268752455711365,
            -0.14789041876792908,
            -0.29928094148635864,
            0.12486867606639862,
            -0.008811742067337036,
            -0.14675626158714294,
            0.0280928872525692,
            -0.11738920956850052,
            -0.20345844328403473,
            0.04264300689101219,
            -0.06404701620340347,
            -0.0063512083142995834,
            -0.13109642267227173,
            -0.020147155970335007,
            -0.27723509073257446,
            0.01921357586979866,
            0.16898618638515472,
            -0.10778443515300751,
            0.07538556307554245,
            -0.14843040704727173,
            0.2699083089828491,
            -0.05017058551311493,
            -0.10231570154428482,
            -0.03540068492293358,
            0.11261244118213654,
            0.12670736014842987,
            -0.052610017359256744,
            -0.06099051609635353,
            0.10659263283014297,
            0.3177396357059479,
            0.062391601502895355,
            0.13827824592590332,
            0.04422154650092125,
            0.008334275335073471,
            -0.07429143041372299,
            -0.24853207170963287,
            0.09475748986005783,
            -0.2069404274225235,
            0.172708660364151,
            0.016138985753059387,
            0.17519457638263702,
            0.09740658849477768,
            0.10989456623792648,
            0.15478701889514923,
            0.1111719161272049,
            -0.11880692839622498,
            -0.02780052274465561,
            -0.19571538269519806,
            -0.1310407519340515,
            -0.10458909720182419,
            -0.18384483456611633,
            0.07952728867530823,
            -0.053111929446458817,
            -0.13854531943798065,
            -0.07931692153215408,
            -0.06332451105117798,
            -0.03663720563054085,
            -0.05958472192287445,
            -0.23597653210163116,
            0.11253973841667175,
            -0.07953089475631714,
            -0.21244332194328308,
            0.11920244991779327,
            0.2092638909816742,
            0.02706020697951317,
            -0.054129861295223236,
            -0.053655561059713364,
            -0.04661935940384865,
            0.16859979927539825,
            0.27708184719085693,
            -0.05845653638243675,
            -0.15492631494998932,
            0.1491767168045044,
            -0.026503093540668488,
            -0.19706018269062042,
            -0.20202025771141052,
            -0.12815269827842712,
            -0.154846653342247,
            0.1577836275100708,
            -0.029459746554493904,
            -0.043507516384124756,
            0.0334906205534935,
            -0.1998649686574936,
            -0.10689544677734375,
            -0.11100474745035172,
            -0.00966199953109026,
            0.0003273050533607602,
            0.13119782507419586,
            -0.010354733094573021,
            0.09299865365028381,
            -0.1120171770453453,
            -0.1290922462940216,
            -0.03617101162672043,
            -0.035022083669900894,
            -0.17835788428783417,
            -0.2079862803220749,
            0.08522406965494156,
            -0.34771817922592163,
            -0.18850527703762054,
            -0.13486021757125854,
            0.03823047876358032,
            0.1278182417154312,
            0.021772582083940506,
            0.10469706356525421,
            -0.14507637917995453,
            0.11269426345825195,
            0.16235575079917908,
            -0.10819172114133835,
            0.1193215623497963,
            -0.007103448733687401,
            -0.01091670524328947,
            0.00916990451514721,
            -0.20896251499652863,
            0.1154545247554779,
            0.12888167798519135,
            0.056211844086647034,
            0.10609125345945358,
            0.24981321394443512,
            0.06062227860093117,
            0.1245243027806282,
            -0.1554017961025238,
            -0.02958250418305397,
            0.002564973197877407,
            -0.08386050909757614,
            0.09694773703813553,
            -0.02661578729748726,
            -0.10657370090484619,
            -0.07192788273096085,
            0.2037694752216339,
            0.037580374628305435,
            -0.27576372027397156,
            0.1089358702301979,
            -0.06045227870345116,
            -0.05001475289463997,
            -0.11280626058578491,
            -0.1698429435491562,
            0.3296864926815033,
            -0.23491600155830383,
            0.06008434295654297,
            0.059041064232587814,
            0.07261116057634354,
            -0.03491724282503128,
            -0.06458795070648193,
            0.1286715567111969,
            0.02295290119946003,
            0.19290919601917267,
            0.27497199177742004,
            0.12045826762914658,
            0.08757724612951279,
            0.20812547206878662,
            0.15645791590213776,
            0.20632371306419373,
            0.047644197940826416,
            -0.05248440429568291,
            -0.08624844253063202,
            -0.055790308862924576,
            0.00889256875962019,
